
\data\
ngram 1=7869
ngram 2=79577
ngram 3=19676

\1-grams:
-2.584306	!	-1.696119
-1.331054	,	-0.5641953
-1.247455	.	-1.28981
-3.541016	;	-0.2255734
-1.127759	</s>
-99	<s>	-0.9787873
-2.169948	?	-1.876506
-3.541016	A	-0.3782314
-4.654959	Aaminin	-0.1350649
-4.83105	Aba	-0.1350649
-4.73414	Abala	-0.1350649
-4.83105	Aba’y	-0.1350649
-4.654959	Aborlan	-0.1350649
-4.53002	Abra	-0.1985898
-4.53002	Acad	-0.3979639
-4.588012	Actually	-0.1350649
-4.83105	Adik	-0.1350649
-3.970712	Adobo	-0.261199
-4.319167	Adobong	-0.5740552
-4.588012	Aduka	-0.2386009
-4.654959	Aedes	-0.2730252
-4.73414	Africa	-0.1876577
-4.654959	Agad	-0.1350649
-4.654959	Agad-agad	-0.1350649
-4.73414	Again	-0.1350649
-4.654959	Agosto	-0.1876577
-4.22899	Ah	-0.1350649
-4.73414	Ahh	-0.1876577
-4.53002	Ahon	-0.4103059
-4.83105	Ai	-0.2475084
-3.640719	Akala	-0.1350649
-4.654959	Akin	-0.1350649
-4.319167	Aking	-0.1350649
-4.052899	Aklas	-0.3072226
-3.395684	Ako	-0.1521454
-4.83105	Ako'ng	-0.1350649
-4.001747	Ako'y	-0.1350649
-4.319167	Ako’y	-0.1350649
-3.223595	Alam	-0.1350649
-4.83105	Alas	-0.1350649
-4.83105	Ale	-0.2730252
-4.43311	Aliguyon	-0.1350649
-4.73414	Alin	-0.1350649
-4.286982	Aling	-0.206706
-4.53002	All	-0.1694099
-4.43311	Allen	-0.1818164
-4.319167	Am	-0.206706
-4.654959	America	-0.1766172
-4.654959	American	-0.2475084
-4.43311	Amerika	-0.164334
-4.257019	Amerikano	-0.1553443
-4.588012	Ampatuan	-0.1350649
-4.654959	Ampon	-0.1350649
-4.43311	Amy	-0.1605657
-4.73414	An
-4.654959	Anak	-0.1350649
-3.83105	Anastasha	-0.2448725
-4.319167	And	-0.1350649
-4.654959	Andito	-0.1876577
-4.73414	Andres	-0.1350649
-4.83105	Andrew	-0.2730252
-4.654959	Andy	-0.3311247
-2.449033	Ang	-0.139182
-4.588012	Anim	-0.1350649
-4.73414	Ann	-0.1350649
-4.73414	Anne	-0.1350649
-4.43311	Annelies	-0.1694099
-3.33274	Ano	-0.1961008
-3.92796	Anong	-0.1430634
-4.83105	Anu-ano	-0.206706
-4.73414	Anupa’t	-0.1350649
-4.83105	Anvil	-0.2475084
-4.319167	Anygma	-0.1941839
-4.83105	Anyway	-0.1350649
-4.73414	Apat	-0.1350649
-4.43311	Apektado	-0.1350649
-4.588012	Apekz	-0.206706
-4.83105	Apple	-0.1350649
-4.478868	Aquino	-0.1605656
-4.83105	Arabobo	-0.1350649
-4.478868	Araw	-0.1694098
-4.588012	Araw-araw	-0.1350649
-4.73414	Arcour	-0.1350649
-4.83105	Are	-0.1350649
-4.83105	Aric	-0.206706
-4.090688	As	-0.1876577
-4.588012	Asya	-0.2124911
-2.866084	At	-0.1374879
-4.22899	Ate	-0.2582611
-4.654959	Atin	-0.1350649
-4.654959	Ating	-0.1350649
-4.73414	Atlas	-0.1350649
-4.654959	Aurora	-0.1350649
-4.654959	Avenue	-0.22257
-4.03517	Ay	-0.1350649
-4.73414	Ayala	-0.2475084
-4.588012	Ayan	-0.1350649
-3.569788	Ayaw	-0.1350649
-3.73414	Ayoko	-0.1350649
-4.22899	Ayokong	-0.1350649
-3.662258	Ayon	-0.2292264
-4.654959	Ayos	-0.1350649
-4.588012	Ayun	-0.1350649
-4.83105	Ayusin	-0.1350649
-3.809861	B	-0.2643265
-4.478868	Ba	-0.1694099
-4.43311	Ba't	-0.1350649
-4.73414	Baba	-0.1350649
-4.83105	Babae	-0.1350649
-4.654959	Babalik	-0.1350649
-4.588012	Baboy	-0.1350649
-4.83105	Badtrip	-0.1350649
-4.588012	Bagamat	-0.1350649
-4.73414	Bagay	-0.1350649
-4.090688	Bago	-0.1350649
-4.53002	Bagong	-0.1350649
-4.73414	Baguio	-0.2067059
-4.73414	Bagyong	-0.2067059
-4.654959	Bahagi	-0.1350649
-4.257019	Bahala	-0.206706
-3.455387	Baka	-0.1350649
-3.210394	Bakit	-0.1660979
-4.83105	Balak	-0.1350649
-4.73414	Bale	-0.1350649
-4.654959	Balewala	-0.1350649
-4.73414	Balik	-0.1350649
-4.83105	Banal	-0.206706
-4.73414	Bansa	-0.1350649
-4.83105	Bar	-0.1350649
-4.83105	Barangay	-0.1350649
-4.73414	Bars	-0.1350649
-4.83105	Basa	-0.1350649
-4.83105	Basahin	-0.1350649
-4.73414	Bashiic	-0.1350649
-4.052899	Basta	-0.1350649
-4.73414	Basta't	-0.1350649
-4.588012	Bata	-0.1350649
-4.53002	Batangas	-0.1766172
-4.83105	Batas	-0.1350649
-4.588012	Batch	-0.1876577
-4.588012	Batman	-0.1766172
-4.73414	Bautista	-0.1876577
-4.353929	Bawal	-0.1350649
-4.83105	Bawang	-0.1350649
-3.92796	Bawat	-0.1350649
-4.83105	Bay	-0.1350649
-4.588012	Bayan	-0.1766172
-4.654959	Ba’t	-0.1350649
-4.83105	Beach	-0.1350649
-4.83105	Beauvoir	-0.1350649
-4.83105	Beda	-0.1350649
-4.286982	Beef	-0.206706
-4.83105	Bentong	-0.1350649
-4.588012	Bibigyan	-0.1350649
-4.83105	Bibili	-0.1350649
-4.83105	Bibilisan	-0.1350649
-4.83105	Bibliya	-0.1350649
-4.478868	Bicol	-0.1766172
-4.73414	Big	-0.1350649
-4.22899	Bigla	-0.164334
-4.83105	Biglang-bigla	-0.1350649
-3.914596	Bilang	-0.146879
-4.353929	Bilog	-0.1350649
-4.73414	Binabanggit	-0.1350649
-4.83105	Binabasag	-0.1350649
-4.83105	Binagong	-0.1350649
-4.391717	Binanggit	-0.1350649
-4.73414	Bindian	-0.1876577
-4.588012	Binigyan	-0.1350649
-4.478868	Binuksan	-0.1350649
-4.73414	Biruin	-0.1350649
-4.53002	Bisaya	-0.1350649
-4.83105	Bistek	-0.1350649
-4.588012	Biyernes	-0.1350649
-4.654959	Blk	-0.1350649
-3.488628	Blkd	-0.3711429
-4.83105	Body	-0.1350649
-4.654959	Bolak	-0.2730252
-4.73414	Bonifacio	-0.1350649
-4.257019	Boss	-0.4772528
-4.83105	Boy	-0.1350649
-4.478868	Brazil	-0.1876577
-4.654959	Brgy	-0.2730252
-4.286982	Bugan	-0.1694099
-4.83105	Buhat	-0.1350649
-4.257019	Buhay	-0.1576572
-4.83105	Building	-0.1350649
-4.654959	Bukas	-0.1350649
-4.654959	Buko	-0.2342147
-4.391717	Bukod	-0.1350649
-4.83105	Buksan	-0.1350649
-4.73414	Bulacan	-0.206706
-4.588012	Bulakan	-0.2475084
-4.73414	Bulok	-0.1350649
-4.391717	Bumaba	-0.1350649
-4.73414	Bumalik	-0.1350649
-4.53002	Bumangon	-0.1876577
-4.83105	Bumibigat	-0.1350649
-4.53002	Bumili	-0.1350649
-4.654959	Buong	-0.1350649
-4.73414	Burman	-0.1350649
-4.83105	Busy	-0.1350649
-4.654959	But	-0.1350649
-4.090688	Buti	-0.1694099
-4.654959	Buwan	-0.206706
-4.73414	Buwaya	-0.1876577
-4.588012	By	-0.1350649
-4.052899	C	-0.2055063
-4.73414	Calabarzon	-0.1876577
-4.43311	Calamares	-0.2012783
-4.177838	Campbell	-0.1941839
-4.73414	Canada	-0.2342147
-4.83105	Caramel	-0.1350649
-4.73414	Caritas	-0.2475084
-4.353929	Carla	-0.1989861
-4.654959	Casa	-0.2730252
-4.83105	Casaa	-0.2475085
-4.83105	Case	-0.1350649
-4.588012	Casiguran	-0.1350649
-4.53002	Castro	-0.2916723
-4.22899	Cavite	-0.1884643
-4.43311	Cd	-0.2853673
-4.83105	Cebu	-0.1350649
-4.83105	Central	-0.1350649
-4.83105	Chad	-0.1350649
-4.83105	Check	-0.1350649
-4.03517	Chicken	-0.5615736
-4.353929	China	-0.164334
-4.654959	Chinecheck	-0.1350649
-4.73414	Chinese	-0.1350649
-4.73414	Ching	-0.1350649
-4.83105	Chopsuey	-0.206706
-4.478868	Christ	-0.1605656
-4.654959	Christmas	-0.1350649
-4.13208	City	-0.2119941
-4.319167	Class	-0.1350649
-4.83105	Classification	-0.1350649
-4.83105	Claudette	-0.206706
-4.83105	Club	-0.1350649
-4.83105	Coffeeholic	-0.1350649
-4.83105	College	-0.206706
-4.83105	Commentary	-0.1350649
-4.83105	Compostela	-0.1350649
-4.391717	Consonant	-0.1350649
-4.83105	Control	-0.1350649
-4.654959	Cotabato	-0.1876577
-4.83105	Cr	-0.1350649
-4.83105	Cream	-0.1350649
-4.83105	Creamy	-0.2475084
-4.83105	Crispin	-0.206706
-4.73414	Critical	-0.1350649
-4.73414	Crs	-0.1350649
-4.391717	Crush	-0.2221237
-4.588012	Cruz	-0.1350649
-4.22899	Curry	-0.1576572
-3.914596	D	-0.225294
-4.588012	Dadami	-0.1350649
-4.22899	Dagdag	-0.1350649
-4.73414	Dagwaley	-0.1350649
-4.73414	Dahan-dahan	-0.1350649
-3.459982	Dahil	-0.1399245
-4.83105	Daigdig	-0.1350649
-4.588012	Dakila	-0.1876577
-4.53002	Dala	-0.1350649
-4.83105	Dala-dala	-0.1350649
-4.353929	Dalawa	-0.1350649
-4.478868	Dalawang	-0.1350649
-4.83105	Dame	-0.1350649
-4.83105	Daming	-0.1350649
-4.478868	Dana	-0.1694099
-4.83105	Danao	-0.2475084
-4.73414	Dance	-0.1350649
-3.684922	Dapat	-0.1350649
-4.73414	Darating	-0.1876577
-4.53002	Dati	-0.1350649
-4.588012	Davao	-0.1694098
-4.83105	David	-0.1350649
-4.353929	Day	-0.206706
-4.654959	De	-0.1350649
-4.73414	Death	-0.1350649
-4.22899	Dello	-0.2655365
-4.73414	Denielle	-0.206706
-4.43311	Department	-0.4103059
-4.654959	Development	-0.1350649
-3.53002	Di	-0.1421993
-4.83105	Diathesis	-0.1350649
-4.654959	Dictionary	-0.3311247
-4.83105	Dieu	-0.1350649
-4.090688	Dighay	-0.1350649
-4.73414	Digong	-0.1876577
-4.654959	Diksiyonaryong	-0.1350649
-4.83105	Diksyunaryo	-0.1350649
-4.53002	Diliman	-0.2655365
-4.83105	Dineserve	-0.1350649
-4.83105	Disaster
-4.73414	Disease	-0.2475084
-3.941749	Dito	-0.1350649
-4.478868	Diwa	-0.1876577
-4.53002	Diyan	-0.1350649
-4.090688	Diyos	-0.1735703
-4.83105	Do	-0.2475084
-4.654959	Dong	-0.2475084
-4.654959	Donggon	-0.1350649
-3.985952	Doon	-0.1350649
-4.654959	Dos	-0.1350649
-4.73414	Dota	-0.1876577
-4.43311	Double	-0.4948739
-4.478868	Down	-0.1350649
-4.286982	Dr	-0.641002
-4.83105	Drayber	-0.1350649
-4.654959	Dual	-0.1876577
-4.353929	Dumaan	-0.1350649
-4.83105	Dumami	-0.1350649
-4.478868	Dumating	-0.1350649
-4.588012	Dun	-0.1350649
-4.83105	Dutch	-0.2730252
-4.83105	Duterte	-0.1350649
-4.73414	Dynamic	-0.1350649
-3.339689	E	-0.1791456
-4.73414	Earth	-0.1876577
-4.83105	Edgar	-0.1350649
-4.001747	Edi	-0.1350649
-4.73414	Edisyon	-0.1876577
-4.53002	Edna	-0.1694098
-4.43311	Edsa	-0.1694099
-4.83105	Education	-0.1350649
-4.83105	Edukasyon	-0.1350649
-4.83105	Egoy	-0.1350649
-4.588012	Eh	-0.1766172
-4.83105	Ehipto	-0.1350649
-4.83105	Eiseley	-0.1350649
-4.53002	El	-0.1350649
-4.83105	Eleazar	-0.1350649
-4.83105	Eleven	-0.1350649
-4.654959	Eli	-0.22257
-4.73414	Em	-0.1350649
-4.73414	Eminem	-0.206706
-4.83105	Eng	-0.1350649
-4.018137	English	-0.2564501
-4.43311	Eraserheads	-0.1350649
-4.83105	Eskimo	-0.1350649
-3.92796	Espanyol	-0.2556353
-4.654959	Estado	-0.1876577
-4.83105	Este	-0.2475084
-4.73414	Estofado	-0.2475084
-4.353929	Eto	-0.1350649
-4.73414	Etsa-Puwera	-0.206706
-4.73414	Europa	-0.1876577
-4.654959	Europeo	-0.1766172
-4.83105	Europeong	-0.1350649
-4.391717	Ewan	-0.1350649
-4.588012	Example	-0.1350649
-4.83105	Excited	-0.1350649
-4.654959	Express	-0.1350649
-4.53002	F	-0.1694099
-4.654959	Face	-0.1766172
-3.970712	Facebook	-0.2026257
-4.588012	Fee	-0.1350649
-4.001747	Feeling	-0.1350649
-4.654959	Feminism	-0.1350649
-4.73414	Fer	-0.1876577
-4.73414	Fernando	-0.1350649
-4.83105	Festival	-0.1350649
-4.73414	Fi	-0.1350649
-4.83105	Fiction	-0.1350649
-3.474069	Filipino	-0.2805437
-4.654959	Fire	-0.1876577
-4.73414	First	-0.1350649
-4.654959	Five	-0.1350649
-4.588012	Flict-G	-0.1350649
-3.751869	FlipTop	-0.2077694
-4.654959	Food	-0.1350649
-4.588012	For	-0.1350649
-4.73414	Foreign	-0.1876577
-4.83105	Forever	-0.1350649
-4.83105	Fr	-0.2475085
-4.83105	Freestyle	-0.1350649
-4.353929	French	-0.1350649
-4.73414	Freshie	-0.1350649
-4.654959	Friday	-0.1766172
-4.43311	Friendster	-0.1876577
-4.353929	Fuck	-0.1553443
-4.83105	Fucking	-0.1350649
-4.83105	Fukushima	-0.1350649
-4.654959	Future	-0.1766172
-3.92796	G	-0.248551
-4.83105	Gabi	-0.1350649
-4.83105	Gagawin	-0.1350649
-4.654959	Gago	-0.1350649
-4.654959	Galing	-0.1350649
-4.319167	Galit	-0.1350649
-4.83105	Game	-0.1350649
-4.353929	Gamit	-0.1350649
-4.177838	Ganito	-0.1350649
-4.73414	Gano'n	-0.1350649
-4.001747	Ganoon	-0.1350649
-4.654959	Gano’n	-0.1350649
-4.478868	Ganun	-0.1350649
-4.391717	Ganyan	-0.1350649
-4.73414	Garcia	-0.206706
-4.73414	Gatas	-0.1350649
-4.654959	Gavino	-0.1350649
-4.83105	Gawa	-0.1350649
-4.83105	Gawain	-0.1350649
-4.83105	Gawin	-0.1350649
-4.83105	Gaya	-0.1350649
-4.73414	Gayundin	-0.1350649
-4.83105	Gayunman	-0.1350649
-4.319167	Gayunpaman	-0.1350649
-4.53002	Gela	-0.1766172
-4.588012	Geog	-0.1350649
-4.83105	Gets	-0.1350649
-4.43311	Gin	-0.2220121
-4.478868	Ginagamit	-0.1605656
-4.478868	Ginagawa	-0.1350649
-4.654959	Ginamit	-0.1350649
-4.478868	Ginawa	-0.1350649
-4.73414	Ginaya	-0.1350649
-4.83105	Ginusto	-0.1350649
-4.654959	Gio	-0.206706
-4.73414	Gitnang	-0.1350649
-4.478868	God	-0.1957191
-4.83105	Goldilocks	-0.1350649
-4.83105	Gonzales	-0.206706
-4.654959	Good	-0.1350649
-4.391717	Google	-0.2165528
-4.83105	Gori	-0.1350649
-4.654959	Grabe	-0.1350649
-4.43311	Grade	-0.1576572
-4.391717	Grammar	-0.2469178
-4.478868	Great	-0.3586191
-4.83105	Green	-0.1350649
-4.83105	Griyego	-0.1350649
-4.73414	Guard	-0.206706
-4.73414	Gumamit	-0.1350649
-4.654959	Gumising	-0.1350649
-4.654959	Gunaw	-0.1876577
-4.391717	Gunbound	-0.2614651
-4.588012	Guro	-0.1350649
-3.262849	Gusto	-0.1350649
-4.353929	Gustung-gusto	-0.1350649
-4.83105	Gutom	-0.1350649
-4.202662	H	-0.1957191
-3.73414	Habang	-0.1350649
-4.73414	Halata	-0.1350649
-4.654959	Halatang	-0.1350649
-3.770352	Halimbawa	-0.1350649
-3.876808	Halos	-0.1350649
-4.286982	Handa	-0.1350649
-3.742914	Hanggang	-0.1726711
-4.73414	Hanggat	-0.1350649
-4.177838	Hapon	-0.2320318
-4.83105	Happy
-4.83105	Harlem	-0.1350649
-4.73414	Harry	-0.206706
-4.73414	Hawak	-0.1350649
-4.83105	Hayaan	-0.1350649
-4.73414	He	-0.1350649
-4.654959	Health	-0.1350649
-4.43311	Hello	-0.2626379
-4.83105	Henry	-0.1350649
-4.83105	Hermana	-0.1350649
-4.588012	Hesus	-0.1350649
-4.73414	High	-0.2342147
-4.53002	Higit	-0.1350649
-4.73414	Hijodiputados	-0.1350649
-4.83105	Hilagang	-0.1350649
-4.83105	Hilera	-0.206706
-4.83105	Hiligaynon	-0.1350649
-4.588012	Hinati	-0.1350649
-4.73414	Hinawakan	-0.1350649
-2.408214	Hindi	-0.1593164
-4.353929	Hinding-hindi	-0.1350649
-4.73414	Hintaying	-0.1350649
-4.73414	Hip-Hop	-0.2475084
-4.53002	Hipon	-0.1957192
-4.353929	History	-0.1876577
-4.73414	Hornedo	-0.1350649
-4.73414	Horse	-0.1350649
-4.654959	House	-0.206706
-4.588012	How	-0.1350649
-4.83105	Howard	-0.2067059
-4.588012	Hoy	-0.2475084
-4.83105	Hudas	-0.206706
-4.83105	Huli	-0.1350649
-4.654959	Huling	-0.1350649
-4.83105	Hulyo	-0.206706
-4.83105	Hut	-0.1350649
-3.459982	Huwag	-0.1484787
-4.83105	H’wag	-0.1350649
-3.48372	I	-0.2347444
-4.654959	I'm	-0.1350649
-3.914596	Iba	-0.1505797
-4.53002	Ibang	-0.1350649
-4.73414	Iba’t	-0.1350649
-4.03517	Ibig	-0.1350649
-4.83105	Ibinalik	-0.1350649
-4.73414	Icabandi	-0.1350649
-4.654959	Icaruz	-0.206706
-4.83105	Id	-0.1350649
-4.53002	Idagdag	-0.1350649
-4.83105	Idol	-0.1350649
-4.83105	Iduduyan	-0.1350649
-4.83105	If	-0.1350649
-4.73414	Ii	-0.1876577
-4.83105	Iii	-0.206706
-4.654959	Iisa	-0.1350649
-4.53002	Ikalawa	-0.1350649
-3.364924	Ikaw	-0.1350649
-4.83105	Ikot	-0.1350649
-4.83105	Ilabas	-0.1350649
-4.353929	Ilagay	-0.1766172
-4.43311	Ilan	-0.1350649
-4.090688	Ilang	-0.151898
-4.83105	Iligan	-0.206706
-4.83105	Ilokano	-0.206706
-4.83105	Imbes	-0.1350649
-4.202662	In	-0.151898
-4.654959	Ina	-0.1350649
-4.353929	Inang	-0.1985898
-4.43311	Inay	-0.1350649
-4.73414	Inc	-0.2475085
-4.83105	Indak	-0.1350649
-4.73414	Indian	-0.1350649
-4.73414	Indio	-0.1876577
-4.654959	Ines	-0.206706
-4.588012	Inflection	-0.1350649
-3.751869	Ingles	-0.2826476
-4.588012	Iniabot	-0.1350649
-4.22899	Iniisip	-0.1350649
-4.43311	Inisip	-0.1350649
-4.478868	Iniwan	-0.1694099
-4.53002	Institute	-0.1876577
-4.83105	International	-0.1350649
-4.43311	Internet	-0.164334
-4.353929	Intsik	-0.1941839
-4.83105	Inulit	-0.1350649
-4.83105	Inuna	-0.1350649
-4.73414	Inuulit	-0.206706
-4.83105	Ipapasok	-0.1350649
-4.83105	Ipinagtataka	-0.1350649
-4.83105	Ipinakilala	-0.1350649
-4.83105	Ipinaliwanag	-0.1350649
-4.654959	Ipinatong	-0.1350649
-4.73414	Iranun	-0.1876577
-3.514032	Isa	-0.1350649
-4.478868	Isabuhay	-0.2655365
-3.519296	Isang	-0.1390457
-4.73414	Isinama	-0.1350649
-4.83105	Isip	-0.1350649
-4.588012	Isipin	-0.1350649
-4.83105	Islam	-0.206706
-4.654959	Island	-0.1350649
-4.53002	Iston	-0.2067059
-4.73414	It	-0.1350649
-4.73414	Itaas	-0.1876577
-4.73414	Itim	-0.1350649
-4.83105	Itinaas	-0.1350649
-4.83105	Itinulak	-0.1350649
-4.83105	Itinuturing	-0.1350649
-3.293231	Ito	-0.1717163
-4.478868	Ito'y	-0.1350649
-4.257019	Itong	-0.1350649
-4.53002	Ito’y	-0.1694099
-4.73414	It’s	-0.1350649
-4.83105	Ivatan	-0.1350649
-4.654959	Iyan	-0.1350649
-4.001747	Iyon	-0.1350649
-4.588012	Iyong	-0.1350649
-4.83105	I’ll	-0.1350649
-4.654959	I’m	-0.1350649
-4.654959	J	-0.1350649
-4.202662	Japan	-0.1797431
-4.83105	Japanese	-0.1350649
-4.83105	Jeep	-0.1350649
-4.83105	Jejemon	-0.206706
-4.53002	Jen	-0.1889258
-4.73414	Jesus	-0.1350649
-4.83105	Jj	-0.1350649
-4.478868	John	-0.1350649
-4.73414	Jollibee	-0.1350649
-4.257019	Jose	-0.1941839
-4.83105	Journal	-0.1350649
-4.478868	Jr	-0.2124911
-4.43311	Juan	-0.1766172
-4.73414	Jumbo	-0.1350649
-4.018137	K	-0.1350649
-4.13208	Ka	-0.2262528
-4.83105	Kaakibat	-0.1350649
-4.654959	Kaang	-0.1876577
-4.83105	Kabab	-0.1350649
-4.73414	Kabilang	-0.1350649
-4.73414	Kabitenyo	-0.1876577
-4.83105	Kada	-0.1350649
-4.73414	Kadalasang	-0.1350649
-4.73414	Kadiri	-0.1350649
-4.353929	Kahir	-0.3235285
-3.187598	Kahit	-0.1418072
-4.43311	Kailan	-0.1350649
-3.662258	Kailangan	-0.1424658
-4.154356	Kailangang	-0.1350649
-4.654959	Kakaiba	-0.1350649
-4.73414	Kakaunti	-0.1350649
-4.83105	Kako’y	-0.1350649
-4.478868	Kala	-0.1350649
-4.83105	Kalahating	-0.1350649
-4.83105	Kalakip	-0.1350649
-4.73414	Kalamian	-0.2730252
-4.83105	Kalamianon	-0.1350649
-4.110891	Kalikasan	-0.188249
-4.83105	Kalye	-0.1350649
-4.478868	Kami	-0.1350649
-4.588012	Kami’y	-0.1350649
-4.53002	Kamukha	-0.1694099
-4.73414	Kamusta	-0.206706
-4.83105	Kangkong	-0.2475084
-4.286982	Kanina	-0.1766172
-4.83105	Kanino	-0.1350649
-4.73414	Kannoyan	-0.1350649
-4.588012	Kano	-0.2386009
-4.83105	Kanta	-0.1350649
-3.197582	Kapag	-0.1414347
-4.83105	Kapagka	-0.1350649
-4.83105	Kapuy	-0.1350649
-4.83105	Kapwa	-0.1350649
-4.83105	Karagatang	-0.1350649
-4.53002	Karamihan	-0.1350649
-4.654959	Karaniwang	-0.1350649
-4.391717	Kare-Kare	-0.1989861
-4.73414	Kare-kare	-0.1350649
-4.83105	Karen	-0.1350649
-4.53002	Karlo	-0.1876577
-4.43311	Kasabay	-0.1350649
-4.83105	Kasalanan	-0.1350649
-4.286982	Kasama	-0.1553443
-3.34675	Kasi	-0.1350649
-4.22899	Kaso	-0.1350649
-4.83105	Kastila	-0.1350649
-4.478868	Kasunod	-0.1350649
-4.53002	Katatapos	-0.1350649
-4.83105	Katoliko	-0.1350649
-4.202662	Katulad	-0.1350649
-4.73414	Katumbas	-0.206706
-4.83105	Katutubo	-0.206706
-4.73414	Kaugnay	-0.1350649
-4.83105	Kausapin	-0.1350649
-4.83105	Kawawa	-0.1350649
-4.13208	Kay	-0.1350649
-2.969217	Kaya	-0.1369381
-4.83105	Kaya't	-0.1350649
-4.83105	Kaya’t	-0.1350649
-4.43311	Kayo	-0.1350649
-4.73414	Kfc	-0.1876577
-4.319167	Kiamoy	-0.2787264
-4.319167	Kilala	-0.1350649
-4.654959	Kim	-0.1350649
-4.654959	Kinabukasan	-0.1350649
-4.53002	Kinakabahan	-0.1350649
-4.478868	Kinakailangan	-0.1350649
-4.73414	King	-0.1350649
-4.83105	Kinilala	-0.1350649
-4.73414	Kinuha	-0.1350649
-4.73414	Kinukutuban	-0.1350649
-4.53002	Kita	-0.1350649
-4.588012	Kitang-kita	-0.1350649
-4.83105	Kj	-0.1350649
-4.43311	Ko	-0.1350649
-4.83105	Kong	-0.1350649
-4.83105	Kontrolado	-0.1350649
-4.83105	Kosa	-0.1350649
-4.83105	Kotaru	-0.1350649
-4.83105	Kozure	-0.1350649
-4.73414	Krack	-0.1350649
-4.73414	Kris	-0.2342147
-4.53002	Kristiyanismo	-0.1694099
-4.588012	Kristo	-0.206706
-4.654959	Kukuwestiyunin	-0.1350649
-4.391717	Kulang	-0.1350649
-4.478868	Kumain	-0.1985898
-4.588012	Kumbaga	-0.1350649
-4.53002	Kumuha	-0.1350649
-4.588012	Kundi	-0.1350649
-2.795621	Kung	-0.1386823
-4.53002	Kunwari	-0.1350649
-4.73414	Kuwento	-0.1350649
-3.941749	Kuya	-0.2682251
-4.654959	Kyle	-0.1766172
-4.018137	L	-0.2884285
-4.53002	La	-0.1350649
-4.83105	Laban	-0.2475084
-4.73414	Labas	-0.1350649
-4.654959	Labaw	-0.4948739
-4.478868	Lagi	-0.1350649
-4.654959	Laging	-0.1350649
-4.73414	Laguna	-0.1350649
-4.43311	Lagyan	-0.1350649
-3.654959	Lahat	-0.1350649
-4.588012	Laking	-0.1350649
-4.13208	Lalo	-0.1350649
-4.43311	Lalong	-0.1350649
-4.391717	Lam-ang	-0.1957191
-4.588012	Lampas	-0.1350649
-4.257019	Lang	-0.1884643
-4.391717	Language	-0.1350649
-4.588012	Las	-0.3311247
-4.654959	Last	-0.1350649
-4.83105	Lawin	-0.1350649
-4.83105	Learn	-0.1350649
-4.588012	Leche	-0.1350649
-4.83105	Lee	-0.1350649
-4.654959	Libre	-0.1766172
-4.73414	Life	-0.1350649
-4.83105	Ligtas	-0.1350649
-4.83105	Lihim	-0.1350649
-4.73414	Likas	-0.1350649
-4.654959	Like	-0.1350649
-4.22899	Linda	-0.1766172
-4.83105	Linggo	-0.206706
-4.43311	Linguistics	-0.1694098
-4.83105	Literal	-0.1350649
-4.478868	Literature	-0.2222113
-4.73414	Liwanag	-0.1350649
-4.73414	Llamzon	-0.1350649
-4.83105	Lola	-0.206706
-3.985952	Loonie	-0.3184871
-4.83105	Lord	-0.2067059
-4.202662	Loren	-0.206706
-4.83105	Los	-0.1350649
-4.83105	Love	-0.1350649
-4.73414	Lrt	-0.1876577
-4.73414	Lubhang	-0.1350649
-4.588012	Lumabas	-0.1350649
-4.83105	Lumaki	-0.1350649
-4.257019	Lumapit	-0.1350649
-4.73414	Lumingon	-0.1350649
-4.83105	Lumipas	-0.1350649
-4.83105	Lumitaw	-0.1350649
-4.588012	Lunes	-0.1694099
-4.73414	Lungsod	-0.206706
-4.73414	Lupa	-0.1350649
-4.588012	Luzon	-0.1985898
-4.177838	M	-0.1876577
-4.73414	Ma	-0.1350649
-3.717107	Maaari	-0.1350649
-4.83105	Maaarin	-0.1350649
-3.508831	Maaaring	-0.1388919
-4.588012	Maaga	-0.1350649
-4.83105	Maari	-0.1350649
-4.83105	Maayos	-0.1350649
-4.83105	Mababasa	-0.1350649
-4.654959	Mabigat	-0.1350649
-4.110891	Mabilis	-0.1350649
-4.83105	Mabini	-0.1350649
-3.864908	Mabuti	-0.1576572
-4.83105	Maceda	-0.1350649
-3.799642	Madalas	-0.1350649
-4.001747	Madali	-0.1534611
-4.353929	Madaling	-0.1350649
-4.83105	Madilim	-0.1350649
-4.83105	Madulas	-0.1350649
-4.53002	Mag-aaral	-0.1350649
-4.83105	Mag-iingat	-0.1350649
-4.73414	Mag-isa	-0.1350649
-4.73414	Magaan	-0.2342147
-4.73414	Magaling	-0.1350649
-4.03517	Maganda	-0.1350649
-4.154356	Magandang	-0.1350649
-4.478868	Magiging	-0.1350649
-4.83105	Magigising	-0.1350649
-4.43311	Magindanaon	-0.1876577
-4.202662	Maging	-0.1350649
-4.83105	Magkakaroon	-0.1350649
-4.83105	Magugunita	-0.1350649
-4.43311	Maguindanao	-0.1876577
-4.202662	Maguindanaon	-0.1814895
-4.286982	Mahal	-0.1957191
-4.353929	Mahalaga	-0.1576571
-4.43311	Mahalagang	-0.1350649
-4.202662	Mahilig	-0.1350649
-3.770352	Mahirap	-0.1437659
-4.588012	Maigi	-0.1350649
-4.83105	Maiintindihan	-0.1350649
-4.83105	Maikling	-0.1350649
-4.73414	Main	-0.1350649
-4.73414	Mainam	-0.1350649
-4.83105	Maingay	-0.1350649
-4.73414	Makapangyarihan	-0.1350649
-4.53002	Makati	-0.1766172
-4.257019	Makikita	-0.1350649
-4.654959	Makikitang	-0.1350649
-4.73414	Makinig	-0.1350649
-4.353929	Malakas	-0.1350649
-4.286982	Malaki	-0.1350649
-4.391717	Malaking	-0.1350649
-4.257019	Malamang	-0.1350649
-4.73414	Malambot	-0.1350649
-4.83105	Malamig	-0.1350649
-4.202662	Malapit	-0.1350649
-4.53002	Malayo	-0.1350649
-4.73414	Mali	-0.1350649
-4.654959	Maliban	-0.1350649
-4.478868	Maliit	-0.1889258
-4.319167	Malinaw	-0.1350649
-4.83105	Malinis	-0.1350649
-4.654959	Mall	-0.1350649
-3.594261	Mama	-0.2420034
-4.588012	Mamay	-0.2067059
-4.83105	Mamaya	-0.1350649
-4.53002	Manang	-0.206706
-3.941749	Manila	-0.1881245
-4.73414	Manny	-0.1350649
-4.286982	Manok	-0.1350649
-4.353929	Manong	-0.1818164
-4.654959	Manuel	-0.1350649
-4.588012	Mapapansin	-0.1350649
-4.478868	Mapapansing	-0.1350649
-4.478868	Mar	-0.1818164
-4.202662	Marahil	-0.1350649
-3.607035	Marami	-0.1350649
-3.53002	Maraming	-0.1350649
-3.563879	Maranao	-0.3662296
-4.83105	Maranao-English	-0.1350649
-4.353929	Maranaw	-0.3235285
-4.83105	Mararamdaman	-0.1350649
-4.478868	Maria	-0.1876577
-4.73414	Marinara	-0.1350649
-4.73414	Mario	-0.1350649
-4.83105	Marion	-0.1350649
-4.83105	Marso	-0.2730252
-3.955989	Mart	-0.2555905
-4.319167	Marta	-0.1350649
-4.53002	Martin	-0.206706
-4.588012	Marunong	-0.1876577
-4.83105	Mary	-0.1350649
-3.395684	Mas	-0.1350649
-4.53002	Masakit	-0.1350649
-4.654959	Masama	-0.1350649
-3.914596	Masarap	-0.1446037
-4.353929	Masasabi	-0.1350649
-3.742914	Masaya	-0.1456201
-4.588012	Masayang	-0.1350649
-4.110891	Masci	-0.164334
-4.83105	Mascians	-0.1350649
-4.654959	Masinag	-0.1350649
-4.73414	Masuwerte	-0.1350649
-4.43311	Masyado	-0.1350649
-4.73414	Masyadong	-0.1350649
-4.83105	Mataas	-0.1350649
-4.202662	Matagal	-0.1350649
-4.83105	Matalino	-0.1350649
-3.73414	Matapos	-0.1350649
-4.478868	Math	-0.1605656
-4.83105	Matindi	-0.1350649
-4.654959	Matsing	-0.1766172
-4.83105	Matutong	-0.1350649
-4.83105	Mauritius	-0.1350649
-4.654959	Mauungkat	-0.1350649
-4.478868	Max’s	-0.1985898
-2.947389	May	-0.1406823
-4.319167	Maya-maya	-0.1350649
-4.83105	Mayaman	-0.1350649
-4.53002	Maykapal	-0.1694098
-4.071383	Maynila	-0.2052497
-3.600601	Mayroon	-0.1350649
-3.820326	Mayroong	-0.1350649
-4.588012	Ma’am	-0.1694099
-4.654959	McKaughan	-0.1350649
-4.83105	Mcdo	-0.1350649
-4.83105	Medicine	-0.1350649
-3.970712	Medyo	-0.1350649
-4.177838	Meg	-0.209326
-4.588012	Mel	-0.3979639
-4.83105	Memmi	-0.1350649
-4.83105	Mendiola	-0.1350649
-3.985952	Meron	-0.1505797
-4.83105	Merong	-0.1350649
-4.654959	Merylle	-0.1766172
-4.319167	Metro	-0.4948739
-4.83105	Metropolis	-0.1350649
-4.73414	Mexico	-0.206706
-3.459982	Mga	-0.1383797
-4.83105	Michael	-0.1350649
-4.83105	Mig	-0.1350649
-4.654959	Mike	-0.2342147
-4.654959	Mikka	-0.1766172
-4.43311	Miles	-0.1814895
-4.588012	Minabuti	-0.1350649
-4.319167	Mindanao	-0.1884642
-4.588012	Mindoro	-0.1350649
-4.177838	Minke	-0.1350649
-3.357563	Minsan	-0.1350649
-4.654959	Misis	-0.2067059
-4.83105	Miss	-0.1350649
-4.588012	Mister	-0.22257
-4.73414	Mitolohiyang
-4.83105	Miyerkules	-0.1350649
-4.654959	Mj	-0.1350649
-4.22899	Mo	-0.1876577
-4.83105	Mobile	-0.1350649
-4.53002	Mommy	-0.1694099
-4.83105	Monday	-0.1350649
-4.83105	Mongol	-0.206706
-4.73414	Mr	-0.3979639
-4.353929	Mrt	-0.2103126
-4.73414	Mt	-0.2730252
-4.13208	Mukha	-0.1350649
-4.588012	Mukhang	-0.1350649
-3.588012	Mula	-0.1350649
-4.22899	Muli	-0.1350649
-4.53002	Muling	-0.1350649
-4.53002	Mundo	-0.2124911
-4.43311	Muntik	-0.1350649
-4.83105	Mushroom	-0.1350649
-4.73414	Muslim	-0.2730252
-4.83105	My	-0.1350649
-4.090688	N	-0.2655365
-3.459982	Na	-0.14172
-4.73414	Na-miss	-0.1350649
-4.177838	Naaalala	-0.1350649
-4.154356	Naalala	-0.1350649
-4.391717	Nabanggit	-0.1350649
-4.83105	Nabubuhay	-0.1350649
-4.73414	Nabubura	-0.1350649
-4.83105	Nag	-0.1350649
-4.83105	Nag-iiba	-0.1350649
-4.83105	Nagbukas	-0.1350649
-4.588012	Naghahanap	-0.1350649
-4.53002	Nagiging	-0.1350649
-3.985952	Naging	-0.1350649
-4.73414	Nagising	-0.1350649
-4.286982	Nagkakaroon	-0.1350649
-4.73414	Nagkalat	-0.1350649
-4.353929	Nagkaroon	-0.1350649
-4.83105	Nagkataon	-0.1350649
-4.83105	Nagkita	-0.1350649
-4.588012	Naglakad	-0.1350649
-4.73414	Naglalaro	-0.1350649
-4.83105	Nagmamadali	-0.1350649
-4.654959	Nagmukha	-0.1350649
-4.73414	Nagmumukha	-0.1350649
-4.83105	Nagmumukhang	-0.1350649
-4.83105	Nagpaalam	-0.1350649
-4.73414	Nagsasalita	-0.1350649
-4.202662	Nagsimula	-0.1350649
-4.83105	Nagsimulang	-0.1350649
-4.654959	Nagsisimula	-0.1350649
-4.83105	Nagtataka	-0.1350649
-4.654959	Nagtungo	-0.1350649
-4.83105	Nagulat	-0.1350649
-4.83105	Nagustuhan	-0.1350649
-4.53002	Nahihirapan	-0.1350649
-4.588012	Nahihiya	-0.1350649
-4.83105	Nahirapan	-0.206706
-4.83105	Nahiya	-0.1350649
-4.73414	Naiirita	-0.1350649
-4.03517	Nais	-0.1350649
-4.588012	Naisip	-0.1350649
-4.73414	Nakadikit	-0.1350649
-4.73414	Nakaharap	-0.1350649
-4.73414	Nakailang	-0.1350649
-4.654959	Nakakahiya	-0.1876577
-4.73414	Nakakainis	-0.1350649
-4.73414	Nakakatakot	-0.1350649
-4.154356	Nakakatamad	-0.1494529
-4.53002	Nakakatawa	-0.1350649
-4.43311	Nakakatawang	-0.1350649
-4.654959	Nakakatuwa	-0.1350649
-4.83105	Nakalulungkot	-0.1350649
-4.588012	Nakangiti	-0.1350649
-4.83105	Nakapaloob	-0.1350649
-4.53002	Nakapasok	-0.1350649
-4.83105	Nakarating	-0.1350649
-4.83105	Nakatatawa	-0.1350649
-4.73414	Nakatingin	-0.1350649
-4.73414	Nakaupo	-0.1350649
-4.654959	Nakikita	-0.1350649
-4.154356	Nakita	-0.1350649
-4.654959	Nako	-0.1350649
-4.83105	Naku	-0.1350649
-4.83105	Nakuha	-0.1350649
-4.654959	Nalaman	-0.1350649
-4.588012	Namimiss	-0.1350649
-4.73414	Namiss	-0.1350649
-4.83105	Namulat	-0.1350649
-3.63377	Nanay	-0.2034413
-4.654959	Nandito	-0.1350649
-4.588012	Nandiyan	-0.1350649
-4.83105	Nandoon	-0.1350649
-3.654959	Nang	-0.1350649
-4.83105	Nanginginig	-0.1350649
-4.588012	Naniniwala	-0.1350649
-4.83105	Napag-alaman	-0.1350649
-4.73414	Napag-iwanan	-0.1350649
-4.83105	Napagtanto	-0.1350649
-4.73414	Napakagandang	-0.1350649
-4.83105	Napakalaking	-0.1350649
-4.73414	Napakasarap	-0.1350649
-4.83105	Napakasuwerte	-0.1350649
-4.73414	Napalitan	-0.1350649
-4.654959	Napaluha	-0.1350649
-4.83105	Napanood	-0.1350649
-4.286982	Napansin	-0.1350649
-4.73414	Napapagod	-0.1350649
-4.73414	Naramdaman	-0.1350649
-4.588012	Naranasan	-0.1350649
-4.83105	Nararapat	-0.1350649
-4.83105	Naririnig	-0.1350649
-4.391717	Narito	-0.1350649
-4.154356	Nariyan	-0.1350649
-4.83105	Naroon	-0.1350649
-4.83105	Naruto	-0.1350649
-3.742914	Nasa	-0.1409318
-4.83105	Nasa'n	-0.1350649
-4.353929	Nasaan	-0.22257
-4.83105	Nasabi	-0.1350649
-4.73414	Nasira	-0.1350649
-4.83105	Nasisira	-0.1350649
-4.83105	Natapos	-0.1350649
-4.83105	Natatawa	-0.1350649
-4.588012	Natawa	-0.1350649
-4.588012	Nati	-0.494874
-4.478868	National	-0.1350649
-4.53002	Natural	-0.1694099
-4.588012	Natutuwa	-0.1350649
-4.654959	Natuwa	-0.1350649
-4.83105	Naubos	-0.1350649
-4.53002	Nauna	-0.1350649
-4.83105	Naunang	-0.1350649
-4.73414	Nawala	-0.206706
-4.654959	Nawawala	-0.1350649
-4.654959	Nawawalan	-0.1350649
-4.83105	Nawa’y	-0.1350649
-4.478868	Nay	-0.1350649
-4.83105	Nazareno	-0.206706
-4.654959	Never	-0.1350649
-4.391717	New	-0.2067059
-3.820326	Ng	-0.1546751
-3.789658	Ngayon	-0.1923092
-4.43311	Ngayong	-0.1350649
-4.53002	Nguan	-0.4948739
-4.654959	Ngumiti	-0.1350649
-3.416077	Ngunit	-0.1395914
-3.751869	Ni	-0.1350649
-4.83105	Nievera	-0.1350649
-4.654959	Nilagyan	-0.1350649
-4.83105	Nilalayon	-0.1350649
-4.83105	Nilapitan	-0.1350649
-4.83105	Nilayon	-0.1350649
-4.353929	Nilinaw	-0.1350649
-4.654959	Nito	-0.1350649
-4.83105	Nitong	-0.1350649
-4.83105	Niyakap	-0.1350649
-4.257019	No	-0.3635396
-4.83105	Noah	-0.1350649
-4.73414	Nobela	-0.1350649
-4.53002	Nonoy	-0.1957191
-4.43311	Noon	-0.1350649
-3.770352	Noong	-0.1484003
-4.588012	North	-0.1350649
-4.588012	NothingElse	-0.2386009
-4.83105	Notre	-0.2475084
-4.83105	Nouns	-0.1350649
-4.353929	November	-0.6989939
-4.83105	Noynoy	-0.1350649
-4.83105	Npc	-0.206706
-4.03517	Nung	-0.1350649
-4.83105	Nursery	-0.206706
-4.588012	Nyai	-0.1350649
-3.197582	O	-0.1598416
-4.83105	O-Sensei	-0.2475084
-4.73414	Oa	-0.1350649
-4.83105	Obeertime	-0.1350649
-4.83105	Oboy	-0.206706
-4.83105	Obvious	-0.1350649
-4.83105	Office	-0.1350649
-4.654959	Ofw	-0.1350649
-4.83105	Oh	-0.1350649
-4.83105	Ok	-0.206706
-3.64778	Okay	-0.1505797
-4.83105	Okey	-0.1350649
-4.73414	Oktubre	-0.1350649
-4.53002	On	-0.1350649
-4.588012	Ondoy	-0.1350649
-4.83105	One	-0.1350649
-3.600601	Oo	-0.1814895
-4.83105	Ookami	-0.1350649
-4.53002	Opo	-0.2475084
-4.43311	Or	-0.1350649
-4.257019	Ore	-0.1518979
-4.83105	Organization	-0.1350649
-4.391717	Ortiz	-0.1694099
-4.83105	Ot	-0.1350649
-4.53002	Oval	-0.1350649
-4.83105	Oysang	-0.1350649
-4.110891	P	-0.3055477
-4.83105	PNoy	-0.206706
-4.478868	Pa	-0.1694099
-4.13208	Pa'no	-0.1350649
-4.73414	Paalam	-0.1350649
-3.54662	Paano	-0.1350649
-4.73414	Pabilis	-0.1350649
-4.654959	Paborito	-0.1350649
-4.43311	Pacific	-0.1350649
-3.876808	Pag	-0.1350649
-4.73414	Pag-ibig	-0.1350649
-4.83105	Pag-uulit	-0.1350649
-4.83105	Pag-uwi	-0.1350649
-4.73414	Pagasa	-0.1350649
-4.83105	Pagbaba	-0.1350649
-4.588012	Pagbalik	-0.1350649
-4.83105	Pagbukas	-0.1350649
-4.018137	Pagdating	-0.1553443
-4.83105	Paggising	-0.1350649
-4.83105	Pagka	-0.1350649
-4.83105	Pagkain	-0.1350649
-4.43311	Pagkat	-0.1350649
-3.985952	Pagkatapos	-0.1350649
-4.83105	Pagkatha	-0.1350649
-4.83105	Pagkatuto	-0.1350649
-4.73414	Paglabas	-0.1350649
-4.73414	Pagod	-0.1350649
-4.73414	Pagpasok	-0.1350649
-4.83105	Pagtingin	-0.1350649
-4.73414	Pair	-0.1350649
-4.83105	Pakinggan	-0.1350649
-4.654959	Pakiramdam	-0.2475084
-4.83105	Pakiusap	-0.1350649
-4.73414	Palagi	-0.1350649
-4.83105	Palasyo	-0.1350649
-4.110891	Palawan	-0.2124911
-4.53002	Palibhasa	-0.1350649
-4.83105	Palpak	-0.1350649
-4.654959	Paminsan-minsan	-0.1350649
-4.83105	Pampanga	-0.1350649
-4.43311	Pan	-0.2475084
-4.43311	Panahon	-0.1694099
-4.73414	Pananaw	-0.1350649
-4.319167	Panay	-0.1350649
-4.654959	Panda	-0.1350649
-4.83105	Pandan	-0.1350649
-4.83105	Pangalan	-0.1350649
-4.43311	Pangalawa	-0.1350649
-4.83105	Pangalawang	-0.1350649
-4.83105	Pangarap	-0.1350649
-4.73414	Pangasinan	-0.1350649
-4.83105	Panginoon	-0.1350649
-4.83105	Panginoong	-0.1350649
-4.83105	Pangngalan	-0.206706
-4.83105	Panibagong	-0.1350649
-4.83105	Panitikan	-0.1350649
-4.478868	Pansinin	-0.1350649
-4.83105	Pansining	-0.1350649
-4.53002	Pantukan	-0.1350649
-4.654959	Papa	-0.1350649
-4.654959	Papaano	-0.1350649
-4.83105	Papalapit	-0.1350649
-4.83105	Papansinin	-0.1350649
-3.147553	Para	-0.1350649
-3.357563	Parang	-0.1350649
-4.071383	Parati	-0.1350649
-4.73414	Parating	-0.1350649
-4.588012	Pare	-0.1350649
-4.73414	Pare-pareho	-0.1350649
-4.73414	Parehas	-0.1350649
-4.22899	Pareho	-0.1350649
-4.654959	Parehong	-0.1350649
-4.654959	Pares	-0.1350649
-4.43311	Part	-0.1350649
-4.73414	Particles	-0.1350649
-4.73414	Parts	-0.2342147
-4.83105	Pasensya	-0.1350649
-4.73414	Pasig	-0.206706
-4.53002	Pasko	-0.164334
-4.588012	Pasok	-0.1350649
-4.83105	Past	-0.2730252
-4.286982	Pastor	-0.1666693
-4.654959	Patay	-0.1350649
-4.588012	Patayin	-0.3311247
-4.090688	Pati	-0.1553443
-4.43311	Patuloy	-0.1350649
-4.73414	Patunay	-0.1350649
-4.22899	Paulit-ulit	-0.1350649
-4.654959	Pawang	-0.1350649
-4.654959	Payak	-0.1350649
-4.654959	Pa’no	-0.1350649
-4.83105	Pc	-0.1350649
-4.83105	Pe	-0.1350649
-4.83105	Pekz	-0.206706
-4.53002	Penoy	-0.4948739
-4.83105	People	-0.1350649
-2.839824	Pero	-0.1376608
-4.73414	Personal	-0.1876577
-4.83105	Peter	-0.1350649
-4.83105	Pharm	-0.1350649
-4.83105	Philcoa	-0.1350649
-4.73414	Philip	-0.206706
-4.319167	Philippine	-0.1876577
-4.177838	Philippines	-0.2002009
-4.83105	Phivolcs	-0.1350649
-4.391717	Pil	-0.1766172
-4.83105	Pilandok	-0.1350649
-4.43311	Pilang	-0.3586191
-3.102696	Pilipinas	-0.2530053
-3.154357	Pilipino	-0.4294245
-4.154356	Pilipinong	-0.1476281
-4.286982	Pilit	-0.1350649
-4.83105	Pilosopo	-0.206706
-4.83105	Pilot	-0.1350649
-4.83105	Pinaalalahanan	-0.1350649
-4.83105	Pinansin	-0.1350649
-4.654959	Pinili	-0.1350649
-4.654959	Pinilit	-0.1350649
-4.73414	Pinipilit	-0.1350649
-4.13208	Pinoy	-0.2886527
-4.391717	Pinya	-0.1876577
-4.73414	Pizza	-0.1350649
-4.73414	Piñas	-0.1350649
-4.83105	Plato	-0.1350649
-4.83105	Playstation	-0.1350649
-4.83105	Please	-0.1350649
-4.73414	Pm	-0.1876577
-4.83105	Poong	-0.206706
-4.588012	Popoy	-0.1694099
-4.83105	Pork	-0.1350649
-4.83105	Porket	-0.1350649
-4.588012	Posted	-0.1350649
-4.73414	Pp	-0.1876577
-3.941749	Preciouse	-0.2024014
-4.53002	Press	-0.1694099
-4.83105	Prevention	-0.1350649
-4.654959	Prinsesa	-0.206706
-4.83105	Problem	-0.1350649
-4.83105	Problema	-0.1350649
-4.654959	Pronouns	-0.2225699
-4.319167	Propp	-0.1985897
-4.83105	Proud	-0.1350649
-4.83105	Provincial	-0.1350649
-4.654959	Ps	-0.1350649
-4.43311	Psp	-0.1350649
-4.654959	Public	-0.1350649
-4.83105	Publishing	-0.1350649
-4.83105	Puke	-0.1350649
-4.478868	Pulos	-0.1350649
-4.478868	Pumasok	-0.1350649
-4.73414	Pumayag	-0.1350649
-4.83105	Pumikit	-0.1350649
-4.73414	Pumili	-0.1350649
-4.319167	Pumunta	-0.1350649
-4.83105	Pupuwede	-0.1350649
-4.22899	Puro	-0.1350649
-4.83105	Purong	-0.1350649
-4.73414	Puta	-0.1350649
-4.001747	Putang	-0.1985898
-3.83105	Puwede	-0.1590234
-4.73414	Puwedeng	-0.1350649
-4.53002	Puwes	-0.1350649
-4.654959	Pwede	-0.1350649
-4.588012	Quad	-0.3979639
-4.257019	Quezon	-0.2222112
-4.588012	Quiapo	-0.22257
-4.154356	R	-0.2802032
-4.83105	Rabbi	-0.2475084
-4.588012	Radil	-0.1985897
-4.53002	Rael	-0.206706
-4.588012	Rakim	-0.1985897
-4.73414	Rapido	-0.1876577
-4.73414	Ray	-0.1350649
-4.478868	Raya	-0.1985898
-4.73414	Re	-0.1350649
-4.73414	Real	-0.1350649
-4.478868	Red	-0.2916723
-4.83105	Renato	-0.1350649
-4.83105	Revolution	-0.1350649
-4.53002	Revolutionary	-0.3979639
-4.588012	Reyes	-0.1350649
-4.654959	Reyna	-0.3311247
-4.83105	Rico	-0.1350649
-4.654959	Rivera	-0.1876577
-3.751869	Rizal	-0.2396964
-4.73414	Robert	-0.1350649
-4.177838	Robin	-0.2158248
-4.83105	Roman	-0.1350649
-4.83105	Rosa	-0.206706
-4.83105	Roshiko	-0.1350649
-4.53002	Routes	-0.1350649
-3.955989	S	-0.2220121
-2.580021	Sa	-0.1424658
-4.654959	Sa'yo	-0.1350649
-4.257019	Saan	-0.1350649
-4.478868	Sabado	-0.3055477
-4.090688	Sabay	-0.1505797
-3.588012	Sabi	-0.1350649
-4.478868	Sabihin	-0.1350649
-4.83105	Sabik	-0.1350649
-3.901631	Saka	-0.1350649
-4.53002	Sakto	-0.206706
-4.83105	Sakuragi	-0.206706
-4.83105	Salad	-0.1350649
-4.73414	Salamat	-0.1350649
-4.83105	Salpicao	-0.1350649
-4.83105	Samahan	-0.1350649
-4.53002	Samakatuwid	-0.1350649
-4.73414	Samantala	-0.1350649
-4.83105	Samantalang	-0.1350649
-4.83105	Samantha	-0.1350649
-4.53002	San	-0.1350649
-3.853327	Sana	-0.1350649
-4.53002	Sanay	-0.1350649
-4.73414	Sana’y	-0.1350649
-4.43311	Sandali	-0.1350649
-4.319167	Sandayo	-0.1766172
-4.654959	Sandwich	-0.1350649
-4.353929	Santos	-0.1941839
-4.391717	Sapagkat	-0.1350649
-4.353929	Sarap	-0.1818164
-4.83105	Sarilaysay	-0.1350649
-4.83105	Sasabihin	-0.1350649
-4.73414	Satanas	-0.206706
-4.73414	Sauce	-0.1350649
-4.83105	Saudi
-4.654959	Saya	-0.3979639
-4.478868	Sayadd	-0.2469178
-4.53002	Sayang	-0.1350649
-4.83105	Sa’yo	-0.1350649
-4.83105	Sc	-0.1350649
-4.654959	Scebold	-0.1350649
-4.654959	Schizophrenia	-0.2124911
-4.478868	School	-0.2222113
-4.478868	Science	-0.1350649
-4.83105	Scientific	-0.1350649
-4.73414	Seafood	-0.3979639
-4.73414	Sebuano	-0.206706
-4.73414	Second	-0.1350649
-4.654959	Selo	-0.1350649
-4.73414	Senado	-0.1350649
-4.83105	Sentinyal	-0.1350649
-4.83105	Shady	-0.206706
-4.83105	Shaolin	-0.1350649
-4.654959	Share	-0.2124911
-4.588012	Shehyee	-0.2386009
-4.588012	Shernan	-0.22257
-4.83105	Shrimp	-0.1350649
-3.588012	Si	-0.1350649
-4.83105	Sibol	-0.1350649
-3.914596	Sige	-0.1798094
-4.73414	Sigurado	-0.1350649
-4.654959	Siguradong	-0.1350649
-3.64778	Siguro	-0.1350649
-4.83105	Sikat	-0.1350649
-4.83105	Sikreto	-0.206706
-4.83105	Sil	-0.1350649
-4.071383	Sila	-0.1350649
-4.83105	Silang	-0.1350649
-4.588012	Simple	-0.1350649
-4.53002	Simpleng	-0.1350649
-4.257019	Simula	-0.1350649
-4.83105	Simulan	-0.1350649
-4.83105	Sinabayan	-0.1350649
-3.901631	Sinabi	-0.1350649
-4.83105	Sinadya	-0.1350649
-4.202662	Sinasabi	-0.1350649
-4.588012	Singapore	-0.1876577
-4.03517	Sinigang	-0.3277322
-4.478868	Sinimulan	-0.1350649
-4.83105	Sinio	-0.1350649
-4.83105	Sinisira	-0.1350649
-4.202662	Sino	-0.1553443
-4.83105	Sinok	-0.1350649
-4.73414	Sinong	-0.1350649
-4.018137	Sinubukan	-0.1350649
-4.83105	Sinubukang	-0.1350649
-4.73414	Siomai	-0.1350649
-4.73414	Sion	-0.1876577
-4.052899	Sir	-0.1933594
-4.83105	Sisikapin	-0.1350649
-3.799642	Siya	-0.1350649
-4.654959	Siya’y	-0.1350649
-4.071383	Siyempre	-0.1350649
-4.22899	Sm	-0.3072226
-4.83105	Smart	-0.206706
-4.83105	Smite	-0.1350649
-4.73414	Smugglaz	-0.1876577
-3.970712	So	-0.1450862
-4.73414	Sobra	-0.1350649
-4.03517	Sobrang	-0.1350649
-4.73414	Social	-0.1350649
-4.654959	Sonday	-0.1350649
-4.319167	Sorry	-0.1350649
-4.478868	South	-0.1694099
-4.319167	Spade	-0.2222113
-4.53002	Spaghetti	-0.1350649
-4.73414	Speech	-0.1350649
-4.654959	Spot	-0.1350649
-4.654959	Sprite	-0.1350649
-4.83105	St	-0.2730252
-4.83105	Sta	-0.2730252
-4.83105	Station	-0.2475085
-4.83105	Steak	-0.1350649
-4.83105	Stella	-0.2730252
-4.73414	Studies	-0.1876577
-4.73414	Style	-0.206706
-4.177838	Suang	-0.4948739
-4.588012	Suarez	-0.1350649
-4.53002	Subalit	-0.1350649
-4.83105	Subic	-0.2475084
-4.257019	Subukan	-0.1350649
-4.83105	Subukang
-4.83105	Sumakay	-0.1350649
-4.83105	Sumama	-0.1350649
-4.83105	Sumigaw	-0.1350649
-4.73414	Sumisigaw	-0.1350649
-4.73414	Summer	-0.2475084
-4.090688	Sumunod	-0.1350649
-4.73414	Sunday	-0.1876577
-4.391717	Sunod	-0.1350649
-4.654959	Sunud-sunod	-0.1350649
-4.654959	Sunugan	-0.1766172
-4.391717	Susubukan	-0.1350649
-4.391717	Suwerte	-0.1350649
-4.353929	Syempre	-0.1350649
-4.177838	T	-0.164334
-4.83105	T-shirt	-0.1350649
-4.53002	Ta's	-0.1350649
-3.654959	Tagalog	-0.3483676
-4.654959	Tagaytay	-0.1766172
-3.761012	Tagbanwa	-0.3471135
-4.73414	Taglay	-0.1350649
-4.73414	Tahasang	-0.1350649
-4.83105	Tahimik	-0.1350649
-4.43311	Takot	-0.1350649
-4.319167	Talaga	-0.1350649
-4.391717	Talagang	-0.1350649
-4.478868	Tam	-0.3979639
-4.286982	Tama	-0.1576572
-4.654959	Tamad	-0.1350649
-4.83105	Tandaan	-0.1350649
-3.799642	Tang	-0.1985898
-4.588012	Tanga	-0.1350649
-4.43311	Tanggap	-0.1350649
-4.110891	Tao	-0.1666693
-3.319167	Tapos	-0.1350649
-4.83105	Target	-0.206706
-4.654959	Tasyo	-0.1350649
-4.654959	Tata	-0.2730252
-4.83105	Tatanggapin	-0.1350649
-4.22899	Tatay	-0.1763662
-4.83105	Tatayo	-0.1350649
-4.73414	Tatlo	-0.1350649
-4.53002	Tatlong	-0.1350649
-4.73414	Tatlumpung	-0.1350649
-4.83105	Tausug	-0.1350649
-4.83105	Taw	-0.2730252
-4.73414	Tawa	-0.1350649
-4.73414	Tay	-0.1350649
-4.319167	Tayo	-0.1766172
-4.654959	Tayong	-0.1350649
-4.83105	Teacher	-0.1350649
-4.391717	Teka	-0.1350649
-4.83105	Teleport	-0.1350649
-4.83105	Teteoinan	-0.2067059
-4.654959	Thai	-0.1350649
-4.83105	Thailand	-0.1350649
-4.83105	That	-0.1350649
-4.73414	That’s	-0.1350649
-3.83105	The	-0.1462141
-4.53002	Thea	-0.1350649
-4.73414	There	-0.1350649
-4.83105	Thieves	-0.1350649
-4.286982	Thike	-0.1884642
-4.391717	This	-0.1350649
-4.53002	Thong	-0.1350649
-4.83105	Tikman	-0.1350649
-4.090688	Tila	-0.1350649
-4.83105	Time	-0.1350649
-4.83105	Times	-0.1350649
-4.654959	Timog	-0.1350649
-4.588012	Tinalakay	-0.1350649
-4.478868	Tinamad	-0.1350649
-4.83105	Tinanggap	-0.1350649
-4.257019	Tinanong	-0.1350649
-4.73414	Tinapos	-0.1350649
-4.654959	Tinatamad	-0.1350649
-4.83105	Tinatanong	-0.1350649
-4.53002	Tinawag	-0.1350649
-4.43311	Tingin	-0.206706
-4.177838	Tingnan	-0.1694099
-4.83105	Tinig	-0.206706
-4.391717	Tiningnan	-0.1350649
-4.83105	Tinitira	-0.1350649
-4.73414	Tinuruan	-0.1350649
-4.73414	Tipong
-4.391717	Tipsy	-0.3635396
-4.83105	Titingin	-0.1350649
-4.83105	Title	-0.1350649
-4.83105	Tito	-0.1350649
-4.202662	Titser	-0.3586191
-4.286982	Tiyak	-0.1350649
-4.654959	To	-0.1350649
-4.73414	Todo	-0.1350649
-4.53002	Tolentino	-0.2475084
-4.177838	Tong	-0.1534611
-4.73414	Toom	-0.1350649
-4.257019	Totoo	-0.1876577
-4.654959	Transformers	-0.22257
-4.654959	Trinidad	-0.1350649
-4.83105	Trinoma	-0.1350649
-4.654959	Trip	-0.1350649
-4.83105	Tropang	-0.1350649
-4.110891	Tsaka	-0.1350649
-4.83105	Tu	-0.1350649
-4.83105	Tubig	-0.1350649
-3.985952	Tulad	-0.1350649
-4.73414	Tulog	-0.1350649
-4.53002	Tuloy	-0.1350649
-4.83105	Tumakbo	-0.1350649
-4.478868	Tumayo	-0.1350649
-4.83105	Tumigil	-0.1350649
-4.43311	Tumingin	-0.1350649
-4.654959	Tumutulong	-0.1350649
-4.654959	Tunay	-0.1350649
-4.73414	Tungkol	-0.1350649
-4.53002	Tutal	-0.1350649
-4.654959	Tuwaang	-0.1350649
-4.83105	Tuwang-tuwa	-0.1350649
-4.286982	Tuwing	-0.1350649
-3.83105	Tv	-0.2626013
-4.478868	Twitter	-0.1889258
-3.842046	U	-0.1853118
-4.83105	Ubod	-0.1350649
-4.83105	Ueshiba	-0.1350649
-4.73414	Ulang	-0.1876577
-4.83105	Ulol	-0.1350649
-4.73414	Um	-0.1350649
-4.53002	Umabot	-0.1350649
-4.53002	Umakyat	-0.1350649
-4.53002	Umalis	-0.1350649
-4.83105	Umiinom	-0.1350649
-4.83105	Umupo	-0.1350649
-3.985952	Una	-0.1350649
-4.391717	Unang	-0.1350649
-4.319167	Unang-una	-0.1766172
-4.286982	University	-0.2469178
-4.83105	Unless	-0.1350649
-4.286982	Unti-unti	-0.1350649
-4.53002	Unti-unting	-0.1350649
-3.842046	Up	-0.2056861
-4.090688	Upang	-0.1350649
-4.73414	Upcat	-0.206706
-4.654959	Uprising	-0.1350649
-4.53002	Urduja	-0.1766172
-4.83105	Uri	-0.2475084
-4.73414	Us	-0.1350649
-4.83105	Ust	-0.2067059
-4.654959	Utak	-0.1350649
-4.588012	Uy	-0.3979639
-4.588012	V	-0.2124911
-4.73414	Valentine's	-0.3979639
-4.83105	Valley	-0.1350649
-4.73414	Verb	-0.1350649
-4.53002	Verbal	-0.2386009
-4.53002	Verbs	-0.1889258
-4.83105	Vietnam	-0.1350649
-4.83105	Villanueva	-0.2730252
-4.73414	Visayas	-0.1876577
-4.73414	Vit	-0.3979639
-4.83105	Vitamin	-0.1350649
-4.654959	Voice	-0.1350649
-4.73414	Vol	-0.1350649
-4.53002	Vowel	-0.1350649
-4.391717	W	-0.1876577
-3.985952	Wag	-0.1350649
-2.99536	Wala	-0.1577047
-3.493591	Walang	-0.1387496
-4.588012	Wall	-0.1694099
-4.83105	Warcraft	-0.1350649
-4.83105	Wars	-0.1350649
-4.53002	We	-0.1350649
-4.478868	Well	-0.1350649
-4.83105	We’ve	-0.2475084
-4.43311	Wika	-0.164334
-4.478868	Wikang	-0.1876577
-4.83105	Will	-0.1350649
-4.73414	With	-0.1350649
-4.73414	Word	-0.1350649
-4.654959	Words	-0.1350649
-4.478868	World	-0.2386009
-4.83105	Woto	-0.1350649
-4.478868	Wow	-0.206706
-4.286982	Y	-0.2222113
-4.177838	Yan	-0.1605656
-4.353929	Yang	-0.1350649
-4.83105	Yata	-0.1350649
-4.391717	Yes	-0.1876577
-4.83105	Ymir	-0.1350649
-4.73414	Yo	-0.1350649
-4.286982	You	-0.1350649
-4.478868	Your	-0.1350649
-4.202662	Yun	-0.1350649
-3.152077	Yung	-0.1393011
-4.53002	Zaito	-0.1766172
-4.83105	Zakkiel	-0.1350649
-4.83105	Zamboanga	-0.1350649
-3.820326	Zika	-0.3900308
-3.478868	a	-0.1745836
-4.391717	aN	-0.1876577
-4.478868	aabot	-0.1350649
-4.588012	aalis	-0.1985898
-4.83105	aaminin	-0.2067059
-4.83105	aamuyin	-0.1350649
-4.83105	aanhin	-0.1350649
-4.73414	aatupagin	-0.1350649
-4.588012	abala	-0.2124911
-4.83105	aba’y	-0.206706
-4.73414	abilidad	-0.1876577
-4.53002	abo	-0.206706
-4.83105	abokado	-0.1350649
-4.110891	abot	-0.2593608
-4.319167	about	-0.164334
-4.654959	abstract	-0.1876577
-4.654959	abusuhin	-0.1350649
-4.53002	abutin	-0.206706
-4.83105	account	-0.1350649
-4.83105	acid	-0.1350649
-4.73414	acids	-0.1350649
-4.654959	action	-0.1350649
-4.654959	actually	-0.1876577
-4.73414	adbentahe	-0.1876577
-4.53002	adik	-0.2295503
-4.83105	administrasyon	-0.1350649
-4.286982	adobo	-0.2026289
-4.154356	adobong	-0.3150447
-4.83105	advanced	-0.1350649
-4.83105	advantage	-0.1350649
-4.654959	advice	-0.1350649
-4.83105	aegypti	-0.1350649
-4.73414	affixation	-0.3979639
-4.53002	after	-0.1350649
-4.353929	ag	-0.1766172
-3.277774	agad	-0.425208
-4.257019	agad-agad	-0.2538838
-4.73414	again	-0.1876577
-4.83105	agarang	-0.1350649
-4.73414	agency	-0.1350649
-4.83105	agent	-0.1350649
-4.83105	agimat	-0.206706
-4.83105	agiw	-0.1350649
-4.654959	ago	-0.1350649
-4.286982	agos	-0.1763662
-4.13208	ah	-0.4315633
-4.53002	ahas	-0.3055477
-4.83105	ahensiya	-0.1350649
-4.588012	ahente	-0.1350649
-4.654959	air	-0.206706
-4.83105	air-con	-0.1350649
-4.654959	aircon	-0.1766172
-4.654959	airport	-0.1350649
-4.43311	akademya	-0.1818164
-3.761012	akala	-0.3869189
-4.83105	akalaing	-0.1350649
-3.569788	akda	-0.2762256
-4.319167	akdang	-0.1350649
-2.782803	akin	-0.1682042
-2.552297	aking	-0.1860261
-4.83105	aki’y	-0.1350649
-4.83105	aklas	-0.1350649
-3.941749	aklat	-0.3199748
-4.83105	aklatan	-0.1350649
-2.153215	ako	-0.5301779
-3.914596	ako'y	-0.1441656
-2.665213	akong	-0.2156785
-4.73414	akoy	-0.1350649
-4.654959	ako’t	-0.1350649
-3.941749	ako’y	-0.1446037
-4.13208	aksyon	-0.2083995
-4.73414	aktibismo	-0.1876577
-4.391717	aktibista	-0.2802032
-4.654959	aktibistang	-0.1350649
-4.83105	aktibo	-0.206706
-4.83105	aktibong	-0.1350649
-4.83105	al	-0.1350649
-4.83105	ala	-0.2475084
-4.018137	alaala	-0.2409957
-4.654959	alaalang	-0.1350649
-4.83105	alab	-0.1350649
-4.73414	alaga	-0.1876577
-4.43311	alagaan	-0.2012783
-4.353929	alagang	-0.1766172
-4.319167	alak	-0.1726711
-4.43311	alalahanin	-0.206706
-4.83105	alalay	-0.1350649
-2.758249	alam	-0.6292295
-4.588012	alamat	-0.1694098
-4.43311	alamin	-0.2329689
-4.83105	alapaap	-0.1350649
-4.478868	alarm	-0.164334
-4.22899	alas	-0.2012784
-4.478868	alat	-0.2342147
-4.73414	alay	-0.1350649
-4.73414	album	-0.1350649
-4.83105	alerto	-0.1350649
-4.654959	alien	-0.1350649
-4.654959	alikabok	-0.1350649
-4.73414	alimasag	-0.1876577
-4.353929	alin	-0.1766172
-4.83105	alindog	-0.1350649
-4.83105	aling	-0.1350649
-4.353929	alinmang	-0.1350649
-4.654959	alintana	-0.2067059
-4.22899	alipin	-0.2052498
-4.83105	aliping	-0.1350649
-4.83105	alis	-0.1350649
-4.73414	alitaptap	-0.1350649
-4.588012	aliw	-0.22257
-4.73414	alkohol	-0.2475084
-4.22899	all	-0.1833781
-4.83105	allowance	-0.1350649
-4.391717	almusal	-0.1553443
-4.73414	alok	-0.1876577
-4.177838	alon	-0.2771124
-4.319167	alpabeto	-0.2048534
-4.654959	alpabetong	-0.1766172
-4.53002	am	-0.1350649
-3.970712	ama	-0.2540611
-4.83105	amats	-0.1350649
-4.83105	ambag	-0.206706
-3.600601	amin	-0.1350649
-4.83105	aminado	-0.1350649
-3.180257	aming	-0.1760504
-4.83105	aminin	-0.1350649
-4.73414	amo	-0.206706
-4.73414	among	-0.1350649
-4.654959	amor	-0.1350649
-4.83105	amore	-0.1350649
-3.853327	amoy	-0.2191681
-4.83105	ampalaya	-0.1350649
-3.876808	an	-0.2026289
-3.315839	anak	-0.4491044
-3.364924	and	-0.1487885
-1.456119	ang	-0.4553199
-4.654959	angas	-0.1766172
-4.53002	angat	-0.164334
-4.478868	anggulo	-0.164334
-4.73414	anghang	-0.1350649
-4.588012	anghel	-0.1694098
-4.654959	angkan	-0.1766172
-4.73414	angkin	-0.1350649
-4.286982	angking	-0.1605656
-4.53002	angkop	-0.3055477
-4.654959	ani	-0.1876577
-4.13208	anim	-0.6896123
-4.73414	animal	-0.1350649
-4.83105	animo'y
-4.83105	aninag	-0.1350649
-4.73414	anino	-0.1876577
-3.088718	ano	-0.3265746
-3.283891	anong	-0.1566715
-4.83105	ano’ng	-0.1350649
-4.73414	antala	-0.1350649
-4.001747	antas	-0.3371401
-4.83105	anting-anting	-0.1350649
-4.83105	antioxidant	-0.1350649
-4.391717	antok	-0.2277069
-4.73414	anu	-0.1350649
-3.820326	anu-ano	-0.1715173
-4.286982	anu-anong	-0.1350649
-4.13208	anuman	-0.2175013
-3.799642	anumang	-0.14172
-4.73414	anupamang	-0.1350649
-4.83105	any	-0.1350649
-3.889042	anyo	-0.5005435
-4.478868	anyong	-0.1350649
-4.83105	apartment	-0.1350649
-3.901631	apat	-0.5058834
-4.53002	apektado	-0.3586191
-4.83105	apelido	-0.1350649
-4.83105	aplikante	-0.1350649
-4.73414	apo	-0.1350649
-4.22899	apoy	-0.2285718
-4.257019	aral	-0.1837548
-4.03517	aralin	-0.2265379
-4.83105	araro	-0.206706
-3.042175	araw	-0.4870524
-3.63377	araw-araw	-0.3055271
-4.177838	are	-0.1505797
-4.588012	area	-0.2124911
-4.83105	ari-arian	-0.1350649
-4.73414	armas	-0.1876577
-4.83105	arnibal	-0.206706
-4.654959	aroma	-0.1350649
-4.83105	art	-0.1350649
-4.83105	arthritis	-0.1350649
-3.92796	artikulo	-0.2223056
-4.478868	artist	-0.164334
-4.319167	artista	-0.1534611
-4.110891	as	-0.2625769
-4.654959	asa	-0.1350649
-4.83105	asahan	-0.1350649
-4.73414	asal	-0.1350649
-3.876808	asawa	-0.3075635
-4.73414	asawang	-0.2730252
-4.654959	asignatura	-0.1350649
-4.319167	asim	-0.2966825
-4.13208	asin	-0.2222113
-3.941749	aso	-0.335769
-4.83105	asong	-0.1350649
-4.43311	aspeto	-0.2012783
-4.83105	aspetong	-0.1350649
-4.286982	assignment	-0.1970417
-4.53002	assignments	-0.1694099
-4.154356	astig	-0.309865
-4.286982	asukal	-0.2916723
-1.838055	at	-0.2864238
-4.588012	ata	-0.2386009
-4.286982	atat	-0.2787264
-4.654959	atay	-0.1350649
-4.83105	atbp	-0.2730252
-4.83105	ate	-0.206706
-4.001747	atensyon	-0.2732194
-3.350325	atin	-0.188737
-2.872009	ating	-0.1744872
-4.83105	attention	-0.1350649
-4.73414	atupagin	-0.1876577
-4.73414	auditorium	-0.1350649
-4.53002	awa	-0.1694099
-4.83105	aware	-0.1350649
-4.73414	away	-0.1350649
-4.353929	awit	-0.1814895
-4.588012	awitin	-0.1694099
-4.73414	awiting	-0.1350649
-4.73414	awtor	-0.1350649
-4.73414	awtoridad	-0.1350649
-2.129051	ay	-0.3758534
-4.73414	ayan	-0.206706
-3.309259	ayaw	-0.419812
-4.286982	ayoko	-0.2026289
-4.53002	ayokong	-0.1350649
-3.820326	ayon	-0.5384812
-4.83105	ayos	-0.1350649
-4.286982	ayun	-0.3771132
-4.654959	ayusin	-0.1766172
-4.391717	b	-0.1350649
-2.525162	ba	-0.4747208
-4.83105	ba'ko	-0.1350649
-4.001747	ba't	-0.1617091
-4.654959	ba'y	-0.1350649
-4.202662	baba	-0.200429
-4.588012	babaan	-0.1694099
-3.242779	babae	-0.4342917
-3.459982	babaeng	-0.2222132
-4.83105	babagay	-0.206706
-4.83105	babagsak	-0.1350649
-4.73414	babaho	-0.1876577
-4.588012	babala	-0.1350649
-3.955989	babalik	-0.273364
-4.73414	babalik-balikan	-0.1876577
-4.257019	babalikan	-0.2221238
-4.73414	babanggitin	-0.1350649
-4.478868	babasahin	-0.1350649
-3.742914	baboy	-0.2506462
-4.83105	babuyan	-0.1350649
-4.22899	baby	-0.2103126
-4.83105	back	-0.1350649
-4.83105	back-up	-0.1350649
-4.83105	background	-0.1350649
-4.53002	bading	-0.164334
-4.478868	badtrip	-0.1889258
-3.92796	bag	-0.3062448
-4.391717	baga	-0.1814895
-4.83105	bagal	-0.1350649
-4.83105	bagamat	-0.1350649
-4.73414	bagang	-0.1350649
-2.955989	bagay	-0.4398496
-4.177838	bagay-bagay	-0.1350649
-4.73414	baging	-0.1876577
-4.22899	bagkus	-0.3264344
-3.293231	bago	-0.3448145
-3.464627	bagong	-0.2071971
-4.43311	bagoong	-0.1818164
-4.588012	bagsak	-0.1350649
-4.83105	bagsakan	-0.1350649
-4.654959	baguhan	-0.1766172
-4.353929	baguhin	-0.2884285
-4.43311	bagyo	-0.1957191
-4.73414	bagyong	-0.1350649
-3.941749	baha	-0.2555905
-4.83105	bahagdan	-0.206706
-3.115047	bahagi	-0.5471501
-3.607035	bahaging	-0.2211149
-4.73414	bahagi’y	-0.1350649
-4.73414	bahagya	-0.1350649
-4.83105	bahagyang	-0.1350649
-4.177838	bahala	-0.2181347
-3.075176	bahay	-0.3847696
-4.73414	bahay-kubo	-0.2067059
-4.478868	bahid	-0.3311247
-4.588012	baho	-0.1350649
-4.654959	bahura	-0.1766172
-4.654959	bait	-0.1350649
-4.654959	baitang	-0.1350649
-3.302777	baka	-0.2658687
-4.353929	bakal	-0.2220121
-4.654959	bakanteng	-0.2342147
-4.391717	bakas	-0.206706
-4.588012	bakasyon	-0.1985898
-4.83105	bakawan	-0.1350649
-3.018137	bakit	-0.2388332
-4.478868	bakla	-0.2103126
-4.654959	bakod	-0.1350649
-4.43311	bakuran	-0.164334
-4.478868	bala	-0.1957191
-3.955989	balak	-0.1989861
-4.13208	balakid	-0.2793822
-4.478868	balana	-0.1605656
-4.588012	balang	-0.2124911
-4.53002	balangkas	-0.164334
-4.83105	balanse	-0.1350649
-4.73414	balasubas	-0.1350649
-3.941749	balat	-0.2692872
-4.83105	bale	-0.206706
-4.588012	balewala	-0.1985898
-4.83105	balik	-0.1350649
-4.654959	balik-balikan	-0.1350649
-4.588012	balikan	-0.1694099
-4.22899	balikat	-0.2658888
-4.73414	balisong	-0.1350649
-4.202662	balita	-0.1988374
-4.83105	balite	-0.1350649
-4.83105	baliw	-0.1350649
-4.03517	ballpen	-0.3469508
-4.83105	balls	-0.1350649
-4.177838	balot	-0.1666693
-4.654959	banal	-0.1766172
-4.22899	banat	-0.2087632
-4.73414	banayad	-0.2342147
-4.73414	band	-0.2067059
-4.018137	banda	-0.2555905
-4.177838	bandang	-0.151898
-4.654959	bandila	-0.1766172
-3.158952	bang	-0.1695843
-4.73414	banga	-0.1350649
-4.83105	banggit	-0.1350649
-4.588012	banggitin	-0.1694099
-4.83105	bangin	-0.206706
-4.73414	bangka	-0.1350649
-4.177838	bangkay	-0.2103126
-4.83105	bangketa	-0.1350649
-4.83105	bangungot	-0.1350649
-4.654959	bangus	-0.1766172
-4.654959	banig	-0.22257
-4.202662	bano	-0.2471146
-4.73414	banong	-0.1350649
-3.329307	bansa	-0.3626445
-4.154356	bansang	-0.1837548
-4.73414	banta	-0.1350649
-4.654959	bantay	-0.2124911
-4.286982	banyaga	-0.1505797
-4.257019	banyagang	-0.2635164
-3.92796	banyo	-0.2538111
-4.83105	banyong	-0.2475084
-4.53002	baon	-0.164334
-4.73414	bar	-0.2342147
-3.955989	bara	-0.2760874
-4.53002	barang	-0.1350649
-4.83105	barangay	-0.1350649
-4.257019	baril	-0.2257304
-4.83105	barilin	-0.1350649
-4.73414	barko	-0.1350649
-3.842046	bars	-0.2862198
-4.83105	barumbado	-0.206706
-4.53002	barya	-0.1350649
-4.202662	basa	-0.2222724
-4.53002	basag	-0.2916723
-4.071383	basahin	-0.2344012
-4.83105	basang	-0.1350649
-4.73414	basbas	-0.1350649
-4.071383	base	-0.4187333
-4.654959	basehan	-0.1876577
-4.319167	basic	-0.2312407
-4.73414	basketball	-0.1350649
-4.43311	baso	-0.1763663
-4.83105	basong	-0.1350649
-4.83105	bass	-0.1350649
-3.970712	basta	-0.1350649
-4.588012	basta't	-0.1694099
-4.83105	basta-basta	-0.1350649
-4.83105	basta-bastang	-0.1350649
-4.53002	basta’t	-0.1350649
-4.478868	bastos	-0.1605656
-4.257019	basura	-0.1876577
-3.079002	bata	-0.4584883
-4.83105	batak	-0.1350649
-3.54662	batang	-0.1773221
-4.154356	batas	-0.1739005
-4.53002	batay	-0.3586191
-4.53002	batayan	-0.1694099
-4.73414	baterya	-0.1876577
-4.654959	bathala	-0.1350649
-4.73414	bathaluman	-0.206706
-4.83105	batiin	-0.206706
-4.071383	bato	-0.2448473
-4.53002	batok	-0.164334
-4.588012	batong	-0.1350649
-4.83105	battery	-0.1350649
-3.770352	battle	-0.2486062
-4.83105	battles	-0.1350649
-4.83105	batugan	-0.1350649
-4.83105	batuhin	-0.206706
-4.391717	bawal	-0.1989861
-3.914596	bawang	-0.346329
-4.73414	bawas	-0.1876577
-2.975228	bawat	-0.1922859
-4.83105	bay	-0.1350649
-4.353929	bayad	-0.1685589
-4.43311	bayag	-0.1763663
-3.708834	bayan	-0.3541562
-3.329307	bayani	-0.3110419
-4.588012	bayaning	-0.1350649
-4.53002	baybay	-0.164334
-4.83105	bayot	-0.1350649
-4.654959	baywang	-0.2124911
-4.110891	ba’t	-0.1494529
-4.257019	be	-0.1350649
-4.83105	beach	-0.1350649
-4.654959	beans	-0.1350649
-4.319167	beat	-0.2262528
-4.83105	because	-0.1350649
-4.588012	beef	-0.1350649
-4.319167	beer	-0.1989861
-4.654959	before	-0.1350649
-4.654959	being	-0.1350649
-4.478868	bell	-0.410306
-4.588012	benepisyo	-0.1694098
-4.73414	benta	-0.1350649
-4.73414	bente	-0.2067059
-4.73414	berde	-0.1876577
-4.53002	berdeng	-0.1876577
-4.83105	berdugo	-0.206706
-4.654959	bernakular	-0.1876577
-4.83105	berso	-0.206706
-4.73414	bersyon	-0.1350649
-3.62693	beses	-0.3008468
-4.052899	best	-0.2456947
-4.73414	beterano	-0.1876577
-4.83105	better	-0.1350649
-3.92796	bibig	-0.2312078
-4.478868	bibigyan	-0.1957191
-4.478868	bibilhin	-0.1694099
-4.257019	bibili	-0.1505797
-4.83105	bibliya	-0.1350649
-4.052899	bida	-0.2709305
-4.588012	bidang	-0.1694098
-4.43311	big	-0.1350649
-4.257019	bigas	-0.2296989
-4.090688	bigat	-0.2732971
-4.588012	bigay	-0.2916723
-4.588012	bigkas	-0.1766172
-4.53002	bigkasin	-0.1350649
-3.700716	bigla	-0.3284268
-4.83105	biglaang	-0.1350649
-4.071383	biglang	-0.1764559
-4.73414	bigwas	-0.2342147
-4.478868	bigyan	-0.1818164
-4.73414	bigyang	-0.1876577
-4.83105	bigyang-kahulugan	-0.206706
-4.654959	bihag	-0.1350649
-4.73414	bihira	-0.1876577
-4.257019	biktima	-0.2292264
-3.001746	bilang	-0.3075588
-4.73414	bilhin	-0.1876577
-4.53002	bilib	-0.1766172
-4.654959	bilihan	-0.2124911
-4.73414	bilihin	-0.1876577
-4.73414	bilingual	-0.206706
-4.22899	bilis	-0.301305
-4.654959	bill	-0.2124911
-4.391717	bilog	-0.2012784
-4.83105	binabalewala	-0.1350649
-4.83105	binabalik-balikan	-0.206706
-4.73414	binabalot	-0.1350649
-4.43311	binabanggit	-0.1576572
-4.110891	binabasa	-0.2677392
-4.83105	binabati	-0.1350649
-4.83105	binabayaran	-0.1350649
-4.654959	binago	-0.1350649
-4.052899	binanggit	-0.2097411
-4.83105	binaon	-0.1350649
-4.478868	binasa	-0.1818164
-4.83105	binatbat	-0.206706
-4.73414	binebenta	-0.1350649
-4.73414	binhi	-0.2475084
-4.73414	binibigay	-0.1876577
-4.478868	binibigkas	-0.1605656
-4.588012	binibigyan	-0.1694099
-4.73414	binibigyang	-0.1876577
-4.83105	binibitawan	-0.1350649
-4.654959	binigay	-0.1766172
-4.353929	binigyan	-0.2134475
-4.73414	binili	-0.1350649
-4.83105	biniling	-0.1350649
-4.83105	binobola	-0.1350649
-4.177838	bintana	-0.3612365
-4.73414	bintanang	-0.1350649
-4.83105	binti	-0.1350649
-4.83105	binubugbog	-0.1350649
-4.83105	binubully	-0.1350649
-4.478868	binubuo	-0.1766172
-4.53002	binuksan	-0.1350649
-4.353929	binuo	-0.1553443
-4.83105	binura	-0.1350649
-4.588012	biological	-0.2124911
-4.588012	biro	-0.206706
-4.73414	birthday	-0.2475084
-4.319167	bisa	-0.2012784
-4.478868	bisig	-0.164334
-4.83105	bisikleta	-0.206706
-4.83105	bisita	-0.1350649
-4.73414	biswal	-0.3979639
-4.73414	bisyo	-0.206706
-4.43311	bitamina	-0.2165528
-4.654959	bitbit	-0.3311247
-4.83105	bitch	-0.1350649
-4.83105	bitin	-0.1350649
-4.22899	bituin	-0.2220121
-4.73414	bituka	-0.1350649
-4.286982	biyahe	-0.2124911
-4.353929	biyaya	-0.1818164
-4.53002	biyayang	-0.1350649
-4.83105	bla	-0.206706
-4.257019	black	-0.1927704
-4.73414	blackboard	-0.1876577
-4.018137	blog	-0.2470358
-4.73414	blood	-0.1350649
-4.43311	blue	-0.1605656
-4.257019	boarding	-0.4103059
-4.202662	bobo	-0.1710611
-4.654959	bobong	-0.1350649
-4.154356	body	-0.2222113
-4.353929	bokabularyo	-0.2134475
-4.73414	bola	-0.1350649
-4.654959	bomba	-0.1350649
-4.83105	bonding	-0.1350649
-4.654959	bonggang-bongga	-0.1350649
-4.83105	bonjing	-0.1350649
-4.654959	book	-0.1350649
-4.286982	boring	-0.2471146
-3.569788	boses	-0.4056956
-4.391717	boss	-0.1814895
-4.257019	bote	-0.2337041
-4.654959	boto	-0.1766172
-4.478868	box	-0.1605656
-4.154356	boy	-0.269986
-4.83105	bra	-0.206706
-4.73414	brain	-0.1350649
-4.83105	brand	-0.1350649
-4.110891	braso	-0.2522244
-4.478868	bread	-0.1350649
-4.654959	break	-0.1350649
-4.73414	bro	-0.1350649
-4.319167	brown	-0.1685588
-4.73414	bubog	-0.1876577
-4.53002	bubong	-0.164334
-4.83105	budhi	-0.1350649
-4.83105	buds	-0.1350649
-4.654959	buga	-0.1766172
-4.83105	bugaw	-0.206706
-4.654959	bughaw	-0.2124911
-4.53002	bugok	-0.1350649
-4.83105	bugso	-0.206706
-4.83105	bugtong	-0.1350649
-4.654959	buhangin	-0.2124911
-4.73414	buhat	-0.1350649
-4.654959	buhawi	-0.22257
-2.975228	buhay	-0.4767985
-3.692748	buhok	-0.2923575
-4.391717	buhos	-0.2103126
-4.83105	building	-0.206706
-4.73414	bukal	-0.1876577
-4.654959	bukambibig	-0.1766172
-4.73414	bukana	-0.2342147
-4.03517	bukas	-0.3312113
-4.83105	bukid	-0.1350649
-4.83105	bukirin	-0.1350649
-4.43311	buko	-0.164334
-4.654959	bukod	-0.2342147
-4.53002	buksan	-0.164334
-4.588012	bula	-0.206706
-4.83105	bulaang	-0.1350649
-4.43311	bulag	-0.1814895
-4.202662	bulaklak	-0.242142
-4.73414	bulbol	-0.1876577
-4.73414	bulkan	-0.1350649
-4.588012	bullshit	-0.1694099
-4.73414	bully	-0.1350649
-4.478868	bulok	-0.1889258
-4.83105	bulol	-0.1350649
-4.654959	bulong	-0.2342147
-3.985952	bulsa	-0.2671396
-4.588012	bulyaw	-0.1694099
-4.154356	bumaba	-0.19739
-4.73414	bumababa	-0.1876577
-4.83105	bumabalik	-0.206706
-4.654959	bumagsak	-0.1350649
-4.83105	bumaha	-0.1350649
-3.970712	bumalik	-0.3103115
-4.43311	bumangon	-0.1763662
-4.73414	bumasa	-0.1876577
-4.83105	bumati	-0.206706
-4.83105	bumato	-0.206706
-4.83105	bumawi	-0.2475084
-4.654959	bumbero	-0.1876577
-4.73414	bumbunan	-0.1350649
-4.53002	bumibili	-0.164334
-4.052899	bumili	-0.3715107
-4.83105	bumubulong	-0.206706
-4.478868	bumubuo	-0.1985898
-4.654959	bumuhos	-0.2124911
-4.83105	bumukas	-0.1350649
-4.13208	bumuo	-0.5023083
-4.83105	bundat	-0.1350649
-4.53002	bundok	-0.1694098
-4.478868	bunga	-0.2386009
-4.286982	bunganga	-0.1933594
-4.73414	bungkos	-0.3979639
-4.654959	bungo	-0.1766172
-4.43311	bunso	-0.1605656
-4.83105	buntala	-0.206706
-4.391717	buntis	-0.1720548
-4.177838	buo	-0.1611609
-4.83105	buod	-0.206706
-3.387787	buong	-0.2254426
-4.83105	buong-buo	-0.1350649
-4.73414	burahin	-0.1350649
-4.110891	bus	-0.2438535
-4.83105	busina	-0.2475084
-4.53002	busog	-0.206706
-4.319167	busy	-0.1818164
-4.478868	but	-0.1350649
-4.177838	butas	-0.3150447
-4.588012	buti	-0.3311247
-4.478868	butil	-0.2655365
-4.110891	buto	-0.3013259
-4.73414	butong	-0.1350649
-4.478868	butter	-0.1876577
-3.640719	buwan	-0.3809028
-4.73414	buwaya	-0.1876577
-3.955989	by	-0.1720548
-4.286982	c	-0.1876577
-4.53002	cadena	-0.2730252
-4.83105	cafe	-0.1350649
-4.83105	caffeine	-0.1350649
-4.391717	cake	-0.2470359
-4.83105	calcium	-0.1350649
-4.654959	call	-0.2124911
-4.83105	calling	-0.1350649
-4.53002	calories	-0.164334
-4.588012	cam	-0.1985898
-3.941749	camera	-0.2394503
-4.83105	camerang	-0.1350649
-4.73414	campaign	-0.1350649
-4.53002	campus	-0.1350649
-4.353929	can	-0.1985898
-4.73414	can't	-0.1350649
-4.588012	cancer	-0.1766172
-4.73414	candy	-0.1876577
-4.83105	cannot	-0.1350649
-4.654959	canteen	-0.1350649
-4.478868	card	-0.1350649
-4.73414	career	-0.1350649
-4.43311	carrots	-0.2222113
-4.83105	cause	-0.1350649
-4.73414	celebrity	-0.1350649
-4.001747	cellphone	-0.3341535
-4.53002	cells	-0.1694098
-4.83105	censored	-0.206706
-4.588012	center	-0.2124911
-4.588012	ceremony	-0.1350649
-4.83105	challenge	-0.1350649
-4.391717	champorado	-0.1576572
-4.83105	chapter	-0.1350649
-4.654959	character	-0.1350649
-4.654959	chat	-0.206706
-4.73414	cheap	-0.1350649
-4.478868	check	-0.1694099
-4.83105	chess	-0.1350649
-4.53002	chicken	-0.1766172
-4.83105	chikungunya	-0.206706
-4.83105	children	-0.1350649
-4.73414	chili	-0.1876577
-4.588012	chineck	-0.206706
-3.876808	chocolate	-0.3284119
-4.83105	choker	-0.1350649
-4.53002	cholesterol	-0.1350649
-4.83105	chopped	-0.1350649
-4.73414	chorus	-0.1876577
-4.319167	cinnamon	-0.1889258
-4.319167	class	-0.2538837
-4.73414	classes	-0.1350649
-4.83105	classification	-0.1350649
-4.83105	classmate	-0.1350649
-4.73414	classmates	-0.1876577
-4.478868	classroom	-0.1957191
-4.83105	clean	-0.1350649
-4.83105	cliché	-0.1350649
-4.83105	clock	-0.1350649
-4.73414	close	-0.1350649
-4.83105	clothing	-0.2730252
-4.654959	cognate	-0.206706
-4.83105	coke	-0.1350649
-4.73414	collapse	-0.1350649
-4.53002	college	-0.1766172
-4.73414	color	-0.1350649
-4.73414	come	-0.1350649
-4.83105	comes	-0.1350649
-4.53002	comic	-0.3979639
-4.83105	comics	-0.206706
-4.83105	comment	-0.1350649
-4.83105	comments	-0.206706
-4.83105	complete	-0.1350649
-4.090688	computer	-0.1766172
-4.588012	condensed	-0.4948739
-4.654959	conjugation	-0.2124911
-4.83105	consonant	-0.1350649
-4.73414	contact	-0.1876577
-4.53002	content	-0.164334
-4.83105	contest	-0.1350649
-4.654959	control	-0.1350649
-4.83105	conyo	-0.1350649
-4.83105	cooking	-0.2475084
-4.53002	cool	-0.1889258
-4.43311	coolie	-0.2103126
-4.83105	cornstarch	-0.206706
-4.83105	corny	-0.1350649
-4.83105	costume	-0.206706
-4.588012	counselor	-0.1350649
-4.654959	course	-0.2124911
-4.478868	court	-0.164334
-4.654959	cover	-0.1766172
-4.257019	cream	-0.2181347
-4.73414	credit	-0.2067059
-4.83105	crew	-0.1350649
-4.53002	crime	-0.1350649
-4.478868	crowd	-0.2103126
-4.154356	crush	-0.2002009
-4.73414	crust	-0.1876577
-4.83105	cubes	-0.206706
-4.654959	cultural	-0.1350649
-4.319167	cup	-0.1350649
-4.83105	cups	-0.1350649
-4.83105	curfew	-0.1350649
-4.478868	curry	-0.2655365
-4.071383	cute	-0.2031799
-4.53002	d	-0.1350649
-3.914596	daan	-0.2043134
-4.654959	daanan	-0.2124911
-4.83105	daang	-0.1350649
-4.83105	dadalaw	-0.1350649
-4.110891	dagat	-0.1970417
-4.052899	dagdag	-0.3100584
-4.286982	dagdagan	-0.1970417
-4.654959	dagli	-0.1350649
-4.654959	dahan-dahan	-0.1350649
-4.588012	dahan-dahang	-0.1876577
-2.607035	dahil	-0.4670699
-3.607035	dahilan	-0.3562058
-3.914596	dahon	-0.4173821
-4.83105	daig	-0.1350649
-3.92796	daigdig	-0.2690292
-4.53002	dakilang	-0.1350649
-4.654959	dako	-0.3311247
-4.654959	dakong	-0.1350649
-4.83105	dakot	-0.2475084
-3.92796	dala	-0.237391
-4.53002	dala-dala	-0.1889258
-4.654959	dala-dalang	-0.1350649
-4.588012	dalaga	-0.1350649
-4.83105	dalampasigan	-0.1350649
-4.43311	dalang	-0.2469178
-4.73414	dalangin	-0.1350649
-4.83105	dalas	-0.1350649
-3.464627	dalawa	-0.4023242
-3.242779	dalawang	-0.1961302
-4.73414	daldal	-0.2342147
-4.43311	dalhin	-0.2614651
-4.391717	dali	-0.1576572
-4.177838	daliri	-0.1837548
-3.985952	daloy	-0.4772528
-4.478868	dalubhasa	-0.1350649
-4.83105	daluyan	-0.1350649
-4.654959	damage	-0.206706
-4.83105	damayan	-0.1350649
-4.654959	dambuhalang	-0.1350649
-4.13208	damdamin	-0.1818164
-4.73414	damdaming	-0.1350649
-3.63377	dami	-0.3346914
-4.73414	dami-dami	-0.1350649
-4.319167	daming	-0.1350649
-3.914596	damit	-0.2733277
-4.654959	damo	-0.22257
-4.53002	dampa	-0.1694099
-4.83105	dancing	-0.2067059
-3.086757	dapat	-0.2716222
-3.985952	darating	-0.2386906
-4.53002	dasal	-0.1889258
-3.569788	dati	-0.4054145
-4.83105	dati-rati	-0.206706
-3.789658	dating	-0.1462141
-4.83105	datos	-0.1350649
-3.187598	daw	-0.4014614
-4.53002	day	-0.1350649
-4.588012	dayalek	-0.1766172
-4.83105	dayo	-0.1350649
-4.654959	days	-0.1350649
-3.889042	dayuhan	-0.286551
-4.391717	dayuhang	-0.1350649
-4.83105	dayukdok	-0.206706
-3.717107	de	-0.19753
-4.83105	deadly	-0.1350649
-4.83105	dear	-0.2475085
-4.43311	death	-0.1350649
-4.83105	debate	-0.206706
-4.83105	deep	-0.1350649
-4.588012	dekada	-0.1350649
-4.654959	delikado	-0.1766172
-4.654959	delivery	-0.1876577
-4.353929	demonyo	-0.1876577
-4.588012	dengue	-0.2386009
-4.83105	density	-0.1350649
-4.391717	depende	-0.4146922
-4.588012	depinisyon	-0.1694099
-4.83105	depinisyong	-0.1350649
-4.83105	depressed	-0.1350649
-4.83105	design	-0.1350649
-4.202662	desisyon	-0.206706
-4.83105	desisyong	-0.1350649
-4.353929	destructive	-0.1553443
-4.73414	detalyadong	-0.1350649
-4.478868	detalye	-0.1350649
-4.654959	development	-0.1766172
-2.926605	di	-0.4349048
-4.588012	diary	-0.1766172
-4.22899	dibdib	-0.218889
-4.83105	dick	-0.206706
-4.588012	dictionary	-0.1350649
-4.83105	diet	-0.1350649
-4.588012	diglossia	-0.1766172
-4.478868	digmaan	-0.1350649
-4.478868	dignidad	-0.164334
-4.73414	diin	-0.1876577
-4.391717	diksiyonaryo	-0.1576572
-4.73414	diksiyonaryong	-0.2475084
-4.588012	diksyonaryo	-0.206706
-4.73414	diksyonaryong	-0.1350649
-4.177838	diksyunaryo	-0.2618836
-4.83105	diksyunaryong	-0.1350649
-4.03517	dila	-0.2805042
-4.73414	dilag	-0.1350649
-4.478868	dilaw	-0.3235285
-4.13208	dilim	-0.2282296
-2.630337	din	-0.5620875
-4.83105	dinadagdagan	-0.1350649
-4.202662	dinadala	-0.2954998
-4.83105	dinagdagan	-0.206706
-4.53002	dinala	-0.164334
-4.83105	dinami-daming	-0.1350649
-4.83105	dinami-rami	-0.1350649
-4.83105	dinanas	-0.1350649
-4.73414	dinaraanan	-0.1876577
-4.83105	dinaramdam	-0.1350649
-3.399687	ding	-0.163226
-4.53002	dingding	-0.1889258
-4.83105	dinikdik	-0.2730252
-4.73414	direct	-0.2475084
-4.654959	directional	-0.1350649
-4.53002	direksyon	-0.1350649
-4.83105	direkta	-0.1350649
-4.53002	direktang	-0.1350649
-4.83105	direktor	-0.206706
-4.588012	diretso	-0.1350649
-4.83105	dirty	-0.1350649
-4.73414	discussion	-0.1350649
-4.588012	disease	-0.2386009
-4.83105	disenyo	-0.1350649
-4.83105	dish	-0.206706
-4.83105	diskarte	-0.1350649
-4.654959	diskriminasyon	-0.2124911
-4.83105	dismayado	-0.1350649
-4.83105	disorder	-0.1350649
-4.83105	diss	-0.1350649
-4.73414	distractions	-0.1876577
-4.654959	distribusyon	-0.1766172
-4.73414	disyerto	-0.1350649
-3.138644	dito	-0.5786763
-4.588012	ditto	-0.1694099
-3.864908	diwa	-0.3269001
-4.286982	diwata	-0.2265379
-4.73414	diwatang	-0.1350649
-4.83105	diwa’t	-0.1350649
-4.83105	diyablo	-0.1350649
-4.478868	diyalekto	-0.1605656
-3.985952	diyan	-0.3662295
-4.83105	diyang	-0.1350649
-4.73414	diyaryo	-0.1350649
-4.73414	diyes	-0.1350649
-3.92796	diyos	-0.2777842
-4.202662	diyosa	-0.2191843
-4.654959	do	-0.206706
-4.22899	do'n	-0.235213
-4.73414	dokumento	-0.1350649
-4.83105	dokyu	-0.1350649
-4.391717	don't	-0.1605656
-4.73414	done	-0.1350649
-4.83105	don’t	-0.1350649
-3.474069	doon	-0.5549138
-4.83105	dorm	-0.1350649
-4.73414	dos	-0.2067059
-4.478868	double	-0.2103126
-4.73414	dough	-0.1350649
-4.478868	down	-0.164334
-4.588012	do’n	-0.2916723
-4.53002	dragon	-0.2342147
-4.83105	drama	-0.1350649
-4.654959	drawing	-0.1876577
-4.154356	driver	-0.2703571
-4.73414	drugs	-0.1876577
-4.73414	duda	-0.1876577
-3.864908	dugo	-0.2238745
-4.654959	dugong	-0.1350649
-4.83105	dula	-0.1350649
-3.901631	dulo	-0.3450562
-4.654959	dulong	-0.1350649
-3.92796	dulot	-0.32838
-4.83105	dulo’y
-4.353929	dumaan	-0.2312407
-4.588012	dumadaan	-0.1985898
-4.73414	dumadaang	-0.1350649
-4.53002	dumami	-0.1957191
-4.73414	dumaraan	-0.1876577
-3.864908	dumating	-0.4324729
-4.73414	dumeretso	-0.206706
-4.43311	dumi	-0.206706
-4.588012	dumiretso	-0.1766172
-4.73414	dumukot	-0.1350649
-3.955989	dun	-0.439083
-4.654959	durog	-0.1766172
-4.83105	duwelo	-0.1350649
-4.654959	dynamic	-0.206706
-2.809861	e	-0.3474903
-4.654959	earphones	-0.1876577
-4.83105	earth	-0.1350649
-4.83105	easy	-0.1350649
-4.654959	ebidensya	-0.1766172
-4.001747	edad	-0.2708127
-4.73414	edge	-0.1350649
-4.202662	edi	-0.1350649
-4.654959	edisyon	-0.1766172
-4.588012	editor	-0.1350649
-4.83105	education	-0.1350649
-4.73414	edukado	-0.1876577
-3.914596	edukasyon	-0.2479443
-4.588012	edukasyong	-0.1350649
-4.654959	egg	-0.1876577
-4.110891	eh	-0.3151534
-4.83105	ehemplo	-0.1350649
-4.83105	ekonomiya	-0.1350649
-4.53002	eksena	-0.164334
-4.83105	eksenang	-0.1350649
-4.73414	ektarya	-0.1876577
-4.22899	elementary	-0.1833781
-4.588012	elementarya	-0.1350649
-4.73414	elepante	-0.1350649
-4.83105	elevator	-0.206706
-4.73414	em	-0.1876577
-4.202662	emcee	-0.2878783
-4.83105	emcees	-0.1350649
-4.353929	emosyon	-0.2538837
-4.03517	empleyado	-0.1739004
-4.319167	en	-0.1694099
-4.478868	ending	-0.206706
-4.73414	endings	-0.2475085
-4.73414	enerhiya	-0.1350649
-4.83105	enerhiyang	-0.1350649
-4.588012	enjoy	-0.1766172
-4.83105	ensemble	-0.1350649
-4.654959	entablado	-0.2225699
-4.654959	entity	-0.3311247
-4.83105	entrance	-0.1350649
-4.73414	entry	-0.1876577
-4.654959	environment	-0.1350649
-4.22899	epekto	-0.1927704
-4.83105	epic	-0.1350649
-3.54662	epiko	-0.2857983
-4.83105	epikong	-0.1350649
-4.588012	ere	-0.1766172
-4.83105	eroplano	-0.1350649
-4.53002	escalator	-0.1694099
-4.83105	eskuwela	-0.1350649
-4.22899	eskuwelahan	-0.1818164
-4.83105	eskwela	-0.1350649
-4.319167	espasyo	-0.1766172
-4.43311	espesyal	-0.416611
-4.353929	espiritu	-0.1685588
-4.83105	espiritung	-0.1350649
-4.83105	essay	-0.1350649
-4.353929	estado	-0.2386009
-4.588012	este	-0.1876577
-4.83105	estofado	-0.206706
-3.941749	estudyante	-0.2130634
-4.654959	estudyanteng	-0.1350649
-4.478868	et	-0.2475085
-4.286982	etc	-0.1350649
-4.73414	etnoepiko	-0.1876577
-4.588012	eto	-0.1985898
-4.83105	even	-0.1350649
-4.43311	event	-0.1814895
-4.654959	ever	-0.1350649
-4.654959	every	-0.1350649
-4.286982	ewan	-0.2103126
-4.73414	exam	-0.2475084
-4.83105	excited	-0.1350649
-4.83105	excitement	-0.1350649
-4.73414	existence	-0.1350649
-4.73414	experience	-0.1350649
-4.83105	experts	-0.1350649
-4.654959	extra	-0.1876577
-4.588012	eye	-0.1350649
-4.654959	f	-0.1350649
-4.73414	face	-0.1876577
-4.83105	facebook	-0.1350649
-4.654959	fact	-0.2626379
-4.83105	factory	-0.1350649
-4.83105	fairy	-0.1350649
-4.53002	family	-0.1876577
-4.353929	fan	-0.1927703
-4.110891	fans	-0.1816433
-4.83105	farm	-0.206706
-4.478868	favorite	-0.164334
-4.73414	fee	-0.1350649
-4.83105	feel	-0.1350649
-3.581852	feeling	-0.3520283
-4.83105	feminism	-0.1350649
-4.83105	feminismong	-0.1350649
-4.73414	fiber	-0.1350649
-4.588012	fiction	-0.1350649
-4.83105	field	-0.1350649
-4.588012	figure	-0.1694099
-4.83105	filecase	-0.1350649
-4.73414	finish	-0.2342147
-3.970712	first	-0.2350026
-4.83105	fit	-0.206706
-4.43311	five	-0.1350649
-4.654959	flag	-0.2730252
-4.588012	flan	-0.1876577
-4.588012	flavor	-0.1694099
-4.43311	floor	-0.1814895
-4.654959	flour	-0.1876577
-4.43311	flow	-0.2614651
-4.257019	focus	-0.1632348
-4.83105	font-face	-0.2475084
-4.654959	font-family	-0.2475084
-4.286982	food	-0.1876577
-4.73414	foods	-0.1876577
-3.72554	for	-0.2169342
-4.73414	forever	-0.1876577
-4.654959	form	-0.1350649
-4.73414	franca	-0.1350649
-4.22899	freestyle	-0.2158248
-4.83105	freestyler	-0.1350649
-4.588012	fried	-0.22257
-4.391717	friend	-0.1876577
-4.73414	friends	-0.1350649
-4.83105	fries	-0.1350649
-4.177838	from	-0.1833781
-4.286982	fuck	-0.2063474
-4.588012	fucking	-0.1350649
-4.391717	future	-0.1989861
-4.654959	g	-0.1350649
-4.83105	ga'no	-0.1350649
-3.876808	gaano	-0.1783975
-4.43311	gaanong	-0.1350649
-4.286982	gabay	-0.1876577
-4.83105	gabayan	-0.1350649
-3.581852	gabi	-0.4620616
-4.588012	gabi-gabi	-0.1985898
-4.177838	gabing	-0.2185169
-4.53002	gagamba	-0.1694099
-4.22899	gagamit	-0.3140614
-4.052899	gagamitin	-0.1706101
-4.73414	gagamiting	-0.1350649
-4.353929	gagawa	-0.2134475
-3.684922	gagawin	-0.3534051
-4.654959	gagawing	-0.1350649
-4.73414	gagayahin	-0.1350649
-4.13208	gago	-0.2701824
-4.588012	gagong	-0.1766172
-4.654959	galak	-0.1350649
-4.257019	galaw	-0.1985898
-3.594261	galing	-0.3547105
-3.600601	galit	-0.3483646
-4.83105	gamay	-0.206706
-4.257019	game	-0.1666693
-4.391717	games	-0.2342147
-3.459982	gamit	-0.5078505
-3.985952	gamitin	-0.2130634
-4.654959	gamiting	-0.1350649
-4.43311	gamot	-0.1576572
-4.83105	gan'to	-0.1350649
-4.391717	gana	-0.1576572
-4.73414	ganang	-0.2475084
-4.73414	ganap	-0.1350649
-4.03517	ganda	-0.2458671
-4.73414	ganid	-0.1876577
-3.514032	ganito	-0.3303702
-3.213002	ganitong	-0.2033982
-4.257019	gano'n	-0.2111492
-4.13208	ganon	-0.2802033
-3.541016	ganoon	-0.2517436
-3.514032	ganoong	-0.1677252
-4.73414	gano’n	-0.1876577
-3.901631	ganun	-0.3072226
-4.73414	ganun-ganon	-0.1350649
-4.83105	ganung	-0.1350649
-3.955989	ganyan	-0.2754549
-4.588012	ganyang	-0.1350649
-4.654959	garbage	-0.2730252
-4.73414	garlic	-0.1350649
-4.83105	gas	-0.1350649
-4.53002	gasgas	-0.164334
-4.53002	gastos	-0.1766172
-4.353929	gata	-0.2175013
-3.914596	gatas	-0.3176181
-4.257019	gate	-0.2658888
-4.83105	gatilyo	-0.1350649
-4.73414	gating	-0.1350649
-3.970712	gawa	-0.2649776
-4.83105	gawa-gawa	-0.2730252
-3.600601	gawain	-0.3804862
-4.154356	gawaing	-0.1685589
-4.83105	gawan	-0.2475084
-4.83105	gawang	-0.1350649
-4.257019	gawi	-0.2265379
-3.387787	gawin	-0.3883896
-3.901631	gawing	-0.1441656
-4.83105	gawi’t	-0.2730252
-3.985952	gaya	-0.6101923
-4.83105	gaya-gaya	-0.1350649
-4.588012	gayahin	-0.1350649
-4.43311	gayon	-0.1818164
-4.83105	gayong	-0.1350649
-4.73414	gayundin	-0.1876577
-4.83105	gender	-0.2067059
-4.588012	generic	-0.1694099
-4.73414	genius	-0.1350649
-4.478868	genre	-0.1818164
-4.83105	get	-0.1350649
-4.83105	gig	-0.1350649
-4.83105	gilagid	-0.1350649
-4.13208	gilid	-0.2012783
-4.73414	gimik	-0.1350649
-4.319167	ginagalawan	-0.308417
-3.459982	ginagamit	-0.4116454
-4.83105	ginagamitan	-0.1350649
-4.73414	ginagampanan	-0.1876577
-3.380032	ginagawa	-0.4379314
-4.071383	ginagawang	-0.1350649
-4.83105	ginagaya	-0.1350649
-3.941749	ginamit	-0.2802032
-4.73414	ginataang	-0.2475084
-4.53002	ginaw	-0.1957192
-3.459982	ginawa	-0.3286294
-4.018137	ginawang	-0.1350649
-4.53002	ginaya	-0.164334
-4.73414	giniling	-0.2342147
-4.588012	ginto	-0.1350649
-4.73414	gintong	-0.1350649
-4.83105	ginugulo	-0.1350649
-4.83105	ginugusto	-0.1350649
-4.588012	ginusto	-0.1766172
-4.73414	ginustong	-0.1350649
-4.83105	gipit	-0.1350649
-4.83105	girl	-0.1350649
-4.257019	girlfriend	-0.3438278
-4.73414	girls	-0.1350649
-4.052899	gising	-0.258218
-4.83105	gisingin	-0.1350649
-4.319167	gitara	-0.2262528
-4.43311	gitling	-0.1766172
-4.001747	gitna	-0.2503012
-4.43311	gitnang	-0.2655365
-4.73414	give	-0.1350649
-4.353929	giyera	-0.2470359
-4.83105	global	-0.1350649
-4.83105	globalisasyon	-0.1350649
-4.73414	glucose	-0.1350649
-4.654959	go	-0.1350649
-4.13208	gobyerno	-0.237391
-4.83105	goddamn	-0.1350649
-4.73414	going	-0.1876577
-4.588012	gong	-0.1694099
-4.257019	good	-0.1685588
-4.83105	google	-0.1350649
-4.43311	got	-0.1350649
-4.83105	government	-0.1350649
-4.478868	grade	-0.2626379
-4.73414	grades	-0.1350649
-4.73414	grado	-0.1350649
-4.588012	gramatikal	-0.1766172
-3.901631	grammar	-0.248894
-4.478868	great	-0.1350649
-4.53002	green	-0.164334
-4.73414	ground	-0.1350649
-4.588012	group	-0.1350649
-4.83105	groupie	-0.206706
-3.842046	grupo	-0.3486153
-4.43311	grupong	-0.1350649
-4.588012	guard	-0.2386009
-4.83105	guayabano	-0.1350649
-4.319167	gubat	-0.1518979
-4.73414	gubat-bakawan	-0.1350649
-4.73414	gugustuhin	-0.1876577
-4.43311	guidance	-0.2655366
-4.588012	gulang	-0.1350649
-4.654959	gulat	-0.1766172
-3.809861	gulay	-0.2732971
-4.478868	gulo	-0.164334
-4.73414	gulong	-0.1350649
-4.43311	gulugod	-0.164334
-4.018137	gumagamit	-0.3463289
-4.43311	gumagana	-0.1576571
-3.955989	gumagawa	-0.4611546
-4.73414	gumalang	-0.1350649
-4.73414	gumalaw	-0.1876577
-4.22899	gumamit	-0.7782828
-4.83105	gumana	-0.1350649
-4.73414	gumastos	-0.1876577
-3.73414	gumawa	-0.5778474
-4.654959	gumaya	-0.2124911
-4.73414	gumigising	-0.1350649
-4.43311	gumising	-0.1814895
-4.588012	gumuhit	-0.1350649
-4.654959	gun	-0.2342147
-4.391717	gunggong	-0.2220121
-4.73414	guniguni	-0.1350649
-4.478868	gunita	-0.2469178
-4.73414	gupit	-0.1350649
-3.717107	guro	-0.299023
-4.654959	gurong	-0.1876577
-4.353929	gusali	-0.2782338
-4.83105	gusok	-0.1350649
-2.78475	gusto	-0.599701
-3.63377	gustong	-0.1764559
-4.83105	gustuhin	-0.1350649
-4.286982	gustung-gusto	-0.2185169
-4.83105	gustung-gustong	-0.1350649
-4.071383	gutom	-0.257279
-4.43311	guwapo	-0.1576572
-4.73414	guya	-0.1350649
-4.43311	ha	-0.1985898
-4.73414	haba	-0.1350649
-4.83105	habagat	-0.1350649
-4.391717	habambuhay	-0.2277069
-3.147553	habang	-0.2097902
-4.478868	habol	-0.1889258
-4.83105	habulan	-0.1350649
-4.654959	had	-0.1876577
-4.588012	hadlang	-0.1350649
-4.654959	hagdan	-0.3979639
-4.353929	hagdanan	-0.2355765
-4.654959	haha	-0.1766172
-4.83105	hahanapan	-0.1350649
-4.654959	hahanapin	-0.1350649
-4.73414	haharap	-0.1350649
-4.83105	haharapin	-0.206706
-4.13208	hakbang	-0.2039837
-4.53002	hal	-0.1350649
-4.110891	halaga	-0.2224222
-4.654959	halagang	-0.1350649
-4.73414	halakhak	-0.1350649
-4.052899	halaman	-0.257279
-4.73414	halamang	-0.1350649
-4.391717	halata	-0.1941839
-4.654959	halatang	-0.1350649
-4.53002	haligi	-0.1889258
-4.478868	halik	-0.1605656
-4.83105	halika	-0.1350649
-4.73414	halimaw	-0.1350649
-3.446339	halimbawa	-0.4078469
-4.110891	halimbawang	-0.227928
-4.83105	halimbawa’y	-0.1350649
-4.391717	halip	-0.2475084
-4.83105	hall	-0.1350649
-4.588012	halo	-0.1350649
-4.353929	halong	-0.1350649
-3.552297	halos	-0.2733454
-4.73414	halu-halo	-0.1876577
-4.588012	hamak	-0.1694099
-4.588012	hamog	-0.1985897
-4.353929	hamon	-0.2221237
-4.83105	hampas	-0.206706
-4.22899	hanap	-0.1884643
-4.73414	hanapbuhay	-0.1350649
-4.202662	hanapin	-0.3430735
-4.13208	hanay	-0.2577989
-4.654959	hand	-0.1350649
-4.052899	handa	-0.2155603
-4.478868	handaan	-0.164334
-4.654959	handang	-0.1350649
-4.83105	handog	-0.1350649
-4.83105	hangad	-0.1350649
-4.83105	hangang	-0.1350649
-4.53002	hangarin	-0.1350649
-4.654959	hangga't	-0.1350649
-4.73414	hanggan	-0.1876577
-4.588012	hangganan	-0.1350649
-3.18269	hanggang	-0.5082966
-4.83105	hangga’t	-0.1350649
-3.901631	hangin	-0.2684562
-4.83105	hanging	-0.1350649
-4.83105	hangover	-0.1350649
-4.588012	hapag	-0.1766172
-4.73414	hapag-kainan	-0.1350649
-4.83105	hapdi	-0.1350649
-4.73414	hapit	-0.1350649
-4.83105	haplos	-0.2730252
-4.110891	hapon	-0.23147
-4.588012	happy	-0.3311247
-4.83105	hapunan	-0.206706
-4.83105	harang	-0.1350649
-3.620197	harap	-0.1925121
-3.901631	harapan	-0.24999
-4.73414	harapin	-0.1350649
-4.654959	haraya	-0.1766172
-4.22899	hari	-0.2471146
-4.588012	harina	-0.1350649
-4.73414	haring	-0.1350649
-4.83105	has
-4.73414	hashtag	-0.1350649
-4.83105	hate	-0.206706
-4.478868	hati	-0.2165529
-4.391717	hatid	-0.2067059
-4.83105	hatinggabi	-0.1350649
-4.286982	have	-0.1685588
-3.889042	hawak	-0.2241586
-4.83105	hawak-hawak	-0.1350649
-4.53002	hawakan	-0.164334
-4.654959	hayaan	-0.1350649
-4.83105	hayaang	-0.2475084
-3.761012	hayop	-0.316817
-4.73414	hayskul	-0.206706
-4.83105	hazard	-0.1350649
-4.73414	health	-0.1350649
-4.73414	heart	-0.2475084
-4.654959	heat	-0.1766172
-4.83105	hehe	-0.1350649
-4.73414	height	-0.2067059
-4.110891	henerasyon	-0.2052497
-4.654959	henyo	-0.2626379
-4.83105	henyong	-0.1350649
-4.654959	heto	-0.22257
-4.83105	hi	-0.206706
-4.654959	hibla	-0.2124911
-4.83105	higante	-0.1350649
-4.654959	higanteng	-0.1350649
-3.853327	high	-0.4577711
-4.018137	higit	-0.3029087
-4.53002	higop	-0.2655365
-4.83105	hihiling	-0.1350649
-4.654959	hihintayin	-0.1766172
-4.83105	hikbi	-0.206706
-4.83105	hilab	-0.1350649
-4.83105	hilaga	-0.1350649
-4.391717	hilaw	-0.308417
-4.286982	hilig	-0.2265379
-4.478868	hiling	-0.1876577
-4.83105	himala	-0.1350649
-4.22899	himaymay	-0.4103059
-4.43311	himig	-0.2802032
-4.83105	himpapawid	-0.1350649
-3.941749	hinahanap	-0.2343479
-4.654959	hinahanap-hanap	-0.1350649
-4.73414	hinahangaan	-0.1350649
-4.177838	hinaharap	-0.2162777
-4.654959	hinamon	-0.1350649
-4.391717	hinanap	-0.1814895
-4.83105	hinati	-0.1350649
-4.588012	hinayupak	-0.3979639
-2.137543	hindi	-0.4891961
-4.83105	hinding	-0.2730252
-4.03517	hinding-hindi	-0.1955193
-4.654959	hindot	-0.1876577
-4.257019	hinggil	-0.7782827
-4.73414	hinihigaan	-0.1350649
-4.654959	hinihila	-0.1350649
-4.319167	hinihingi	-0.2635164
-4.257019	hinihintay	-0.1764559
-4.83105	hinila	-0.206706
-4.257019	hininga	-0.1632348
-4.588012	hiningi	-0.1350649
-4.53002	hinintay	-0.1957192
-4.73414	hiniram	-0.1350649
-4.53002	hiniwa	-0.1876577
-4.588012	hinlalaki	-0.2386009
-4.83105	hintayan	-0.1350649
-4.73414	hintayin	-0.1350649
-4.73414	hinugot	-0.1350649
-4.53002	hip	-0.1766172
-4.13208	hip-hop	-0.2490765
-4.83105	hip-hopper	-0.206706
-4.654959	hiphop	-0.1876577
-3.853327	hipon	-0.2443473
-4.654959	hiram	-0.1766172
-3.669682	hirap	-0.2267879
-4.83105	hirap-hirap	-0.1350649
-3.779898	history	-0.3243476
-4.391717	hita	-0.2368411
-4.654959	hitik	-0.1876577
-4.071383	hitsura	-0.2600491
-4.478868	hiwa	-0.164334
-4.654959	hiwain	-0.1350649
-4.73414	hiwalay	-0.1876577
-4.286982	hiya	-0.2528968
-4.73414	hiya-hiya	-0.1876577
-4.83105	hiyang	-0.1350649
-4.177838	ho	-0.227928
-4.73414	hobby	-0.1350649
-4.43311	home	-0.1350649
-4.83105	honor	-0.1350649
-4.83105	hood	-0.1350649
-4.73414	hop	-0.1350649
-4.73414	hopia	-0.1350649
-4.478868	horror	-0.2342147
-4.654959	hostage	-0.1350649
-4.73414	hot	-0.2730252
-4.654959	hotdog	-0.1350649
-4.83105	hour	-0.1350649
-4.83105	hours	-0.206706
-4.13208	house	-0.1350649
-4.73414	how	-0.1350649
-4.654959	hubad	-0.1766172
-4.654959	hubog	-0.1876577
-4.43311	hugis	-0.1957192
-4.53002	hukay	-0.1766172
-4.53002	hukbo	-0.1350649
-4.83105	hula	-0.1350649
-3.820326	huli	-0.2754549
-3.575778	huling	-0.2130764
-4.83105	hulog	-0.1350649
-4.83105	humaba	-0.1350649
-4.83105	humahabol	-0.1350649
-4.83105	humahantong	-0.206706
-4.83105	humahawak	-0.1350649
-4.83105	humalik	-0.2475084
-4.83105	humandusay	-0.1350649
-4.478868	humantong	-0.3418191
-4.654959	humarap	-0.1876577
-4.654959	humawak	-0.3311247
-4.83105	humiga	-0.206706
-4.83105	humihila	-0.206706
-4.43311	humihingi	-0.3586191
-4.83105	humila	-0.1350649
-4.83105	humiling	-0.1350649
-4.83105	huminga	-0.1350649
-4.353929	humingi	-0.4204385
-4.83105	humirit	-0.1350649
-4.73414	humor	-0.1350649
-4.177838	humpay	-0.164334
-4.83105	humugot	-0.1350649
-4.654959	hurado	-0.1766172
-4.13208	husay	-0.2397505
-4.83105	hustisya	-0.1350649
-4.588012	husto	-0.1350649
-3.450839	huwag	-0.2923399
-4.286982	hyphen	-0.1605656
-4.83105	h’wag	-0.1350649
-4.018137	i	-0.2119941
-4.654959	iPod	-0.1350649
-4.83105	iabot	-0.1350649
-2.911972	iba	-0.4151501
-3.876808	iba't	-0.3761748
-4.43311	iba-iba	-0.1876577
-4.73414	iba-ibang	-0.1350649
-4.22899	ibaba	-0.1553443
-4.83105	ibabaon	-0.1350649
-4.73414	ibabase	-0.1350649
-4.83105	ibabato	-0.206706
-4.353929	ibabaw	-0.1350649
-4.83105	ibahagi	-0.2067059
-4.73414	ibahin	-0.206706
-4.654959	ibalik	-0.2124911
-2.921227	ibang	-0.2411895
-4.53002	ibang-iba	-0.2655365
-4.73414	ibat	-0.2730252
-4.83105	ibat-ibang	-0.1350649
-4.83105	ibato	-0.206706
-4.73414	ibayong	-0.1350649
-3.588012	iba’t	-0.5742767
-4.73414	ibibigay	-0.1876577
-3.876808	ibig	-0.5272828
-4.43311	ibigay	-0.2103126
-4.83105	ibinabato	-0.1350649
-4.654959	ibinaon	-0.1766172
-4.588012	ibinase	-0.2124911
-4.73414	ibinato	-0.1876577
-4.391717	ibinibigay	-0.2012783
-4.110891	ibinigay	-0.3013259
-4.73414	ibinuhos	-0.1876577
-4.83105	ibon	-0.1350649
-4.83105	ibubuga	-0.1350649
-4.83105	ibubuka	-0.2067059
-4.83105	ibuhos	-0.206706
-4.83105	ibuyangyang	-0.2067059
-4.588012	ice	-0.3311247
-4.391717	idagdag	-0.2787264
-4.53002	idea	-0.1350649
-4.73414	ideal	-0.2342147
-4.202662	identidad	-0.2918468
-4.391717	ideolohiya	-0.2220121
-4.654959	ideolohiyang	-0.1350649
-4.110891	ideya	-0.2303299
-4.73414	ideyang	-0.1350649
-4.83105	ididikit	-0.1350649
-4.654959	idikit	-0.1766172
-4.73414	idinadaan	-0.2342147
-4.83105	idiot	-0.1350649
-4.83105	idlip	-0.2475084
-4.391717	idol	-0.2012784
-4.391717	if	-0.1350649
-4.83105	igalang	-0.2067059
-4.73414	iginiit	-0.1876577
-4.73414	igisa	-0.206706
-4.53002	iglap	-0.3586191
-4.83105	ihahain	-0.1350649
-4.73414	ihahambing	-0.2475084
-4.73414	ihalo	-0.2342147
-4.478868	ihanay	-0.2222113
-4.654959	ihanda	-0.1876577
-4.73414	ihi	-0.1350649
-4.83105	ihiniwalay	-0.206706
-4.654959	ihip	-0.1876577
-4.654959	iilan	-0.2124911
-4.588012	iilang	-0.1766173
-4.73414	iingatan	-0.1350649
-4.018137	iisa	-0.4098742
-3.92796	iisang	-0.1859807
-3.985952	iisipin	-0.2808761
-4.478868	iiwan	-0.1605656
-4.654959	ika	-0.1876577
-4.154356	ika'y	-0.1350649
-4.654959	ikaapat	-0.2342147
-4.83105	ikabubuti	-0.1350649
-4.73414	ikakahon	-0.1350649
-4.478868	ikalawa	-0.1957192
-4.110891	ikalawang	-0.1484787
-4.654959	ikamatay	-0.1766172
-4.83105	ikanga	-0.1350649
-4.391717	ikatlong	-0.1605656
-4.83105	ikauunlad	-0.1350649
-3.343205	ikaw	-0.4245296
-4.53002	ika’y	-0.1350649
-4.83105	ikinakabit	-0.1350649
-4.654959	ikinikilos	-0.2225699
-4.83105	ikukuwento	-0.1350649
-4.654959	ikumpara	-0.2124911
-3.92796	ilagay	-0.439333
-4.83105	ilahad	-0.1350649
-4.73414	ilalabas	-0.1350649
-4.391717	ilalagay	-0.2012783
-3.742914	ilalim	-0.1987747
-3.83105	ilan	-0.3145697
-3.353929	ilang	-0.2471133
-4.73414	ilarawan	-0.1876577
-4.177838	ilaw	-0.2850815
-4.73414	iligtas	-0.2342147
-4.73414	ilipat	-0.2342147
-4.73414	illegal	-0.1350649
-4.177838	ilog	-0.1518979
-4.13208	ilong	-0.2191529
-4.654959	image	-0.1766172
-4.654959	imaginary	-0.1350649
-4.83105	imagination	-0.1350649
-4.110891	imahe	-0.4022013
-4.286982	imahen	-0.1884643
-4.654959	imaheng	-0.1350649
-4.257019	imahinasyon	-0.2528968
-4.73414	imbakan	-0.3979639
-4.83105	imbestigasyon	-0.1350649
-4.654959	imbis	-0.2730252
-4.83105	imik	-0.206706
-4.654959	impact	-0.1766172
-4.353929	impit	-0.1927704
-4.73414	impluwensiya	-0.1350649
-4.588012	impluwensya	-0.2386009
-4.353929	impormasyon	-0.258894
-4.53002	importante	-0.1350649
-4.257019	imposible	-0.1876577
-4.83105	imposibleng	-0.2067059
-4.83105	imprinting	-0.1350649
-3.399687	in	-0.225789
-4.73414	in-order	-0.1350649
-3.245589	ina	-0.3407089
-4.588012	inaabangan	-0.1694099
-4.73414	inaabot	-0.1350649
-4.53002	inaabuso	-0.164334
-4.654959	inaakala	-0.1876577
-4.478868	inaalala	-0.2103126
-4.83105	inaalam	-0.1350649
-4.73414	inaantok	-0.1350649
-4.319167	inaasahan	-0.2026289
-4.83105	inaasam	-0.1350649
-4.83105	inaasar	-0.1350649
-4.83105	inaayawan	-0.1350649
-4.83105	inagaw	-0.1350649
-4.83105	inako	-0.1350649
-4.83105	inalala	-0.1350649
-4.001747	inang	-0.1765231
-4.353929	inaral	-0.2787264
-4.73414	inches	-0.2342147
-4.13208	indibidwal	-0.2103126
-4.83105	inenjoy	-0.206706
-4.588012	inflection	-0.1766173
-4.73414	inflectional	-0.1350649
-4.83105	info	-0.1350649
-4.73414	information	-0.2475084
-4.83105	ingat	-0.1350649
-4.73414	ingatan	-0.1876577
-4.257019	ingay	-0.2052498
-4.654959	inggit	-0.1350649
-4.83105	ingredient	-0.1350649
-4.43311	ingredients	-0.1876577
-4.73414	iniaalay	-0.2475084
-4.73414	iniaangat	-0.1350649
-4.73414	iniabot	-0.1350649
-4.654959	inihahain	-0.1766172
-4.83105	inihahambing	-0.1350649
-4.654959	inihahanda	-0.1766172
-4.654959	inihain	-0.1766172
-4.83105	inihaing	-0.1350649
-4.654959	inihanay	-0.1350649
-4.73414	inihanda	-0.1876577
-4.654959	inihatid	-0.1766172
-4.73414	inihaw	-0.2342147
-4.83105	inihayag	-0.206706
-4.478868	iniingatan	-0.1605656
-4.83105	iniingatang	-0.2475084
-4.83105	iniirog	-0.1350649
-3.575778	iniisip	-0.3570695
-4.83105	iniiwasan	-0.1350649
-4.654959	inilaan	-0.1350649
-4.654959	inilabas	-0.1350649
-4.319167	inilagay	-0.1656669
-4.73414	inilahad	-0.1350649
-4.588012	inilalabas	-0.1694099
-4.83105	inilalagay	-0.1350649
-4.654959	inilalahad	-0.1766172
-4.588012	inilalarawan	-0.1985898
-4.73414	inilalayo	-0.1350649
-4.73414	inilapat	-0.1876577
-4.83105	inilarawan	-0.2067059
-4.73414	inilatag	-0.1876577
-4.73414	inipon	-0.1876577
-4.588012	inis	-0.1694098
-3.985952	inisip	-0.2941702
-3.970712	init	-0.2320175
-4.654959	iniulat	-0.1350649
-4.73414	iniutos	-0.1876577
-4.83105	iniuutos	-0.206706
-4.319167	iniwan	-0.2262528
-4.83105	inner	-0.1350649
-4.588012	inodoro	-0.1766172
-4.73414	inosente	-0.1350649
-4.654959	insekto	-0.1766172
-4.83105	insidente	-0.1350649
-4.83105	inspirasyon	-0.206706
-4.83105	institusyong	-0.1350649
-4.73414	instructions	-0.1350649
-4.73414	instrumental	-0.1350649
-4.53002	instrumento	-0.1889258
-4.83105	instrumentong	-0.2730252
-4.73414	insulto	-0.1876577
-4.83105	intel	-0.1350649
-4.654959	intelektwal	-0.1350649
-4.73414	intense	-0.1350649
-4.53002	interes	-0.2222113
-3.83105	internet	-0.1880433
-4.478868	intindihin	-0.1876577
-4.588012	into	-0.1350649
-4.83105	intro	-0.1350649
-4.73414	inulit	-0.1876577
-4.73414	inumin	-0.1876577
-4.83105	inuulit	-0.1350649
-4.83105	involved	-0.1350649
-3.901631	inyo	-0.146879
-3.742914	inyong	-0.145945
-4.83105	ipaabot	-0.1350649
-4.83105	ipaalala	-0.206706
-4.654959	ipabasa	-0.1350649
-4.83105	ipagagawa	-0.206706
-4.83105	ipagduldulan	-0.206706
-4.73414	ipaglaban	-0.1876577
-4.53002	ipagpatuloy	-0.22257
-4.73414	ipagtanggol	-0.3979639
-4.83105	ipagyabang	-0.1350649
-4.73414	ipakilala	-0.1350649
-4.22899	ipakita	-0.2158248
-4.43311	ipaliwanag	-0.1814895
-4.73414	iparamdam	-0.1876577
-4.73414	iparating	-0.1350649
-4.654959	ipasa	-0.1350649
-4.654959	ipasok	-0.2124911
-4.83105	ipatong	-0.1350649
-4.588012	ipinagbabawal	-0.1694098
-4.83105	ipinagbawal	-0.1350649
-4.83105	ipinagdiwang	-0.1350649
-4.588012	ipinagkaloob	-0.206706
-4.83105	ipinahihiwatig	-0.206706
-4.83105	ipinakikilala	-0.1350649
-4.654959	ipinakikita	-0.1350649
-4.478868	ipinakilala	-0.3235285
-4.286982	ipinakita	-0.2689768
-4.83105	ipinakitang	-0.1350649
-4.353929	ipinanganak	-0.1534611
-4.53002	ipinapakita	-0.1694099
-4.83105	ipinapakitang	-0.1350649
-4.83105	ipinapasa	-0.1350649
-4.83105	ipinasa	-0.1350649
-4.83105	ipinatong	-0.1350649
-4.83105	ipinipilit	-0.1350649
-4.83105	ipiprito	-0.2067059
-4.654959	ipis	-0.1766172
-4.83105	ipokrito	-0.1350649
-4.53002	iron	-0.1350649
-3.761012	is	-0.1735703
-3.060198	isa	-0.4760965
-4.588012	isa't	-0.1350649
-4.83105	isa-isa	-0.1350649
-4.83105	isahukay	-0.2475084
-4.83105	isalin	-0.1350649
-4.478868	isama	-0.2342147
-4.654959	isandaang	-0.1350649
-2.359026	isang	-0.2417646
-4.654959	isasagot	-0.1766172
-4.83105	isasaing	-0.206706
-4.83105	isasalang	-0.1350649
-4.73414	isasalin	-0.2342147
-4.73414	isaw	-0.1876577
-4.53002	isa’t	-0.2475084
-4.154356	isda	-0.2438535
-4.654959	isigaw	-0.1350649
-4.83105	isinagawa	-0.1350649
-4.53002	isinagawang	-0.1350649
-4.654959	isinagot	-0.1350649
-4.73414	isinalang	-0.3979639
-4.588012	isinalaysay	-0.1350649
-4.202662	isinama	-0.3091623
-4.83105	isinamang	-0.1350649
-4.654959	isinara	-0.1766172
-4.73414	isinasalaysay	-0.1350649
-4.83105	isinasama	-0.206706
-4.83105	isinisiwalat	-0.1350649
-4.73414	isiniwalat	-0.1876577
-4.001747	isinulat	-0.2334032
-4.83105	isinumpa	-0.1350649
-4.654959	isinusulat	-0.1350649
-3.54662	isip	-0.339321
-3.761012	isipan	-0.3065321
-3.853327	isipin	-0.2396139
-4.03517	isiping	-0.1709665
-4.73414	isisilid	-0.1350649
-4.83105	iskul	-0.1350649
-4.257019	isla	-0.2368411
-4.090688	istilo	-0.2516229
-4.83105	istorya	-0.206706
-4.83105	istruktura	-0.1350649
-4.090688	isulat	-0.2583783
-4.478868	isusulat	-0.1350649
-4.43311	isyu	-0.2012783
-3.941749	it	-0.2267044
-4.588012	ita	-0.1694099
-3.941749	itaas	-0.2350026
-4.654959	itago	-0.1350649
-4.53002	itanong	-0.1350649
-4.53002	itapon	-0.2222113
-4.73414	itatanong	-0.1350649
-4.73414	itigil	-0.1350649
-4.13208	itim	-0.3061036
-4.83105	itinapon	-0.206706
-4.588012	itinatago	-0.1694098
-4.83105	itinatakda	-0.2475084
-4.73414	itinatanghal	-0.1350649
-4.654959	itinuloy	-0.1350649
-4.286982	itinuro	-0.1726711
-4.83105	itinutulak	-0.1350649
-4.257019	itinuturing	-0.2185169
-4.257019	itinuturo	-0.2185169
-4.001747	itlog	-0.2361783
-2.397681	ito	-0.6112816
-4.202662	ito'y	-0.1494529
-3.197582	itong	-0.1785135
-4.83105	itoy	-0.1350649
-3.941749	ito’y	-0.1945589
-4.73414	its	-0.2067059
-4.22899	itsura	-0.1884643
-4.53002	itulak	-0.1350649
-4.53002	ituloy	-0.2655365
-4.73414	ituro	-0.1876577
-4.83105	itutustos	-0.2730252
-4.83105	it’s	-0.1350649
-4.654959	iwan	-0.1350649
-4.588012	iwanan	-0.1350649
-4.73414	iwasan	-0.1350649
-4.83105	iwing	-0.1350649
-4.83105	iyak	-0.1350649
-4.110891	iyan	-0.2064669
-4.654959	iyang	-0.1350649
-3.541016	iyo	-0.1552675
-2.951668	iyon	-0.5616421
-3.051093	iyong	-0.17492
-4.654959	jacket	-0.2124911
-4.588012	jalea	-0.3311247
-3.708834	jeep	-0.2660631
-4.83105	jeepney	-0.206706
-4.43311	jejemon	-0.1814895
-4.83105	jetpack	-0.1350649
-4.73414	jingle	-0.1350649
-4.478868	joke	-0.2469178
-4.319167	jokes	-0.1837548
-4.53002	jologs	-0.2222113
-4.83105	joy	-0.1350649
-4.83105	judges	-0.1350649
-4.53002	juice	-0.206706
-4.588012	just	-0.206706
-2.208836	ka	-0.7046858
-4.83105	ka'gad	-0.1350649
-4.83105	ka't	-0.1350649
-4.154356	kaagad	-0.1948154
-4.83105	kaagapay	-0.1350649
-4.73414	kaakibat	-0.1876577
-4.73414	kaakuhan	-0.1350649
-3.809861	kaalaman	-0.3048753
-4.654959	kaalamang	-0.1350649
-4.478868	kaanak	-0.1876577
-4.478868	kaanyuan	-0.1350649
-4.588012	kaarawan	-0.1694099
-4.478868	kaaway	-0.1605656
-4.654959	kaaya-ayang	-0.1350649
-4.286982	kaba	-0.2048534
-4.286982	kababaihan	-0.1720548
-4.73414	kababaihang	-0.1876577
-4.83105	kababaw	-0.1350649
-4.654959	kababawan	-0.2124911
-4.53002	kababayan	-0.164334
-4.73414	kabahan	-0.1350649
-4.83105	kabahayan	-0.1350649
-4.83105	kabaklaan	-0.1350649
-4.588012	kabaligtaran	-0.1350649
-4.83105	kaban	-0.1350649
-4.43311	kabanata	-0.1814895
-4.83105	kabanatang	-0.1350649
-4.83105	kabanuan	-0.1350649
-4.13208	kabataan	-0.2277069
-4.654959	kabataang	-0.1350649
-4.73414	kabattle	-0.2342147
-4.83105	kabayo	-0.1350649
-4.73414	kabigat	-0.1350649
-4.110891	kabila	-0.1766173
-4.052899	kabilang	-0.2177677
-4.83105	kabilis	-0.1350649
-4.654959	kabit	-0.1350649
-4.73414	kabiyak	-0.1350649
-4.177838	kabuhayan	-0.3150447
-4.43311	kabuluhan	-0.2334774
-4.83105	kabuluhang	-0.1350649
-4.53002	kabundukan	-0.1766172
-4.654959	kabutihan	-0.1350649
-4.319167	kabuuan	-0.2916723
-4.319167	kada	-0.1534611
-4.588012	kadahilanan	-0.1766172
-4.391717	kadahilanang	-0.1350649
-4.83105	kadalas	-0.206706
-4.353929	kadalasan	-0.2175013
-4.478868	kadalasang	-0.206706
-4.83105	kadalasa’y	-0.1350649
-4.588012	kadali	-0.1766172
-4.73414	kadiri	-0.1350649
-4.588012	kaedad	-0.1694099
-4.286982	kagabi	-0.3469509
-4.43311	kagagawan	-0.2655365
-4.83105	kagaguhan	-0.1350649
-4.286982	kagamitan	-0.2149861
-4.654959	kaganapan	-0.1350649
-4.319167	kagandahan	-0.2368411
-4.53002	kagat	-0.1350649
-4.83105	kagawian	-0.1350649
-4.43311	kagaya	-0.2980703
-4.73414	kagrupo	-0.1350649
-4.110891	kagubatan	-0.2766301
-4.478868	kagustuhan	-0.206706
-4.73414	kagyat	-0.1350649
-4.53002	kaha	-0.1694098
-4.83105	kahaba	-0.1350649
-4.83105	kahabaan	-0.2475084
-4.83105	kahalaga	-0.1350649
-4.43311	kahalagahan	-0.4948739
-4.83105	kahanay	-0.1350649
-4.154356	kahapon	-0.3150448
-4.391717	kaharap	-0.1989861
-4.53002	kaharian	-0.1889258
-4.83105	kahawig	-0.206706
-4.73414	kahel	-0.1350649
-4.73414	kahihiyan	-0.1350649
-4.83105	kahilingan	-0.206706
-4.83105	kahinaan	-0.1350649
-4.83105	kahindik-hindik	-0.206706
-4.588012	kahirap	-0.1694098
-4.43311	kahirapan	-0.1350649
-2.695123	kahit	-0.4142308
-4.588012	kahon	-0.1694099
-4.22899	kahoy	-0.2087632
-3.751869	kahulugan	-0.41513
-4.654959	kahulugang	-0.1876577
-4.73414	kahusayan	-0.1876577
-4.83105	kaiba	-0.1350649
-4.53002	kaibahan	-0.164334
-3.498612	kaibigan	-0.3281636
-4.391717	kaibigang	-0.1350649
-4.654959	kailaliman	-0.1350649
-3.955989	kailan	-0.1576571
-3.13208	kailangan	-0.3740507
-3.441884	kailangang	-0.1599874
-4.090688	kailanman	-0.1552248
-4.654959	kain	-0.1350649
-4.319167	kainan	-0.1656669
-3.985952	kainin	-0.216748
-4.052899	kaisipan	-0.2757939
-4.83105	kakabahan	-0.1350649
-4.83105	kakabitan	-0.1350649
-4.090688	kakaiba	-0.2403157
-3.914596	kakaibang	-0.1552675
-4.654959	kakailanganin	-0.1766172
-4.286982	kakain	-0.1726711
-4.53002	kakainin	-0.1957191
-4.83105	kakambal	-0.206706
-4.53002	kakampi	-0.2916723
-4.83105	kakantahin	-0.1350649
-4.83105	kakarampot	-0.206706
-4.478868	kakatwang	-0.1350649
-4.478868	kakaunti	-0.2408107
-4.73414	kakaunting	-0.1350649
-4.83105	kakausapin	-0.206706
-4.73414	kakaw	-0.1350649
-3.842046	kakayahan	-0.2429349
-4.13208	kakayahang	-0.1656669
-4.588012	kakayanin	-0.1350649
-4.73414	kakilala	-0.1350649
-3.92796	kaklase	-0.1941839
-4.391717	kako	-0.2329689
-4.83105	kakong	-0.1350649
-4.73414	kakornihan	-0.1350649
-4.654959	kakulangan	-0.2124911
-4.53002	kala	-0.1876577
-3.789658	kalaban	-0.372864
-4.654959	kalabang	-0.1350649
-4.53002	kalabasa	-0.164334
-4.257019	kalabaw	-0.1576572
-4.052899	kalagayan	-0.3276547
-4.83105	kalagayang	-0.1350649
-4.654959	kalagitnaan	-0.1350649
-4.257019	kalahati	-0.2355766
-4.353929	kalahating	-0.1350649
-4.73414	kalahi	-0.1876577
-4.654959	kalakaran	-0.1876577
-4.83105	kalakas	-0.1350649
-4.83105	kalakasan	-0.1350649
-4.73414	kalakhan	-0.2730252
-4.73414	kalaki	-0.2475084
-4.73414	kalalabasan	-0.206706
-4.43311	kalalakihan	-0.1763662
-4.73414	kalamansi	-0.2475084
-4.202662	kalamidad	-0.1739004
-4.83105	kalamnan	-0.1350649
-4.83105	kalan	-0.1350649
-4.286982	kalangitan	-0.1763662
-4.83105	kalansay	-0.1350649
-4.83105	kalapastanganan	-0.1350649
-4.478868	kalapit	-0.1694099
-4.478868	kalaro	-0.1350649
-4.588012	kalat	-0.206706
-4.353929	kalawakan	-0.1941839
-4.83105	kalawang	-0.1350649
-4.83105	kalawanging	-0.1350649
-4.22899	kalayaan	-0.2222113
-4.73414	kalayuan	-0.1876577
-4.83105	kalendaryo	-0.206706
-4.654959	kaligayahan	-0.1766172
-4.654959	kaligiran	-0.1766172
-4.73414	kaligtasan	-0.1876577
-3.350325	kalikasan	-0.32845
-4.73414	kalikasang	-0.1350649
-4.73414	kalimutan	-0.206706
-4.654959	kalinangan	-0.1766172
-4.286982	kaliwa	-0.1876577
-4.177838	kaliwang	-0.2221237
-4.654959	kalooban	-0.1350649
-4.03517	kalsada	-0.2247595
-4.154356	kaluluwa	-0.2638291
-4.73414	kalupaan	-0.1876577
-4.83105	kalupitan	-0.206706
-3.955989	kalusugan	-0.2097411
-4.319167	kalye	-0.1884643
-3.941749	kama	-0.2272272
-4.319167	kamag-anak	-0.1518979
