\data\
ngram 1=2057
ngram 2=6216
ngram 3=7275

\1-grams:
-0.9298217993514147 <eos>
-1.5215148607465638 <unk> -0.25236062186057545
-3.7188232982842813 ଏଷ୍ଟର -0.15746019999999994
-3.5257599891515827 କହିଲା -0.8243399999999999
-1.779944743889894 , -0.6193624
-2.3716498182669508 ଏହି -0.3676771999999999
-3.78635288224768 ଦୁଷ୍ଟ -0.5171468
-4.06362238414031 ହାମନ -0.12531089999999998
-3.054042717688152 ଜଣେ -0.3727346
-4.101813940740222 ବିପକ୍ଷ -0.5856279
-2.771976439313865 ଓ -0.42608139999999994
-3.9230420969436857 ଶତୃ -0.14311799999999997
-3.678263473334428 ଆଉ -0.4148159
-3.370458731767847 ରାଜା -0.3603178
-3.4185900802490123 କୋର୍ଧ -0.28091999999999995
-2.5189300646685675 ରେ -0.5267594999999999
-3.938942325099371 ଦ୍ରାକ୍ଷାରସ -0.3338668
-3.851682988400422 ପାନ -0.4008942
-4.28442804051407 ଉଠି -0.21068439999999994
-3.591744326361621 ରାଜଗୃହର -0.12531089999999998
-4.171102569494068 ଉଦ୍ୟାନକୁ -0.12531089999999998
-3.691570782304037 ଗଲା -0.4267725
-3.9030509152650703 ତହିଁରେ -0.31467559999999994
-3.781017613257586 ଆପଣାର -0.174393
-4.162647592623684 ଅମଙ୍ଗଳ -0.25774929999999996
-3.2172698613995503 ନିଶ୍ଚିତ -0.39321349999999994
-3.919765912980185 ହାଇେଅଛି -0.5112581
-2.1908114484016843 ଏହା -0.3808041999999999
-3.586026261420934 ଜାଣି -0.39257849999999994
-3.480329568851837 ହାମନ୍ -0.1359277
-4.20565019078143 ରାଣୀ -0.18133389999999996
-3.003746059033731 ନିକଟରେ -0.30832059999999994
-3.602424506571302 ଆପଣା -0.3135917999999999
-4.041968044934013 ମାଗିଲା -0.19329329999999997
-3.5254995988479467 ତବେେ -0.3772114
-3.558507617490817 ଉଦ୍ୟାନରୁ -0.12531089999999998
-4.032176123860429 ଦ୍ରାକ୍ଷାରସର -0.1694303
-3.73641380496656 ଲେଉଟି -0.2206801
-3.8460218110470437 ଆସିଲା -0.4767429999999999
-3.810906840668612 ସେତବେେଳେ -0.2817445
-3.115238800225061 ଯେଉଁ -0.35161509999999996
-3.765716985374782 ଆସନ -0.23062149999999998
-3.673650195008382 ବସିଥିଲା -0.12531089999999998
-3.8546960392515723 ତହିଁ -0.4137439
-2.9509041359875625 ଉପରେ -0.3387049999999999
-3.991222434106992 ବସି -0.160855
-3.7674996613182334 ପଡିଲା -0.3082745
-2.7814401368616237 ତେଣୁ -0.38596
-3.381654732657378 ଏ -0.38328909999999994
-3.205298250692739 କ'ଣ -0.3181864999999999
-3.701336370480679 ଗୃହ -0.4380535
-3.323600154930046 ମଧିଅରେ -0.29553609999999997
-3.2601214942343564 ମାେ -0.5240161
-3.3939183066305767 ସାକ୍ଷାତ -0.5058492
-3.9409237360495584 ରାଣୀକୁ -0.18290539999999997
-4.1271436629157865 ବଳାତ୍କାର -0.12531089999999998
-2.626447626653615 କରିବ -0.8095449999999998
-2.2440326638676207 ? -0.7111859
-3.3977118665295944 ରାଜାର -0.17262739999999996
-3.611218652017901 ଉପସ୍ଥିତ -0.3878193999999999
-3.9646976756254624 ନାମକ -0.33795559999999997
-3.32082463779719 ଏକ -0.33956959999999997
-3.803480016353405 ନଫୁସକ -0.16106809999999996
-3.722502079793748 ରାଜାକୁ -0.1353624
-3.2193878053669818 ଦେଖନ୍ତୁ -0.7011601999999999
-4.0999339780213315 ମହାରାଜାଙ୍କ -0.16943039999999995
-3.690138159560664 ପକ୍ଷ -0.3748474
-4.057199343178648 ହିତଜନକ -0.12531089999999998
-3.144324716289844 ନିମନ୍ତେ -0.3079744
-4.052965670369059 ପଗ୍ଭଶ -0.2932972999999999
-3.7128797223803987 ହାତ -0.45427769999999995
-4.063166641553085 ଉଚ୍ଚ -0.3432259999999999
-3.9169386021783574 ଫାଶିକାଠ -0.24819640000000004
-3.2322668789907745 ପ୍ରସ୍ତୁତ -0.4363043999999999
-3.334642137628438 କରିଅଛି -0.6173341999999999
-3.1811040583815293 ତାହା -0.3591787
-3.618480235012994 ସ୍ଥାପିତ -0.34085109999999996
-3.8128863374621154 ଏଥି -0.7003292
-4.049175955317407 ମର୍ଦ୍ଦଖଯ -0.16575219999999993
-3.7843396354142893 କରିଥିଲା -0.5361223
-2.956643284835604 ସମାନେେ -0.4414702999999999
-3.850285572472968 ଫାଶି -0.14461209999999997
-3.3821351291095882 ଦେଲେ -0.6187993999999999
-4.0269421705118535 ରାଜାଙ୍କର -0.17998499999999998
-4.101863227030577 କୋରଧ -0.2901603
-4.056322533148213 ଶାନ୍ତ -0.20774829999999994
-2.6584920400867897 ହେଲା -0.5457054
-3.6188890256127118 ସୁନ୍ଦର -0.19691680000000003
-3.360919201380186 ମାରେ -0.3637069
-3.888880112176039 ମନକୁ -0.15746019999999994
-3.656294038079797 ଭରିଦିଏ -0.12531089999999998
-4.167077201902323 ୟବେେ -0.15315409999999996
-4.010279088359873 ଏହିସବୁ -0.24360309999999996
-3.813124913655488 ପଦଗୁଡ଼ିକ -0.12531089999999998
-3.7623204459721995 ରାଜାଙ୍କ -0.3421334999999999
-1.6468094210439197 ପାଇଁ -0.4237455
-3.70712795676012 କ -0.8513937999999999
-3.2308309475504475 ହେ -0.31266049999999995
-3.8672816752789982 ଶବ୍ଦଗୁଡ଼ିକ -0.12531089999999998
-4.243869504440411 ପ୍ରବାହିତ -0.2469015
-4.02442772417507 ହାଇେଥାଏ -0.6520438
-4.103489267456202 ନିପୂଣ -0.12531089999999998
-4.022714264314644 ଲେଖକର -0.12531089999999998
-4.078986219739667 କଲମରୁ -0.12531089999999998
-2.632807931788648 ପରି -0.2908242999999999
-2.7533948425158834 ତୁମ୍ଭେ -0.45349899999999993
-3.362260291708002 ଅନ୍ୟମାନଙ୍କଠାରୁ -0.16357009999999997
-3.137990267068349 ଅଧିକ -0.2686852
-4.0298257945132026 ଅଟ -0.4588942999999999
-1.9532473322053148 ଏବଂ -0.4241135999999999
-3.5107364411232265 ଏପରି -0.3481913
-4.224819100237111 ସୁଖଦାୟକ -0.12531089999999998
-3.4249379016176498 କଥା -0.4336218
-4.068538657333311 କୁହ -0.55626
-3.73746912686856 ସେଥିପାଇଁ -0.2812372
-2.904417974896501 ପରମେଶ୍ବର -0.49489009999999994
-2.725712706544147 ତୁମ୍ଭକୁ -0.3065940999999999
-3.723073918747256 ସର୍ବଦା -0.19385449999999999
-3.737392079470485 ଆଶୀର୍ବାଦ -0.43743959999999993
-2.8186076219546186 କରିବେ -0.8288571999999998
-3.374193734245475 ବୀର -0.1771676
-2.597313758195861 ତୁମ୍ଭର -0.35812399999999994
-3.6371922690533895 ଖଡ୍ଗ -0.41449649999999993
-2.9073930226684883 ଧାରଣ -0.6493395999999999
-2.9007531468695915 କର -0.7567663
-4.245324080822309 ଶରୀରରେ -0.134395
-3.6560612679931284 ମହିମା -0.28325549999999994
-3.568874018251009 ମଣ୍ଡିତ -0.12531089999999998
-3.9031200323079993 ପୋଷାକ -0.2414288
-3.940813552984681 ଶାେଭା -0.12531089999999998
-4.0807001075168925 ପାଉ -0.27511769999999997
-3.406755580548772 ଆଶ୍ଚର୍ୟ୍ଯ -0.49780019999999997
-3.338197708102965 ୟାଅ -0.4919048
-4.013430127426216 ନ୍ଯାଯ -0.32017369999999995
-4.211537715672528 ୟୁଦ୍ଧରେ -0.24264209999999994
-4.059049882225565 ବିଜଯୀ -0.19537249999999998
-4.153606564018658 ହୁଅ -0.5858001
-3.5698607944845473 ଶକ୍ତିଶାଳୀ -0.2800673
-3.7354008485093004 ଦକ୍ଷିଣ -0.39861969999999997
-3.9939311413568084 ବାହୁ -0.19626659999999999
-3.6946245416769283 ଅଦ୍ଭୁତ -0.22272179999999997
-3.3280241957356638 କାର୍ୟ୍ଯ -0.4882157999999999
-2.9523700869480587 କରିବାକୁ -0.4690961
-3.8456294166766467 ପ୍ରଶିକ୍ଷିତ -0.12531089999999998
-3.4372092869520703 ମୁନିଆ -0.12531089999999998
-3.8405901141955385 ତୀର -0.1999252
-4.225846667221959 ଶତ୍ରୁର -0.15797319999999995
-3.8334716874412753 ଭଦେ -0.12531089999999998
-3.7092711841914765 ସମର୍ଥ -0.28099509999999994
-3.3485278804193683 ଲୋକମାନେ -0.38298439999999995
-3.128801578826757 ତୁମ୍ଭ -0.42970889999999995
-3.9323006160637397 ସମ୍ମୁଖରେ -0.18277309999999997
-4.056917320735041 ଧୂଳିରେ -0.16943039999999995
-4.099480870169656 ଲୋଟି -0.12531089999999998
-3.9660177977101023 ଯିବେ -0.44579179999999996
-3.476704172557224 ସିଂହାସନ -0.3771965
-4.121476071362118 ଅନନ୍ତକାଳସ୍ଥାଯୀ -0.24747169999999996
-3.6352458623699713 ବିରାଜମାନ -0.14461209999999997
-4.122009141079526 ଉତ୍ତମତା -0.12531089999999998
-3.7411017636471375 ଶାସନ -0.4202430999999999
-3.027349984938477 କରିବାର -0.3250799
-3.996512289123089 କ୍ଷମତା -0.23776450000000002
-3.5142220824466337 ଦିଏ -0.5495151999999999
-3.3781650575608375 ଧାର୍ମିକକୁ -0.12531089999999998
-3.200041826907832 ଭଲ -0.4682809999999999
-3.887242022756855 ପାଅ -0.1654788
-3.9225202572790043 ଦୁଷ୍ଟକୁ -0.12531089999999998
-4.10221029233514 ଘୃଣା -0.7024710999999999
-3.8465041458494555 ବନ୍ଧୁମାନଙ୍କ -0.22436569999999995
-3.225055984117021 ମଧ୍ଯରୁ -0.3056072
-3.8462829845817543 ରାଜ -0.18226219999999996
-3.971406620410376 ହବୋକୁ -0.30685959999999995
-3.4961923322122805 ମନୋନୀତ -0.4622337999999999
-3.311333960155144 କଲେ -0.7533145999999998
-3.211137497578862 ଉତ୍ତମ -0.31754369999999993
-3.9568276555319604 ଅଗୁରୁ -0.12531089999999998
-3.9490187934647953 ବାସନା -0.12531089999999998
-3.9512727425497527 ଭାସି -0.16223429999999997
-4.200905805300361 ଆସୁଛି -0.3325744
-3.9590588256656627 ପ୍ରାସାଦ -0.3521528
-3.7974707218055217 ହାତୀ -0.1773044
-4.162123699554846 ସୁଶୋଭିତ -0.12531089999999998
-2.677350723271932 ସେ -0.46718729999999997
-3.5892115017205795 ଭିତରୁ -0.2510864
-3.631754168051142 ସଙ୍ଗୀତ -0.24527819999999995
-3.744496026399646 ମନୋରଞ୍ଜନ -0.12531089999999998
-3.9025665377760497 ସକାଶେ -0.15124129999999997
-3.1612218729470625 ହେଉଛି -0.34828239999999994
-3.3905226008844074 ବିବାହରେ -0.12531089999999998
-3.4027132159135403 ୟୋଗ -0.31858059999999994
-3.8079274377216006 ଦଇେଥିବା -0.16977449999999994
-4.072837779556069 ସ୍ତ୍ରୀ -0.3632602
-3.629898914689692 ରାଜକୁମାରୀ -0.12531089999999998
-3.4529156269116923 ଅଟନ୍ତି -0.671299
-4.0440443020824 ରାଜକୁମାରୀମାନେ -0.12531089999999998
-4.09713914435905 ପାଶର୍ବରେ -0.12531089999999998
-4.2189775350625 ଶୁଦ୍ଧ -0.39486459999999995
-4.217054509061389 ସୁବର୍ଣ୍ଣ -0.3364764
-3.8230353051751176 ମୁକୁଟ -0.18601289999999995
-3.9505852081673045 ପିନ୍ଧି -0.13563729999999996
-4.218979628430837 ଛିଡ଼ା -0.2803420999999999
-3.8897026239431343 ହାଇେଛନ୍ତି -0.4230784
-3.769299521765554 ଶୁଣ -0.43395389999999995
-3.2406127268239464 ୟଦି -0.26018119999999995
-4.052503439136333 ମନଦଇେ -0.2983258999999999
-3.2743134947416066 ସବୁ -0.2582477
-4.019245969454171 ବୁଝିପାରିବ -0.12531089999999998
-3.8906552539212127 ପରିବାରକୁ -0.14992649999999996
-4.015235930618155 ଭୁଲିୟାଅ -0.19329329999999997
-3.6775487419968567 ହବେେ -0.7654702999999999
-2.9643338398911125 ନୂତନ -0.2680444
-4.3754215564594015 ପତି -0.1827581
-4.293737461965174 ତଣେୁ -0.344164
-3.494875867495097 ସମାନଙ୍କେୁ -0.3536403
-4.276646092401037 ପ୍ରଣାମ -0.4955185999999999
-1.784554804906824 କରିବା -0.8330486999999999
-3.5571188604784547 ଉଚିତ୍ -0.4481096
-3.4092478820851335 ଦେଶର -0.2490703
-3.424557258066917 ଧନଶାଳୀ -0.12531089999999998
-3.9102072370741445 ବ୍ଯକ୍ତିମାନେ -0.13187
-3.641940036652445 ଉପହାର -0.3110499
-3.9728082007986663 ଦବୋକୁ -0.25295909999999994
-4.078544301618421 ପକ୍ଷପାତ -0.16481119999999996
-3.389280527694995 ତା'ର -0.28230180000000005
-3.2148480780413053 ସମସ୍ତ -0.34840459999999995
-3.7392786577922164 ମୁକ୍ତା -0.12531089999999998
-4.124523599278097 ଖଚିତ -0.18011489999999997
-3.606652248190569 ତାଙ୍କର -0.31789559999999994
-4.016378624094312 ବସ୍ତ୍ରରେ -0.12531089999999998
-3.172389371470143 ହାଇେ -0.3273865
-3.594447835064385 ନିକଟକୁ -0.40774399999999994
-3.9289880304811162 ଆଗଇେ -0.3119621
-3.6973918494754234 ୟାଏ -0.3431417
-3.2074642037958414 ତା -0.45356539999999995
-3.610680167208189 ପଛରେ -0.1745682
-3.577186746750362 ଅନୁସରଣ -0.6106302
-3.196242130873816 କରନ୍ତି -0.8146878
-3.5305032963772214 ଆନନ୍ଦ -0.3806688
-3.5065514005816536 ଉଲ୍ଲାସରେ -0.12531089999999998
-3.490008816655296 ଆସିବେ -0.5981468
-4.132503938213171 ଉଲ୍ଲାସ -0.16812709999999997
-3.765455815046967 ମଧ୍ୟରେ -0.21096949999999995
-2.7555294735032976 ପ୍ରବେଶ -0.6017935
-3.631279867753422 ସମାନଙ୍କେର -0.2891411
-3.391011321025146 ପୂର୍ବପୁରୁଷଗଣଙ୍କ -0.2780788
-3.8007269778549406 ପୁତ୍ରଗଣ -0.23381369999999999
-3.8428871293632736 ସାରା -0.32585269999999994
-3.868406564660882 ଦେଶରେ -0.14982659999999998
-3.3828893625827567 ପୁରୁଷାନୁକ୍ରମେ -0.16316169999999994
-3.4319026615215997 ବିଖ୍ଯାତ -0.1991491
-3.4508218286210086 ହବେ -0.836111
-3.7303412729000724 ପ୍ରଶଂସା -0.48481609999999997
-3.4302124371794007 ଫାଇଲଗୁଡ଼ିକୁ -0.2355326
-3.509183053319811 ଭଣ୍ଡାରରେ -0.12531089999999998
-3.648866645784131 ଯୋଗାନ୍ତୁ -0.23174219999999998
-3.1618837538540703 ସଂସ୍କରଣ -0.29699719999999996
-3.4322729379122814 ବାହାର -0.49732909999999997
-1.7906583029612868 କରନ୍ତୁ -0.7763237
-3.4493129222730134 ଫାଇଲର -0.22295489999999993
-2.998519171750897 ପରିବର୍ତ୍ତନ -0.4975186
-3.7707332329646706 ପ୍ରତିଶୃତି -0.18843729999999995
-3.393468836682355 ବଛାଯାଇଥିବା -0.16943039999999995
-3.4712418744395865 ଅଦ୍ଯତନ -0.1595588
-3.1253675218071364 ଫାଇଲଟି -0.2348345
-1.6346827068487668 ନାହିଁ -0.8228095999999999
-1.8367064290623631 . -0.5210343
-3.010081802139656 ସେବକ -0.23000639999999994
-2.2877034919977985 ସହିତ -0.36930159999999995
-3.9150485085680713 ମିଶୁ -0.203259
-3.3812564690173676 ନିୟନ୍ତ୍ରଣ -0.3087095999999999
-3.7934847865710677 ସୂଚନା -0.3766395
-3.169553538897687 ନିର୍ଦ୍ଦେଶ -0.3066362999999999
-3.473284946374377 ଧାରାକୁ -0.22534250000000003
-3.0301372879852395 ବ୍ୟବହାର -0.7134141999999999
-2.9046662998578077 ଟର୍ମିନାଲ -0.1786416
-2.1880023892636675 କିମ୍ବା -0.21956739999999997
-4.0414511571472875 ହଟାଅ -0.3451064
-3.569641474109746 ମେନୁରେ -0.16943039999999995
-3.6300414290924876 ପ୍ରଦର୍ଶିତ -0.29340189999999994
-3.3557490674806822 ସନ୍ଧାନ -0.31891539999999996
-2.8582398572938974 କେବଳ -0.23277009999999995
-3.382507811353909 ଶବ୍ଦକୁ -0.12531089999999998
-3.603277869854512 ମେଳାନ୍ତୁ -0.6405820999999999
-3.6237839921630512 ନିୟମିତ -0.2818205999999999
-3.386079117791622 ଅଭିବ୍ୟକ୍ତି -0.14957449999999997
-2.6206437233803164 ଭାବରେ -0.2644031
-3.3935156474968076 ଚାରିପଟେ -0.15872300000000003
-3.5370396670408213 ଗୁଡ଼ାନ୍ତୁ -0.19329329999999997
-3.2514311408998124 ତାଲିକା -0.3580188
-3.570360103821685 ୟାହାକି -0.14204540000000002
-3.9013583601062636 ଜ୍ଞାତ -0.161068
-2.56588215862297 ଅଟେ -0.7530223999999999
-3.1512784647051957 ତାଲିକାରେ -0.22270469999999998
-3.8385768271583407 apps -0.17527430000000002
-4.164474516798264 ସମ୍ବନ୍ଧୀତ -0.18242169999999994
-3.8977488679343204 ରହିଥାଏ -0.43684559999999995
-3.449367194157448 ନୂଆ -0.20135949999999994
-3.237779381431827 ଉପୟୋଗ -0.32630599999999993
-2.631269549937405 ହେବା -0.6204521999999999
-3.5229359019034567 ପ୍ରୋଫାଇଲ -0.15315409999999996
-2.1010034204728467 ଗୋଟିଏ -0.2984399999999999
-3.3681622934362987 ଉଇଣ୍ଡୋ -0.15299689999999996
-3.367193526826169 ଟାବ -0.14957449999999997
-3.485564530913456 ଖୋଲିବା -0.5234372
-3.6090993051394853 ବେଳେ -0.26304109999999997
-3.968736974637789 ହେବାକୁ -0.35959559999999996
-2.7540374388996867 ଥିବା -0.25791929999999996
-3.2205215480871647 ଆବଶ୍ଯକ -0.3140723999999999
-3.6386969651766816 କିଗୁଡିକ -0.1468106
-2.3853656472688938 ଅଛି -0.7229991
-2.535178146134702 କି -0.378577
-3.361656851341893 ବାର -0.31008369999999996
-2.6203126012532 ଗୁଡିକ -0.2116724
-3.3292684490683833 ରହିବ -0.6357275999999998
-3.895336246003745 ସେମାନେ -0.21994939999999996
-3.5175982553894154 ହୁଏତ -0.18513939999999995
-3.5953991796775275 ଭିତରେ -0.1821162
-3.438439118653773 କେତେକ -0.16515329999999998
-3.4703126504440234 ପ୍ରଯୋଗ -0.3209331999999999
-4.186819724471696 ହସ୍ତକ୍ଷେପ -0.1755636
-3.436825209877123 କରିପାରନ୍ତି -0.5623082999999999
-4.101318154078688 ସେଗୁଡିକୁ -0.12531089999999998
-2.805796887281929 ବନ୍ଦ -0.5580051999999999
-3.4950536087312503 ସମ୍ଭବ -0.3225122999999999
-4.112019440138506 ଷ୍ଟାଣ୍ଡାର୍ଡ -0.12531089999999998
-3.313131860042179 Gtk -0.15184900000000004
-3.178711594769482 ସର୍ଟକଟ -0.15797319999999995
-3.476889471975356 ମେନୁବାର -0.12531089999999998
-3.5707579124348565 ସକ୍ଷମ -0.3283505
-3.715732479397272 ହୋଇଛି -0.7343491999999999
-1.9398943618936277 ଆପଣ -0.3345757999999999
-3.510865524158517 ମେନୁବାରକୁ -0.12531089999999998
-2.806103310909125 ଦ୍ବାରା -0.29896529999999993
-2.6135519354122247 କରିପାରିବେ -0.7952875
-2.94518451639635 ବ୍ଯବସ୍ଥାପିତ -0.16699309999999995
-3.2222819695928915 ମଧ୍ଯ -0.341689
-3.7696315074045192 ହୋଇପାରିବ -0.6892674999999999
-3.4615455730803726 ବିକଳ୍ପ -0.21469419999999995
-3.994598208704054 ଅକ୍ଷମ -0.18072879999999997
-3.4558651645080336 ସ୍ବୀକୃତି -0.29568399999999995
-3.1434795694277367 ଉପଲବ୍ଧ -0.414313
-3.4299314183680676 ଉପ -0.9974739999999999
-3.6702405880205715 ସମ୍ଭାବିତ -0.3095888
-3.484685416861655 ଥାଏ -0.5804241999999998
-3.0188296386229903 ସେଠାରେ -0.2003637
-3.960004802444469 ପ୍ରତୀତ -0.2317421
-3.6572233874519666 ଏନକୋଡିଙ୍ଗ -0.12531089999999998
-3.866568477776249 ଗୁଡିକର -0.1450302
-3.2668535338395635 ବିଶେଷ -0.25805370000000005
-3.090000634928515 ନାମ -0.41318999999999995
-3.895675473485178 ଚଳିତ -0.27667749999999997
-3.8976655686752353 ଅର୍ଥାତ୍ -0.1625181
-3.6704421043963067 ଗୁଡିକୁ -0.1413351
-2.7108018132914586 ପ୍ରଦର୍ଶନ -0.4368685
-3.8296158934302316 ସୁନିଶ୍ଚିତ -0.1776046
-3.742688058519432 କରଣ -0.1413351
-3.9757955025167435 ପଚାରାୟିବ -0.12531089999999998
-3.9929213954962615 ୟାହାର -0.12531089999999998
-4.039451938891014 ଏକରୁ -0.24264209999999994
-3.5507247841218157 ଖୋଲା -0.171005
-3.369228153768545 ତାହାକୁ -0.1899959
-3.383801477050742 ସତ୍ଯ -0.31763759999999996
-2.9994229689309657 ତେବେ -0.18548119999999998
-4.029715470915509 ଉଇଣ୍ଡୋରେ -0.14957449999999997
-2.3367247683935117 ଉଚିତ -0.43921189999999993
-3.158868840207241 ଟର୍ମିନାଲରେ -0.21908740000000002
-3.36242478501442 ଟେକ୍ସଟର -0.12531089999999998
-3.2268643781306325 ଡିଫଲ୍ଟ -0.2174773
-3.6819015593851225 ରଙ୍ଗ -0.3337880999999999
-3.864955078612459 ନିର୍ଦ୍ଦେଶକରଣ -0.12531089999999998
-3.640581979093055 ସ୍ବରୂପ -0.2738805
-3.3839458790455943 ପୃଷ୍ଠଭୂମିର -0.14957449999999997
-3.407938753405626 ଗାଢ଼ -0.16223429999999997
-3.454626269325691 ପାଠ୍ୟର -0.14461209999999997
-2.8038229429139783 ପୂର୍ବନିର୍ଦ୍ଧାରିତ -0.2469108999999999
-2.7476280689508856 ଯଦି -0.4158859999999999
-3.207461701398887 ଟି -0.1954137
-3.455288786385257 true -0.35805419999999993
-3.3160836065976174 ହୋଇଥାଏ -0.7379261999999999
-2.6381929463874467 ଏହାକୁ -0.20901669999999997
-3.9821996343521566 ଅଗ୍ରାହ୍ୟ -0.4226752999999999
-3.9269033806228806 କରାଯାଇଥାଏ -0.5736182
-3.66294568027666 ପାଠ୍ୟ -0.23304849999999996
-2.886616197413345 ସେହି -0.2087815
-2.984021122649106 ସମାନ -0.2514509999999999
-3.551099585015778 ରଙ୍ଗକୁ -0.15755629999999998
-3.6851099953885007 ସାଧାରଣ -0.26867679999999994
-4.007282943034626 ପାଠ୍ୟରେ -0.15483329999999998
-3.241315314076621 ନୁହଁ -0.5883568
-3.8001230978868166 ପାଠ୍ୟକୁ -0.1690153
-2.532009510192476 କରି -0.38120409999999993
-3.6899731521235486 ଚିତ୍ରଣ -0.22379759999999996
-3.8046757363196386 ଗତିଶୀଳ -0.18802929999999998
-3.406648238068028 ଶୀର୍ଷକ -0.2929435
-3.5440390851204797 କଣ -0.24906679999999992
-3.2375882218468695 କରାୟିବ -0.5051322
-3.375489533207389 ଶୀର୍ଷକକୁ -0.165153
-3.2273694408051665 ସ୍ଥିର -0.3723685
-3.114844816875891 କରେ -0.8270153999999998
-3.8124680202583487 କନଫିଗର -0.17527430000000002
-3.274281130158311 ହୋଇଥିବା -0.2366247
-4.070616164627502 ଦେଇପାରିବ -0.29361039999999994
-2.7492778264467668 ପରେ -0.2936147
-3.860922790049026 ପୁନଃସ୍ଥାପିତ -0.16106809999999996
-3.6594934864441675 ପୁନଃସ୍ଥାପନ -0.5429353999999998
-2.897811398069896 ପୂର୍ବରୁ -0.2771493
-3.859168820869004 ଅବହେଳା -0.1730441
-3.969174641201311 ମୋଡ -0.14957449999999997
-3.819818250513404 ସେଟିଙ୍ଗ -0.1468106
-3.8853815507283467 ନିର୍ଭର -0.26630059999999994
-3.0831553665848253 ସେଟ -0.5881641
-3.7213179312790605 ସଂୟୁକ୍ତ -0.15066079999999998
-3.55392142205947 କରିପାରେ -0.46016599999999996
-3.651602068185415 ଗାଢ -0.12531089999999998
-3.5140783632389896 ଟେକ୍ସଟ -0.14461209999999997
-3.6298007235596272 ଦିଆୟିବ -0.3986797999999999
-3.6505667445699816 ଟେକ୍ସଟକୁ -0.12531089999999998
-3.1255566436211732 ଦିଅନ୍ତୁ -0.5666235999999999
-3.5104458844601103 ନୀରବ -0.2976560999999999
-4.037726488346669 ବେଲ -0.18290539999999997
-3.609700004850678 ୟେବେ -0.17032309999999995
-3.661677566972058 ଏସ୍କେପ -0.12531089999999998
-3.654951169756753 କ୍ରମ -0.31017739999999994
-4.017390893632582 ପଠାନ୍ତି -0.18599569999999999
-2.577826782338408 କୌଣସି -0.3358202
-3.216562163119815 ଶବ୍ଦ -0.22144719999999998
-3.675265558239742 ହୁଏ -0.7075275999999999
-3.3877778091213853 ଯାହାକି -0.1875366
-3.6392643866209777 ବିଚାରକୁ -0.1595588
-3.8508674713966977 ନିଆୟାଏ -0.12531089999999998
-3.707699243820806 ଶବ୍ଦର -0.39250809999999997
-4.128409391784303 ଅଂଶ -0.26239979999999996
-4.049661352447645 ଏକମାତ୍ର -0.1785611
-4.0266148702688564 ବିଚାର -0.4521165
-4.00498666845513 କରାୟାଏ -0.3446667
-4.165117739316721 ପରିସର -0.20135859999999997
-4.0976705126946245 ୟେମିତି -0.24819640000000004
-3.6806960247956297 ଦତ୍ତ -0.15979359999999998
-3.1968828551818596 ପ୍ରଥମ -0.30990719999999994
-3.3416004707111324 ଅକ୍ଷର -0.26139239999999997
-3.5654876949114853 ଇଚ୍ଛାମୁତାବକ -0.2197610999999999
-3.4944172496013888 ଆକାରକୁ -0.20859339999999998
-4.100457511279304 କେଉଁଠି -0.15746769999999996
-3.5017653095622046 କରାଯିବ -0.8366991
-3.6400453381359084 ନିର୍ମିତ -0.21358799999999997
-3.823788530266887 ୱିଣ୍ଡୋଗୁଡ଼ିକରେ -0.12531089999999998
-3.6766654443241062 ଦ୍ୱାରା -0.2340625
-3.470374666715092 ଉଲ୍ଲେଖ -0.5399316999999999
-4.312277190303232 କରାଯାଇଥିବା -0.18696460000000004
-3.187120764532447 ଆକାର -0.37525869999999995
-3.5434268996361262 ସ୍ତମ୍ଭ -0.29653359999999995
-3.582205993607757 ସଂଖ୍ୟା -0.2880306999999999
-3.543522492478052 ଧାଡ଼ି -0.20613629999999994
-2.358534507705733 କୁ -0.27396149999999997
-3.1478964166842984 ସକ୍ରିୟ -0.5281852999999999
-3.588930672283518 ଏଥିରେ -0.16457819999999998
-3.5640860541133716 ପ୍ରଭାବ -0.1765876
-3.937872922325917 not -0.1468106
-4.016205100275865 enabled -0.24819640000000004
-3.609933326682731 ସ୍କ୍ରୋଲବାର -0.12531089999999998
-3.9311897914290284 କେଉଁଠାରେ -0.12531089999999998
-3.8801484578246024 ରଖାୟିବ -0.14957449999999997
-3.881703283647749 ସମ୍ଭାବନା -0.27454349999999994
-3.5609953309049285 ବାମ -0.2583443
-3.5936173581819384 ଡାହାଣ -0.25735640000000004
-3.8606076534721714 ଲୁକ୍କାଇତ -0.15537169999999995
-3.815268416816813 ପଛକୁ -0.15549449999999995
-3.5487849763492525 ସ୍କ୍ରୋଲରେ -0.12531089999999998
-3.4766796443588484 ରଖିବା -0.5296790999999998
-3.600732385641417 ରେଖାଗୁଡିକର -0.23174219999999998
-3.5334753707270043 ସଂଖ୍ଯା -0.32564909999999997
-3.821044773475281 ଆଖପାଖରେ -0.12531089999999998
-3.7725854240391823 ରେଖାଗୁଡିକ -0.12531089999999998
-3.483380086464776 ସ୍କ୍ରୋଲ -0.24926890000000002
-2.878100664712413 ; -0.3808098
-4.183762298763845 ଯୋଗ୍ଯ -0.2571117
-3.8436111255878367 ହେଉନଥିବା -0.16481119999999996
-4.2152707019077695 ରେଖାଗୁଡିକୁ -0.12531089999999998
-2.7744725529604035 ପରିତ୍ଯାଗ -0.6307597999999999
-3.7543418776697 କରାଯାଏ -0.5990828999999999
-3.8502458231821324 ମୂଲ୍ୟକୁ -0.16481119999999996
-3.4988611049985012 ଗ୍ରହଣ -0.7035085999999999
-3.3866999771571558 ସଂଖ୍ୟକ -0.12531089999999998
-3.5757556973581086 ଧାଡ଼ିଗୁଡ଼ିକୁ -0.15315409999999996
-4.180435618439823 କଦାପି -0.15374099999999996
-3.89089215770218 ପରିତ୍ୟାଗ -0.20158209999999993
-3.6246124824792423 ପୁରୁଣା -0.2195355
-3.832389881228128 ତଥ୍ୟକୁ -0.17440699999999995
-3.439774925515219 ଡିସ୍କରେ -0.26182859999999997
-3.6216140372249037 ଅସ୍ଥାୟୀ -0.2707256
-3.570630021158613 ସଂରକ୍ଷଣ -0.557387
-3.4316414001571127 ହୁଏତଃ -0.1571851
-3.311610763931961 ତନ୍ତ୍ରରେ -0.18360439999999997
-3.678531553243909 ଅଭାବ -0.2471352
-3.7579844688582402 ଅନେକ -0.26186839999999995
-3.6187231419590336 ଫଳାଫଳ -0.17758969999999996
-3.5093048880834186 ତଳକୁ -0.24040710000000004
-3.8465579737247992 କିକୁ -0.161473
-3.8601976302214687 ଦବାଇବା -0.296343
-3.676198214099415 ଆଉଟପୁଟ -0.14461209999999997
-3.534548713081035 ବି -0.17883109999999997
-3.484365693663614 ହେବ -0.6095526999999998
-4.160689686719457 ଶିଶୁ -0.2723304999999999
-3.3579843756768954 ଆଦେଶ -0.3197537999999999
-3.4818896348004795 ପ୍ରସ୍ଥାନ -0.49014359999999996
-3.3845806394982993 ମୂଲ୍ଯଗୁଡିକ -0.19329329999999997
-3.4935143714397063 ବନ୍ଦକର -0.2206801
-3.544045029313702 ଆଦେଶକୁ -0.1456521
-2.8194323011915583 ପୁନଃ -0.31086119999999995
-3.58537725508233 ଆରମ୍ଭ -0.6255915999999999
-3.5098293705095838 ସେଲ -0.15979359999999998
-2.5501331901432094 ପ୍ରାରମ୍ଭ -0.42672129999999997
-2.2609539799753775 ଲଗଇନ -0.3703102999999999
-3.47537167392716 ହେବେ -0.4005379
-3.646623268995166 ଅପଡେଟ -0.1703829
-3.692472590195021 ସିଷ୍ଟମ -0.13900939999999998
-3.1626945819220134 ପରିବର୍ତ୍ତେ -0.2266645999999999
-4.203572287851743 ସେଲକୁ -0.12531089999999998
-3.3716148795266196 ଚଳାଇବା -0.37951869999999993
-3.6577984963310164 ସ୍ଥାନରେ -0.15913879999999994
-3.519060991386429 ମୂଲ୍ଯ -0.255148
-3.3704649004631944 ମୂଲ୍ୟଗୁଡ଼ିକ -0.2870617999999999
-3.6851471734330827 system -0.18242169999999994
-3.765942029432011 ଜାଗତିକ -0.1545151
-3.611539536603105 ସୂଚକ -0.23574409999999996
-3.8166309099629356 ଦପଦପ -0.22998579999999993
-3.341707860097181 ସଂରଚନା -0.25500639999999997
-3.4929909430217685 ଅଥବା -0.17221389999999995
-3.949494261772421 on -0.306367
-3.9119219211062544 off -0.12531089999999998
-4.096505442083545 ବ୍ଲକ -0.17654599999999998
-3.9413014709710668 ଭୂଲମ୍ବ -0.1679862
-3.8085340813461332 ରେଖାଙ୍କିତ -0.12531089999999998
-3.5717686562737456 ଚଳାଅ -0.19329329999999997
-3.7845524350289454 ଆଇକନ -0.2704559999999999
-3.5425386690600136 ରହିଥିବା -0.21871680000000002
-3.5876106268592696 ବର୍ଣ୍ଣଫଳକ -0.1468106
-3.6139346318504395 ରଙ୍ଗର -0.16650639999999997
-3.635929693703956 ୟାହା -0.19993529999999998
-3.869529827670103 କୋଲନ -0.12531089999999998
-3.570453353781548 ବିରାମ -0.2587244
-3.9635905635480495 ଚିହ୍ନ -0.2721002
-4.1575482860758575 ବିଭାଜିତ -0.12531089999999998
-3.929853215898491 ଗଠନରେ -0.12531089999999998
-3.357687038749766 ଫର୍ମାଟରେ -0.12531089999999998
-3.4407843695937497 ରହିବା -0.5439736
-3.9285467622710684 ଉଦାହରଣ -0.3188135
-3.5085487596121263 ଫଣ୍ଟ -0.30507219999999996
-4.285502002993839 Sans -0.12531089999999998
-4.174139325381702 Monospace -0.12531089999999998
-3.4121596556224043 ପୃଷ୍ଠଭୂମି -0.29260049999999993
-3.297549146110972 ପ୍ରକାର -0.27615509999999993
-3.5783727613370275 କଠିନ -0.3257568
-4.12674687527923 ପ୍ରତିଛବି -0.2632476
-3.6328512450175823 ପ୍ରକୃତ -0.3509188999999999
-3.9488150200354246 ସ୍ପଷ୍ଟତା -0.17527430000000002
-4.088522628678483 ଯୁଗ୍ମ -0.16320569999999995
-3.0990361452020423 ୱିଣ୍ଡୋ -0.27569169999999993
-3.4560405657214655 ପରିଚାଳକ -0.2398899999999999
-4.281223981005251 ଚାଲୁଥାଏ -0.17527430000000002
-3.688584474344483 ଅନ୍ୟଥା -0.14461209999999997
-3.638147765000583 ଚିତ୍ରର -0.1610114
-3.053552185205072 ଫାଇଲ -0.4008477999999999
-3.417765644154782 ଚିତ୍ର -0.32865179999999994
-4.036264453778037 ମଧ୍ୟ -0.2455015
-3.961357917347734 ମିଥ୍ଯା -0.2886983
-3.547852481961086 ଚିତ୍ରକୁ -0.14204540000000002
-3.7615941732449487 ରଖ -0.4191813999999999
-3.5843587148063016 କେତେ -0.27409810000000007
-3.5838826737042964 ମଧ୍ଯରେ -0.22769539999999994
-3.8556085622482352 ସୂଚିତ -0.22287539999999997
-4.0338820936105595 କରାଏ -0.3601021
-3.1998451366312515 ର -0.18837850000000003
-3.202416066449707 ଅର୍ଥ -0.2809513
-3.0124573454549024 କିଛି -0.3281556
-4.048673707254215 ପୂର୍ଣ୍ଣ -0.2504332
-3.20685834798947 ଦୁଇଟି -0.17863239999999994
-3.5959359858862134 ସ୍ତର -0.22496460000000001
-2.210119288817941 ବ୍ଯବହାର -0.6592761999999999
-4.25374055301561 ୟେଉଁଠାରେ -0.12531089999999998
-3.9368668715833386 ପ୍ରଭାବକୁ -0.12531089999999998
-3.520670895600916 ବ୍ଯାକସ୍ପେସ -0.2206801
-3.3649628706717793 କିର -0.1826473
-3.4394487459201564 କୋଡ -0.12531089999999998
-3.674561441241109 ଉତ୍ପାଦନ -0.19356299999999999
-4.2709195302521135 ascii-del -0.12531089999999998
-3.6244453579722777 Ascii -0.15797319999999995
-3.783121187240334 Del -0.12531089999999998
-3.8696099076534574 ଏସ୍କେପ-ଅନୁକ୍ରମ -0.12531089999999998
-3.4885206294634603 ବିଲୋପ -0.5031702999999998
-3.9679479441800503 ମୌଳିକ -0.16766499999999998
-3.932752085788903 ଅନୁକ୍ରମ -0.19184779999999999
-2.640511157361725 ସଠିକ -0.3973786999999999
-4.089277774262655 ରଙ୍ଗଗୁଡିକ -0.17527430000000002
-4.077226417420598 ଉପୟୋଗକର୍ତ୍ତାଙ୍କ -0.17527430000000002
-3.9927822185054533 ୟୋଗାଇ -0.12531089999999998
-4.035560745307463 ଦିଆୟାଇଥିବା -0.12531089999999998
-3.3749269998702394 ହେଉଥିବା -0.19393619999999995
-4.064564226551728 ଥିମ -0.2051622
-3.5795329682783694 ଡେସ୍କଟପ -0.20230669999999998
-3.9885195220152836 ଗ୍ଲୋବାଲ -0.12531089999999998
-4.136911996025077 ମନୋସ୍ପେସ -0.12531089999999998
-3.5495266166579382 କିବୋର୍ଡ -0.2111198
-3.3532652191285552 ସ୍ବମ୍ବଳ -0.12531089999999998
-3.0155859251565564 ଫାଇଲଗୁଡିକ -0.14957449999999997
-3.169193546747045 ସ୍ଟ୍ରିଙ୍ଗ -0.12531089999999998
-3.256569987524502 ପ୍ରକାଶିତ -0.2875952
-3.4331139416501393 ବିକଳ୍ପକୁ -0.15661849999999997
-3.1596950450308343 ଅକ୍ଷମହେଲା"କୁ -0.19329329999999997
-2.841552493460345 ହୋଇ -0.2693191
-3.4400461225618666 ସୃଷ୍ଟି -0.5643223999999999
-3.607363337793431 ଡାଏଲଗକୁ -0.17527430000000002
-3.906487933326275 ଆଣିବା -0.43201629999999996
-3.7309934959574256 ପ୍ରଚଳିତ -0.16900279999999998
-3.437575493045988 ଟ୍ୟାବ -0.1943625
-3.4468010665668327 ବିଷୟବସ୍ତୁକୁ -0.17255000000000004
-3.3299383753145544 ଫାଇଲରେ -0.1960194
-3.487313481995157 ବାକ୍ୟଖଣ୍ଡ -0.18504640000000003
-3.58724285921927 କାର୍ଯ୍ୟ -0.2851387
-3.358761578702338 ଟାବକୁ -0.20003549999999998
-3.4169935963121767 ଉଇଣ୍ଡୋକୁ -0.18290539999999997
-3.4009939829521354 ପ୍ରତିଲିପି -0.1413351
-3.6347148381846948 ଲଗାଇବା -0.255864
-3.3807024273942017 ସ୍କ୍ରିନ -0.15797319999999995
-3.6645689957970142 ଟୋଗଲ -0.12531089999999998
-3.3247688473167725 ଟର୍ମିନାଲକୁ -0.19991159999999994
-3.5513443346978835 ପୁନଃସ୍ଥିର -0.2082669
-3.4503443288007123 ପରିଷ୍କାର -0.23680519999999994
-3.71436104397024 ପୂର୍ବବର୍ତ୍ତୀ -0.12972359999999997
-3.3192915086682566 ବଦଳ -0.5551422999999999
-3.4066449688237403 ବାମକୁ -0.16481119999999996
-3.599808840790804 ଘୁଞ୍ଚାଇବା -0.6011989999999999
-3.859859814998118 ବେଗବର୍ଦ୍ଧକ -0.19329329999999997
-4.177991102492606 କିବନ୍ଧନ -0.12531089999999998
-3.425527041716916 ଡାହାଣକୁ -0.17122009999999996
-3.3371241372966383 ବିଚ୍ଛିନ୍ନ -0.2163838
-3.3078606355890443 ସାହାୟ୍ଯ -0.6260103999999999
-3.399551005342038 ବଡ -0.21549640000000003
-3.4325072877817844 ଛୋଟ -0.2463471
-3.399204131779171 ସାମାନ୍ଯ -0.12531089999999998
-3.358518176780891 ଅଭିଗମ୍ୟ -0.3389437
-3.409015948914026 ସଂକ୍ଷିପ୍ତ -0.2769361
-3.406514120293855 ପଥକୁ -0.13934559999999996
-3.5225410474200283 କଳା -0.2186862
-3.3956678142430783 ବିଶ୍ଳେଷଣ -0.5510702999999999
-2.8353440804343113 କରିବାରେ -0.6121017
-3.5200097005195685 ତ୍ରୁଟି -0.40910889999999994
-2.199643459817603 s -0.4603253
-3.5218970210751235 ରୂପରେଖ -0.21912499999999996
-3.3632089963326512 ସମ୍ପାଦନ -0.6027732
-3.471010613526078 ବାଛ -0.42306419999999995
-2.9468810386728683 d -0.3761213
-2.477549851851867 ସମୟରେ -0.2760831999999999
-3.981288848319031 ବ୍ୟବହୃତ -0.22228719999999996
-3.464201307590982 ଆଧାରିତ -0.1471222
-3.4931871859955126 ଓସାରର -0.16481119999999996
-3.6208415458776604 ଗୁଡିକରେ -0.13017869999999998
-3.598720030724538 ଦେଖାଅ -0.7766539999999998
-3.6315723041666526 ଅବରେଖନ -0.12531089999999998
-3.520075151624962 ନିର୍ଦ୍ଧାରିତ -0.14366249999999994
-3.102330548611025 ଯେତେବେଳେ -0.27721489999999993
-3.4784296948870455 ନିର୍ଦ୍ଦେଶଗୁଡ଼ିକ -0.1468106
-3.6813334444430215 ସେମାନଙ୍କର -0.1446723
-3.3508817394854034 ନିଜର -0.22925259999999997
-3.6267727608746774 ପ୍ରାରମ୍ଭିକ -0.1518205
-3.4229860355118817 ବଦଳାନ୍ତୁ -0.6848569999999999
-3.4972730507494947 ଯୋଡନ୍ତୁ -0.5257285
-3.049474048034415 ରଖନ୍ତୁ -0.7702662
-3.899912912194739 ଧରିରଖ -0.19329329999999997
-3.3797378754666383 ଭୂମି -0.2472346
-2.9547680723569423 ତନ୍ତ୍ର -0.2282663
-3.420668166532599 ପ୍ରସଙ୍ଗରୁ -0.19329329999999997
-3.3306714926051297 ସେମାନଙ୍କ -0.2794086
-3.7532729778900653 ରହିଅଛି -0.44396889999999994
-3.374042758226833 Linux -0.15315409999999996
-3.3539593400095025 ପ୍ରତିଛବିକୁ -0.2190199
-2.8501628338240876 ଚୟନ -0.4536533999999999
-3.4034631118600545 ସ୍ବଚ୍ଛ -0.17255009999999998
-3.391317209986658 ଆଘାତରେ -0.12531089999999998
-3.39471965184906 ଟାଣନ୍ତୁ -0.8212046999999999
-3.585526297717997 କାମ -0.4417915
-3.460063931889581 ପାର୍ଶ୍ବରେ -0.12531089999999998
-3.802484754502804 ବିକଳ୍ପଗୁଡିକ -0.46007519999999996
-3.4406877892472956 ଭୂଲ -0.1790516
-3.3811915831948154 କାରଣ -0.4370756
-3.5990147853570913 ହୋଇପାରେ -0.5480349999999999
-3.7759319655997694 ସେଗୁଡିକ -0.134395
-3.022656360294318 ଆପଣଙ୍କୁ -0.22507639999999998
-3.689548196506954 ଦିଅନ୍ତି -0.6127048
-3.5124944105736726 ଭିନ୍ନ -0.34869969999999995
-3.469905165586332 ଅପେକ୍ଷା -0.39674719999999997
-3.821331803421774 Escape -0.12531089999999998
-3.3744066089651508 ବିକଳ୍ପଗୁଡିକୁ -0.12531089999999998
-3.38748256189627 ଲୁଚାଅ -0.3003743
-3.3433984133185994 ପରଦା -0.2697493999999999
-3.019226627195036 ସ୍ଥାପନ -0.5253395
-3.4396824070307392 ଘୁଞ୍ଚାଅ -0.44691319999999995
-3.343445149512767 ପଥ -0.3021904999999999
-3.9037208263398573 କାର୍ୟ୍ୟ -0.1570209
-3.4979497117210543 ଚାବି -0.2394886
-3.3653334741829024 ବାଛିବା -0.507578
-3.447002760208721 ବଟନକୁ -0.2829283
-3.410727307420769 କ୍ଲିକ -0.3723797
-3.3666639576061597 s”କୁ -0.13485429999999998
-3.4358994209661406 ଅପସାରଣ -0.7124373999999999
-2.6609954882001974 ଆପଣଙ୍କ -0.28516539999999996
-3.478137535667814 ପାଖରେ -0.2043111
-3.43757675179205 ରୂପରେଖା -0.16481119999999996
-3.7121435563629017 ନାମରେ -0.1955352
-3.192584495224375 ଅନ୍ୟ -0.39971769999999995
-3.470034825509078 ନିର୍ମାଣ -0.6360717
-2.862592760988225 ଚାହୁଁଛନ୍ତି -0.4697839999999999
-3.3872895030267443 ଆଧାର -0.31335609999999997
-3.8234470102348466 ରୂପରେଖକୁ -0.12531089999999998
-3.3749690749616246 ଜ୍ଯାମିତି -0.15315409999999996
-2.7049445289883396 ବିଫଳ -0.5898111
-3.834569276011278 ସଂସ୍କରଣରେ -0.14008119999999996
-3.335104553978143 ଏବେ -0.2768086
-3.9067674911873813 ସମର୍ଥିତ -0.372246
-3.782058454924689 ବିନ୍ୟାସ -0.3882165
-3.6219133199390354 profile -0.12531089999999998
-3.488810801619948 ବୈଧ -0.2838574
-3.53402375674711 ଭୂମିକା -0.22570359999999998
-3.754463704930587 ପ୍ରଦତ୍ତ -0.15224269999999995
-3.784971760328291 ଦୁଇଥର -0.19231459999999997
-3.8677041275094948 ଦିଆୟାଇଛି -0.17527430000000002
-3.519309855077586 ଛୋଟବଡ଼ -0.21177560000000004
-4.0735240931402465 ଗୁଣନିୟକ -0.12531089999999998
-3.467069389797663 g -0.24956409999999993
-3.624435054812563 ଅତି -0.30747569999999996
-2.9638865468078452 ବହୁତ -0.3430343
-3.580991749856693 କରୁଛି -0.6108561999999998
-3.415291956531601 ଚଲାଇବା -0.5536246999999999
-3.889716308314807 ଆବଶ୍ୟକ -0.5044012
-3.634754388830106 ସକ୍ରିଯ -0.19241559999999994
-3.476355518691933 ସରଭର -0.12531089999999998
-3.838701893976606 ପଞ୍ଜିକୃତ -0.18476609999999996
-3.6626842717743333 ପୁଣିଥରେ -0.2565954
-3.2439740362827223 ଫାଇଲକୁ -0.2646766
-3.372021584785018 ସଂରଚନାକୁ -0.2966401
-3.568824010706259 କରିଥିବା -0.24806989999999995
-3.2702794396848405 ଖୋଲନ୍ତୁ -0.9189564999999998
-3.736923248492528 ଶେଷଥର -0.15315409999999996
-3.4891350730113895 ୱିଣ୍ଡୋକୁ -0.2348978
-3.835155729627966 ଟ୍ୟାବରେ -0.14282159999999997
-3.441225153812899 ଅଫ -0.2730752
-3.594689024575453 ସମ୍ପୂର୍ଣ୍ଣ -0.3164827
-3.818771362472834 ସ୍ୱରୂପ -0.14146390000000003
-3.2164898586641137 ନିର୍ଦ୍ଦିଷ୍ଟ -0.29692269999999993
-3.395699498760332 ଏହାର -0.25454199999999993
-3.919512102919878 ପ୍ରାଚଳକୁ -0.12531089999999998
-3.4879758216815313 ନିଷ୍ପାଦନ -0.31233599999999995
-3.9004786884200087 ରୂପରେଖାକୁ -0.15315409999999996
-3.3901069776890114 ଡିରେକ୍ଟୋରୀକୁ -0.1329287
-3.371709550416685 ବିକଳ୍ପଗୁଡ଼ିକୁ -0.34867509999999996
-3.3730957326005453 ଦର୍ଶାନ୍ତୁ -0.9890070999999999
-3.9910281824150693 ଟ୍ୟାବଗୁଡ଼ିକୁ -0.14008119999999996
-3.498642608990608 ବିକଳ୍ପଗୁଡ଼ିକ -0.43307159999999995
-3.9375618724930725 ଗୋଟିଏରୁ -0.2983258999999999
-3.002010719192754 କରାଯାଇଛି -0.8148121
-3.5843662369012947 window -0.12531089999999998
-3.57903392589612 tab -0.12531089999999998
-3.5758348367830353 ପ୍ରାଚଳ -0.31144869999999997
-3.9788327961368872 ୱିଣ୍ଡୋଗୁଡ଼ିକ -0.23081860000000004
-3.4778583461971513 ପୂର୍ବନିର୍ଦ୍ଧାରିତକୁ -0.1694303
-4.045608235620166 ପ୍ରକ୍ରିଯା -0.12531089999999998
-3.576320507693259 ଘଟିଥିଲା -0.3859826
-3.3465444330747345 ସ୍ତରର -0.13324909999999998
-3.4601857226965653 ପ୍ରକ୍ରିୟାଟି -0.12531089999999998
-3.5952549255203103 ସ୍ଥିତି -0.24624130000000002
-3.249422762826697 କରିଛି -0.6219487
-3.406603968856958 ସଂକେତ -0.21328060000000001
-3.5337316212314174 ସମାପ୍ତ -0.3568008999999999
-3.405134306561328 ଟ୍ୟାବକୁ -0.1881433
-3.731231300140683 ସହାୟତା -0.3121057
-3.374361294143168 ଠିକଣା -0.3282309
-3.2355217669221 ଖୋଲି -0.41353629999999997
-3.488866488439538 ଲଗାନ୍ତୁ -0.8108105999999999
-3.3804670560928733 ବୋର୍ଡ -0.18582569999999998
-3.436657816332345 ସଂଖ୍ୟାକୁ -0.12531089999999998
-3.6164033668202027 ଯାଆନ୍ତୁ -0.5938484999999999
-3.409081406482495 ସେଟକରନ୍ତୁ -0.6543270999999999
-3.399797433728386 କାଢ଼ନ୍ତୁ -0.42229679999999997
-3.3739107755793047 ପଟକୁ -0.1468106
-3.4654828565802895 ଘୁଞ୍ଚାନ୍ତୁ -0.8256304999999999
-3.3933568210994753 ଡ଼ାହାଣ -0.24940009999999996
-3.520236986566789 ଅଲଗା -0.2331568
-3.3470126384810337 ମେଲ -0.2387831
-3.3698967196997645 ପଠାନ୍ତୁ -0.6469052999999999
-3.567351756176506 ଡ଼ାକନ୍ତୁ -0.19329329999999997
-3.4016496466005126 ଛାଡନ୍ତୁ -0.17527430000000002
-3.373915119286693 ୱିଣ୍ଡୋରେ -0.1840759
-3.451625105590093 ଏପର୍ଯ୍ୟନ୍ତ -0.1526058
-3.929340503428687 ପଦ୍ଧତି -0.20277909999999993
-3.5670132598673625 ଚାଲୁଅଛି -0.4231194999999999
-3.5094862643250373 ଫଳରେ -0.15460039999999997
-3.6947212609602906 ସମସ୍ତଙ୍କୁ -0.17650379999999996
-3.576655985272121 କରିଦେବ -0.3007851999999999
-2.9870394373226583 ପାରିଲା -0.572191
-3.36131472854014 ବିଦାୟ -0.2508442
-3.4654149504554805 ଚାଳନ -0.1610114
-3.4556659862629835 ସ୍ଥାନାନ୍ତରଣ -0.2961099
-3.5010134354318705 ଦର୍ଶାଅ -0.4251077999999999
-3.5040748986086134 S -0.2165028
-3.4145940628772578 ଡାଏଲଗ -0.15315409999999996
-3.5879666702406303 ପପଅପ -0.23088689999999998
-3.467478168411196 ଆହ୍ବାନ -0.17255009999999998
-3.5898594341001813 ପ୍ରତିକ୍ରିଯା -0.12531089999999998
-3.398820436981261 ପ୍ରଶ୍ନ -0.2770074
-3.9356637120954416 ଡାଏଲଗରେ -0.19329329999999997
-3.785507265804042 ଗୁପ୍ତଶବ୍ଦ -0.1413351
-2.913324876663396 ଟାଇପ -0.4332054
-4.124075034903621 କରିଥିଲେ -0.6963704
-3.6543424512203897 ମାନ୍ଯ -0.1380826
-3.5656261006731587 ମନେହୁଏ -0.26135909999999996
-3.9261161256380483 ମାନ୍ୟ -0.16481119999999996
-3.3821966335236247 ବହୁମୂଲ୍ୟ -0.32189049999999997
-3.485018807630535 ଧନ -0.22910259999999993
-3.6466802012295836 ପାଆନ୍ତୁ -0.19346719999999995
-3.5803781384277924 ଲୋକଙ୍କ -0.4003283999999999
-3.5238515897928986 ହାତରେ -0.1353624
-3.81221577754543 ବହୁସଂଖ୍ୟକ -0.12531089999999998
-3.532189261228592 ଲୋକଙ୍କୁ -0.2122054
-3.5275783334996684 ଖୁଆଇବା -0.2628425
-3.456321821171253 ମାଥି -0.13210610000000003
-3.540026360790852 ଶିଷ୍ୟମାନଙ୍କ -0.16943039999999995
-3.731875282563108 ପାଞ୍ଚୋଟି -0.12531089999999998
-3.7795915996646023 ରୋଟୀ -0.2920681
-3.82705571442736 ମାଛ -0.21124629999999997
-3.259669508106521 ଥିଲା -0.6422089
-3.1717177982884865 ଯୀଶୁ -0.3833426
-3.4381397713922337 ନିଜ -0.3921886
-3.998563711644396 ବୃହତ୍ -0.17317609999999997
-3.939923079330665 ଲୋକସମୂହକୁ -0.12531089999999998
-3.4576525652848007 ଯୀଶୁଙ୍କର -0.19140869999999996
-3.714529593699195 ଆଶ୍ଚର୍ଯ୍ୟକର୍ମ -0.16481119999999996
-3.5737093672498714 ଯୋଗୁଁ -0.1937822
-3.7561419955059376 ହଜାର -0.39624859999999995
-3.815080219572225 ଲୋକଙ୍କର -0.16419169999999997
-3.8079829197211614 ଭୋକ -0.17177479999999998
-3.359623028471648 ଆମେ -0.3237255
-3.5882499640167587 କାହିଁକି -0.2607149
-3.411019578930487 କପଟୀ -0.1353624
-2.5232658414746347 ନୁହେଁ -0.6953046
-3.659033399855792 କୁକୁର -0.17177479999999998
-3.8302908115525205 ତା’ର -0.14845859999999997
-3.520113208587179 କ’ଣ -0.32607129999999995
-3.5645058849314246 ହୋଇଥିବ -0.28719819999999996
-3.920446039189094 ବାଇବଲ -0.29478619999999994
-3.3922896840877916 ପଠନ -0.12531089999999998
-3.823358769176902 ପ୍ରଚାର -0.4369151
-3.3955394976192452 ସେବାରେ -0.13952509999999999
-3.4796405215032884 ଦକ୍ଷତା -0.26018119999999995
-3.703249937762645 ବଢ଼ାନ୍ତୁ -0.24922179999999994
-3.7031526328575586 ନମୁନା -0.1961827
-3.439347186852584 ଭିଡିଓ -0.25864049999999994
-3.401157103502485 ଦେଖାନ୍ତୁ -0.8242425999999999
-3.701167406856085 ଆଲୋଚନା -0.40917989999999993
-3.3844381493173366 ହି -0.14461209999999997
-3.430499456772817 ବିଶ୍ୱାସ -0.2066813
-3.654310154685268 ମଜବୁତ୍ -0.14008119999999996
-3.567226631635479 ଯୀଶୁଙ୍କ -0.4219967
-3.601279963506383 ଧ୍ୟାନ -0.2980617999999999
-3.758392447442354 କେନ୍ଦ୍ରିତ -0.22976829999999998
-3.52587182911088 ଖ୍ରୀଷ୍ଟୀୟ -0.34022679999999994
-3.383352592229913 ଜୀବନଯାପନ -0.34091639999999995
-3.7880879882083107 ଗୀତ -0.24183779999999994
-3.392381422232396 ମିତ୍ର -0.22148520000000002
-3.877794274602565 ବଢ଼ାଅ -0.19329329999999997
-3.707433135962755 ପିଲାଙ୍କୁ -0.13125089999999998
-3.7564648865193413 ମଞ୍ଚ -0.2165028
-3.534193608487998 ଉପରକୁ -0.1821213
-4.053499110146458 ଡାକନ୍ତୁ -0.12531089999999998
-3.8252051800151046 ସେମାନଙ୍କୁ -0.1846214
-3.4459675093883386 ପଚାରନ୍ତୁ -0.404564
-3.9731457556756804 ତୁମେ -0.16499479999999997
-3.7484551478627384 ମିତ୍ରତା -0.15997319999999995
-3.802111469600991 ଯେଉଁମାନେ -0.2759394
-3.808059538317878 ଯିହୋବାଙ୍କୁ -0.2984438
-3.6885682501473434 ପ୍ରେମ -0.36179029999999995
-3.409385398461499 ସେମାନଙ୍କଠାରୁ -0.1413351
-3.4506938257232926 ପିତା -0.3157442999999999
-3.7152030412644335 ମାତାଙ୍କୁ -0.1869841
-3.4302958874939047 ସମ୍ମାନ -0.33884709999999996
-2.7000130414664887 ମୁଁ -0.4881694
-3.4689678877184242 କିପରି -0.23641109999999996
-3.5595994096305037 ହେବି -0.12531089999999998
-3.4727654174655576 ଆମ -0.3346537
-3.7715970803146344 ଜୀବନ -0.35664729999999994
-3.951578800740427 ସେବା -0.26810199999999995
-3.7631687165347185 ସଭା -0.26857369999999997
-3.6740427141331566 କାର୍ଯ୍ୟସୂଚୀ -0.14282159999999997
-3.5148116287487965 ଦଲିଲ -0.20956560000000002
-3.510825517327246 ପ୍ରୟୋଗ -0.29718059999999996
-3.335738447584435 ଦଲିଲଗୁଡ଼ିକୁ -0.1413351
-3.931116882032012 ପରିଚାଳନା -0.4100311
-3.5568034330658325 ସହଭାଗ -0.258555
-3.5923269880987605 ୱିଣ୍ଡୋର -0.3249065
-3.4083636266094746 ବୃହତ୍ତମ -0.17527430000000002
-3.4367830920810998 ଅବସ୍ଥା -0.326677
-3.399445110150556 ଦଲିଲକୁ -0.1476512
-3.1429451950076976 ଅସମର୍ଥ -0.4086836999999999
-2.6739263107869076 କରୁଅଛି -0.7398794
-2.4450740476214268 ଦୟାକରି -0.3205917
-3.3969914116401387 ନେଟୱର୍କ୍ -0.12531089999999998
-3.048029688502772 ସଂଯୋଗ -0.3824932999999999
-3.392523653177428 ଯାଞ୍ଚ -0.5058334999999999
-3.4139454798155495 ନେଟୱର୍କ -0.2546288
-3.561327351024514 ପ୍ରକ୍ସି -0.2165722
-3.451022240730549 ସାଇନ -0.16481119999999996
-3.632812364913766 ଇନ୍ -0.14461209999999997
-3.5553342017403895 ପାଇବାରେ -0.5970904
-3.835431591709917 ସନ୍ଦେହ -0.2306744
-3.6184810567980072 ଜନକ -0.1714803
-2.28512973414046 ! -0.5035755999999999
-3.2910695640888767 ମିଳିଲା -0.8173174
-3.4281071713699522 ଅନଲାଇନ୍ -0.12531089999999998
-3.603159242832724 ଖାତାକୁ -0.1812124
-3.1377457923576895 ଯୋଗ -0.6051868999999999
-3.3758398618049528 ପୃଷ୍ଠା -0.24069609999999997
-3.3988816373124355 u -0.25628609999999996
-3.326919276366432 ଦେଖିବା -0.5972889999999998
-3.412158098405244 ବିଷୟବସ୍ତୁ -0.15173789999999998
-3.408542114655516 ସୂଚୀ -0.21562649999999997
-3.4482853791811636 ବସ୍ତୁଗୁଡ଼ିକ -0.19753499999999996
-3.4245046749531007 ମୁଦ୍ରଣ -0.48142149999999995
-3.29276920049379 ଆପଣଙ୍କର -0.20599099999999998
-3.451117499654446 ଅନୁକ୍ରମଣିକା -0.17925709999999997
-3.5745778610426755 ଦିଆଯାଇଛି -0.650705
-3.6669797625589715 ହୋଇନପାରେ -0.18290539999999997
-3.4783959381193 ରୁ -0.18832099999999996
-3.5477464335274025 ଆଣୁଅଛି -0.24819640000000004
-3.374108408392768 ଖାତାରୁ -0.12531089999999998
-3.3801620080578814 ଧାରାରେ -0.1723511
-3.3686651053045167 ବ୍ୟକ୍ତି -0.2234939
-3.5183821421590737 ଭରଣ -0.44479029999999997
-3.4396837989375624 ପଢ଼ିପାରିବେ -0.6003788999999999
-3.685501121959101 ପ୍ରବେଶାନୁମତି -0.1542983
-3.417776586014435 ଅଦ୍ୟତିତ -0.18599569999999999
-3.1614185799304626 ହୋଇନାହିଁ -0.6049829999999999
-3.52321464978828 ହୀନ -0.1518074
-3.6854942345250086 ସାମ୍ପ୍ରତିକ -0.15867249999999997
-3.4082790549372013 ସୁସମାଚାର -0.3071517999999999
-3.847955306053952 ବ୍ୟ -0.36680809999999997
-3.911525223046023 ନ୍ୟୁ -0.17527430000000002
-3.77419939170803 ଷ୍ଟେଟାମେଣ୍ଟ -0.23174219999999998
-3.8228567858776272 ଅଧ୍ୟାୟ -0.16106809999999996
-3.225748970973701 ତାହାଙ୍କ -0.40841389999999994
-3.5667088959499815 ଶିଷ୍ଯମାନଙ୍କୁ -0.24578209999999995
-3.2835945146244536 ଉପଦେଶ -0.2875053
-4.054238828671 ଦେଉଥିଲେ -0.40431919999999993
-2.6204657945160297 ଯେ -0.5300246
-3.48598314997759 ପ୍ରାର୍ଥନା -0.5737787
-3.5429016984972224 କବେେ -0.26842209999999994
-3.368768104991522 ହେଲେ -0.4302638
-3.7850380017830605 ଭରସା -0.24501169999999997
-3.7692351333874616 ହ -0.38480329999999996
-3.5732248256659638 ଦବୋପାଇଁ -0.2149427
-3.760929793273381 ଦୃଷ୍ଟାନ୍ତ -0.2361964
-3.1480452658014797 କହିଲେ -0.7884807999999999
-3.4614273235912862 ନଗର -0.429375
-3.693486067877058 ବିଚାରପତି -0.13324909999999998
-3.37654111957729 ପରମେଶ୍ବରଙ୍କୁ -0.34619779999999994
-3.897594793510868 ତାହାଙ୍କର -0.23974539999999994
-3.64036970866098 ନଥିଲା -0.5193172
-3.4658849193594876 ବିଷୟ -0.43368429999999997
-3.8690457831171674 ଭାବୁଛନ୍ତି -0.24638969999999996
-3.7094513797290496 ସେଥିପ୍ରତି -0.1625385
-3.5654721101436704 ଖାତିର -0.24566920000000003
-4.095740881346786 କରୁ -0.6708691
-3.496641620283427 ନଥିଲେ -0.4315615
-3.2562565656726514 ସହେି -0.4156314
-4.058055870198422 ସ୍ତ୍ରୀଲୋକ -0.15230309999999997
-4.0762410616469 ସ୍ବାମୀ -0.1820643
-4.346678223658633 ମରି -0.18086679999999997
-3.8631606097217013 ଯାଇଥିଲା -0.3303305
-3.578108302082984 ସ୍ତ୍ରୀଲୋକଟି -0.12531089999999998
-3.214206766707803 ଥର -0.16980389999999998
-3.9304223134687746 ଆସୁଥିଲା -0.2386371999999999
-3.8946499873943976 ବିଚାରପତିଙ୍କୁ -0.12531089999999998
-3.823803203608028 କହୁଥିଲା -0.18290539999999997
-3.1879837062352525 ଲୋକ -0.34996239999999995
-3.3465917899123436 ପ୍ରତି -0.32715789999999995
-4.096653288448613 ଅନ୍ଯାୟ -0.14461209999999997
-3.170295110328741 ମାେତେ -0.36512419999999995
-3.7894331458174317 ନ୍ଯାୟ -0.21792529999999996
-3.5364745025130575 ଅଧିକାର -0.3660478
-3.471313787044383 ଦିଅ -0.6544939
-2.8623192668776385 କିନ୍ତୁ -0.3989113
-3.4512560706455275 ସ୍ତ୍ରୀଲୋକଟିକୁ -0.12531089999999998
-3.861464988455776 ଇଚ୍ଛା -0.41138589999999997
-3.10464533100935 ସମୟ -0.41091869999999997
-3.4604652967930662 ଜଣକ -0.1764243
-3.656315908457063 ମନେ -0.4131976
-3.933817286825109 ଭାବିଲେ -0.5036737999999998
-3.64890769652352 କରୁନାହିଁ -0.39492209999999994
-3.8702144616720955 ସବୁବେଳେ -0.15505290000000002
-3.5212167102898135 ବ୍ଯସ୍ତ -0.20143309999999998
-3.9618880420931446 ପକାଉଛି -0.21020659999999997
-3.2430826569453655 ତାକୁ -0.23487779999999997
-3.5126537813018732 ଦଇେ -0.29094989999999993
-3.7840758698016868 ପିଛା -0.16223429999999997
-3.980502763667343 ଛାଡିଦବେ -0.12531089999999998
-3.6907820371693165 ନଚତେ -0.12531089999999998
-3.7203143863999033 କରୁଥିବ -0.22948530000000003
-3.131081550695611 ଯାହା -0.34502599999999994
-4.079490291628205 କଥାର -0.20586589999999996
-3.38897771582967 ପରମେଶ୍ବରଙ୍କ -0.5404662
-3.996180133149171 ଦିନରାତି -0.1359277
-3.3324356077146606 ତାହାଙ୍କୁ -0.2679904
-3.8743601438014355 ପାଟି -0.35698699999999994
-3.914382560151116 ଠିକ୍ -0.40715979999999996
-3.8770831243416697 ସ -0.12531089999999998
-4.0614711566634 ଦଇେଥାନ୍ତି -0.4251077999999999
-3.2944017324683417 ଉତ୍ତର -0.4720413
-3.6438826039391397 ଦବୋ -0.6679884
-3.837891343664761 ଆଦୌ -0.14934249999999996
-3.7826527896083464 ବିଳମ୍ବ -0.21597749999999996
-3.4808674831864406 କହୁଛି -0.3755088
-4.093089325559715 ଶୀଘ୍ର -0.16822849999999998
-4.122981178871364 ମନୁଷ୍ଯପୁତ୍ର -0.16199859999999996
-4.10740241345478 ଫରେି -0.3967232
-3.661041923768847 ଆସିବା -0.4703137
-3.9041707607756 ପୃଥିବୀ -0.4245897
-3.884456694400459 ବିଶ୍ବାସୀମାନଙ୍କୁ -0.12531089999999998
-3.078172723988299 ପାଇ -0.3083390999999999
-3.243889621248914 ପାରିବେ -0.5742102
-3.369685437125953 ଭାବୁଥିଲେ -0.3909833
-3.255052915185655 ନିଜେ -0.22260449999999998
-3.781568068614476 ଅନ୍ୟମାନଙ୍କ -0.35637269999999993
-3.7850270281236194 ହାଇେଥିବା -0.19045639999999997
-3.261572921301831 ଭଳି -0.24780179999999993
-3.891306347384238 କରୁଥିଲେ -0.5795410999999999
-3.671757964329853 ଫାରୂଶୀ -0.39735699999999996
-3.6792055520557456 କରଆଦାୟକାରୀ -0.16943039999999995
-3.698086068639967 ଥିଲେ -0.5027723
-4.040509332284077 ଦିନେ -0.16770449999999998
-4.32858286717683 ଦୁଇଜଣ -0.1848103
-4.103176147055979 ମନ୍ଦିରକୁ -0.1873017
-3.6485673323380095 ଗଲେ -0.5360118999999999
-3.372118049876517 ଦୂର -0.41257949999999993
-3.940918927764567 ଠିଆ -0.4941605
-3.886390897030129 ହାଇେଥିଲେ -0.41059109999999993
-3.750997349029677 କଲାବାଳେ -0.12531089999999998
-3.2447915455625957 ଖରାପ -0.2493209
-3.9443959377465463 କୃତଜ୍ଞତା -0.22927620000000004
-3.6729738113430237 ଜଣାଉଛି -0.2710291
-3.638005347728274 ଚୋରି -0.24724449999999992
-3.6715108481070544 ଠକାମି -0.12531089999999998
-3.737335005782702 ବ୍ଯଭିଚାର -0.24668679999999998
-3.6416797411343063 ପାପ -0.44429089999999993
-3.5505486503625305 କରୁଥିବା -0.30300809999999995
-3.5867632837225853 ଲୋକମାନଙ୍କ -0.6051916
-3.8437664307892847 ହାଇେଥିବାରୁ -0.1956489
-3.5555876600863754 ପାଖ -0.7740707999999998
-4.07658399958744 ସପ୍ତାହ -0.2281039
-3.904949292518811 ଦୁଇ -0.2787497
-4.027846748541371 ଉପବାସ -0.2020144
-3.916152308266507 ମାରେସମସ୍ତ -0.12531089999999998
-4.148388393926735 ରୋଜଗାରର -0.12531089999999998
-3.5870833981529935 ଦଶ -0.292175
-3.728131202687112 ଭାଗରୁ -0.1800261
-3.690587816922014 ଭାଗ -0.3080342
-4.036943279122712 ଦାନ -0.2771615
-3.8164366768931934 ଏକାକୀ -0.1581339
-3.625908027463799 ସ୍ବର୍ଗ -0.5443948
-3.7021950349030557 ଆଡକୁ -0.16666709999999998
-3.267314246752514 ନିଜକୁ -0.25017629999999996
-4.011505848968909 ନମ୍ର -0.2795928999999999
-3.683484973166343 ଦୟା -0.3502359
-3.824672128107699 ପାପୀ -0.2026495
-3.535364156668531 ତୁମ୍ଭମାନଙ୍କୁ -0.2701001
-3.8850477249378716 ଲୋକଟି -0.19769409999999998
-3.781489248995025 ଯେତବେେଳେ -0.3322563
-3.7786538861020884 ଶଷେ -0.4320531
-3.729805648676232 ଘରକୁ -0.2450528
-3.7854049899457793 ଫରେିଗଲା -0.3576336
-3.4483035456239306 ଦୃଷ୍ଟି -0.34284339999999996
-3.4963160734406005 ଧାର୍ମିକ -0.3518345
-3.656107250178085 ଅନୁଭବ -0.40402659999999996
-3.683204304284569 କଲା -0.7288646999999999
-3.7710695242729138 ବିଶ୍ବସ୍ତ -0.28003759999999994
-3.5754894133105832 ମହାନ -0.22587170000000004
-3.2421990523225754 ବୋଲି -0.4260584
-4.010141971546038 ଭାବେ -0.2052025
-3.385547373933331 େଛାଟ -0.2224564
-3.675683093180348 ପିଲାମାନଙ୍କୁ -0.15696120000000002
-3.570733433839229 ପାଖକୁ -0.3217364999999999
-3.885197226087809 ଆଣିଲେ -0.527604
-3.4856066107742443 ଯେପରି -0.26691849999999995
-3.506016175183161 କବଳେ -0.24974200000000002
-3.7875156283606892 ଶିଷ୍ଯମାନେ -0.2329621
-3.4879285186635225 ଦେଖି -0.3079381
-3.390551818321821 ଲୋକମାନଙ୍କୁ -0.34481559999999994
-3.9185300842883013 ନକରିବାକୁ -0.12531089999999998
-4.090994850159438 ଡାକିଲେ -0.4612675
-3.7292481541610907 ପିଲାମାନେ -0.19132350000000004
-3.8715443775698932 ଆସନ୍ତୁ -0.299014
-3.917447862027412 ଅଟକାଅ -0.12531089999999998
-3.8519182625064645 ପିଲାମାନଙ୍କ -0.29164379999999995
-3.384571823714212 ଭଳ -0.12531089999999998
-3.7117509164937452 ହାଇେଥିବେ -0.21701089999999998
-3.8236913402596078 ସହେିମାନେ -0.14367330000000003
-3.8988148998963075 ରାଜ୍ଯର -0.17062719999999998
-3.7319975770432134 ଅଧିକାରୀ -0.22307099999999994
-3.7889137271329187 ପିଲା -0.2421021
-3.8831503726363956 କଲାଭଳି -0.15537169999999995
-2.8599400948864773 ତୁମ୍ଭମାନେେ -0.39136589999999993
-3.6380690346333253 ରାଜ୍ଯ -0.2854255
-3.875437598336636 ନକଲେ -0.12531089999999998
-3.924104899604027 ପାରିବନାହିଁ -0.39458439999999995
-3.4113739473822657 ଯିହୂଦୀ -0.2460419
-3.4804388499359673 ନେତା -0.2868509
-3.6184261113883704 ଯୀଶୁଙ୍କୁ -0.27713219999999994
-3.647706915165358 ପଚାରିଲେ -0.7826837999999999
-3.6829139528418913 ଗୁରୁ -0.24478549999999996
-4.115942700185444 ଅନନ୍ତଜୀବନ -0.22144979999999992
-3.9078836052549835 ଲାଭ -0.37916609999999995
-3.6535009724298173 କହିଲ -0.42957759999999995
-3.535338175724798 ହିଁ -0.21099200000000004
-3.493714873205928 ପ୍ରଶ୍ନର -0.6014832
-3.968694201372628 ଦବେି -0.5465280999999999
-3.860847027159681 ଆଜ୍ଞାମାନ -0.1468106
-3.8269699709119376 ଜାଣିଛ -0.2980461
-3.888624968720835 କାହାରିକି -0.12531089999999998
-3.238923379778478 ହତ୍ଯା -0.6508520999999999
-3.596233786973195 ଜିନିଷ -0.16630379999999997
-3.8792517642580484 ହେଁ -0.2069093
-4.08399611032367 ମିଛ -0.27033739999999995
-3.4401026893418005 କହିବ -0.6238404999999999
-3.985850169758648 ବାପାମାଆଙ୍କୁ -0.12531089999999998
-3.7548571920429583 ନିଶ୍ଚୟ -0.18521209999999994
-3.5698941764835674 ଦବେ -0.6490638
-3.984405525595931 ଏସବୁ -0.24233859999999993
-3.751436245716599 ଆଜ୍ଞା -0.42475189999999996
-3.4694058333496756 ଏକଥା -0.21772539999999999
-3.5580502885163257 ଶୁଣି -0.21136539999999998
-3.5991303678914304 ନେତାଙ୍କୁ -0.13324909999999998
-3.368864784995518 ତଥାପି -0.29111619999999994
-3.508069788610122 ପର୍ୟ୍ଯନ୍ତ -0.32319349999999997
-4.173871758631033 ବାକିଅଛି -0.19329329999999997
-3.8875207506322815 ବିକି -0.1625385
-3.517515844453067 ଗରିବଙ୍କୁ -0.12531089999999998
-3.706716608867805 ପୁରସ୍କାର -0.3269213999999999
-3.8750665294646516 ମିଳିବ -0.3936858
-3.5646774531441983 ତା'ପରେ -0.32114789999999993
-4.033197471567601 ଆସ -0.3920283
-4.198420756810293 ମନ -0.35775539999999995
-3.742348516179093 ଦୁଃଖ -0.3310084
-3.6046815879071197 ଧନୀ -0.2442217999999999
-3.9876808350162736 ରଖିବାକୁ -0.1801429
-3.978302238657015 ଚାହୁଁଥିଲେ -0.3579395
-3.8362806315794233 ଦୁଃଖିତ -0.30660009999999993
-4.009654077195146 ହବୋର -0.22419389999999995
-3.4310438725116597 ଧନୀଲୋକ -0.14957449999999997
-3.817864314410941 ଠାରୁ -0.21913300000000002
-3.874428268790412 ସହଜ -0.3098486999999999
-3.578209960130366 ଶୁଣିବା -0.3957934999999999
-3.8840309123426295 କେଉଁମାନେ -0.12531089999999998
-3.954945234976157 ପରିତ୍ରାଣ -0.21365149999999994
-3.9677838531722993 ମନୁଷ୍ଯ -0.26160339999999993
-3.679376618079956 ଆମ୍ଭେ -0.4386310999999999
-3.87723844007582 ଆମ୍ଭର -0.28253069999999997
-4.037452299586785 ସର୍ବସ୍ବ -0.1456521
-3.678601548701089 ଛାଡିଦଇେ -0.12531089999999998
-3.5954554186211993 କରିଛୁ -0.4761872
-3.729043736938434 ତାର -0.1630473
-3.5286611623023934 ଘର -0.23871499999999998
-3.813982246271097 ପତ୍ନୀ -0.2111182
-3.634899406218584 ଭାଇ -0.28023909999999996
-3.7402283560269827 ବାପାମାଆ -0.14957449999999997
-3.3868702089155613 ଛାଡିଥିବା -0.12531089999999998
-3.5128800714586723 ବସ୍ତୁ -0.2500587
-3.711495158023821 ପାଇବ -0.573227
-3.8570523717944587 ଜୀବନକାଳ -0.32485039999999993
-3.8268915997350352 ତ -0.23276300000000003
-3.854635915843166 ଅନକେ -0.31422059999999996
-3.6501275531475863 ଗୁଣ -0.29018649999999996
-3.797554800448822 ମରିଗଲା -0.28733339999999996
-3.5845890686876403 ଚିରକାଳ -0.32697829999999994
-4.010508514490212 ବାସ -0.6710943999999999
-4.107413978497194 ବାରଜଣ -0.33597359999999993
-3.9989542713483592 ଶିଷ୍ଯଙ୍କୁ -0.16993139999999998
-3.7909230230589723 ଆମ୍ଭମାନେେ -0.274664
-3.9905146275254806 ୟିରୂଶାଲମକୁ -0.16851769999999994
-4.038951601544609 ଯାଉଛୁ -0.15315409999999996
-3.5064879785905156 ଭବିଷ୍ଯଦ୍ବକ୍ତାମାନଙ୍କୁ -0.17883330000000003
-3.7804104405729313 ମନୁଷ୍ଯପୁତ୍ରଙ୍କ -0.192181
-3.5704302797469545 ଲେଖି -0.2087939
-3.8504984551534367 ବାକୁ -0.12531089999999998
-3.7320198116739673 କହିଥିଲେ -0.6161034999999999
-3.657384517897158 ଘଟିବ -0.44982729999999993
-3.686309548712023 ଦବେେ -0.6150401999999999
-3.966630355827288 ଉପହାସ -0.31635989999999997
-3.7695763816764685 ଲୋକେ -0.2467685
-3.823253152048859 ଅପମାନ -0.16953089999999998
-4.004931230504239 ଛପେ -0.21478829999999996
-3.935414788426477 ପକାଇବେ -0.32119129999999996
-3.8202864295672527 ପିଟିବେ -0.16481119999999996
-3.653843666655432 ମାରି -0.30462809999999996
-3.803563657936723 ମୃତ୍ଯୁର -0.16889240000000003
-3.785101793963159 ପୁଣି -0.29682939999999997
-3.4975895081947965 ଜୀବିତ -0.32338269999999997
-3.5625147738279015 ଉଠିବେ -0.35672319999999996
-3.4156703138527114 ରରେିତମାନେ -0.12531089999999998
-3.682571816631917 ବୁଝିବାକୁ -0.1853917
-3.6698158857960705 ଚେଷ୍ଟା -0.5044027
-3.566397631370209 ମାତ୍ର -0.3137309
-3.803278714525658 ବୁଝି -0.3416682
-3.927092765116625 ପାରିଲେ -0.5555165999999999
-3.7446857361759123 ସମାନଙ୍କେ -0.47149139999999995
-3.9896572671755752 ଗୁପ୍ତ -0.2126217
-3.7220749640938866 ରହିଲା -0.3469554999999999
-3.4094794291017325 ଯିରୀହାେ -0.22459479999999996
-3.73605062183877 ପାଖାପାଖି -0.1500748
-4.1394666429788165 ଆସିଲେ -0.47866619999999993
-3.5786944733108936 ରାସ୍ତା -0.3911051
-3.9567725767650863 କଡ -0.2983258999999999
-3.4796047123759006 ଅନ୍ଧ -0.22434020000000002
-3.6356855862315642 ଅନ୍ଧଟି -0.12531089999999998
-3.8296248203710643 ଭିକ -0.203259
-3.7561029021225685 ମାଗୁଥିଲା -0.17527430000000002
-3.635680980439528 ଯାଉଥିବା -0.26154539999999993
-4.050180338815926 କୋଳାହଳ -0.1610114
-4.162036299728009 ଶୁଣିପାରି -0.12531089999999998
-3.9732468214055987 ପଚାରିଲା -0.7253176999999998
-3.6276788271149623 ଘଟଣା -0.24592639999999996
-3.858293649210552 ନାଜରିତୀୟ -0.30507219999999996
-4.105413534693493 ବାଟ -0.2245498
-3.9357776074660484 ଯାଉଛନ୍ତି -0.4232125999999999
-3.398494250451359 ଉତ୍ତଜେିତ -0.19917339999999994
-3.9257330586162182 ଅନ୍ଧକୁ -0.12531089999999998
-4.2645281642105575 ଧମକ -0.29088489999999995
-3.9958073536422516 ଚୁପ୍ -0.2556903
-3.8639169020104616 ରହିବାକୁ -0.1871612
-3.8646690467237534 ଆହୁରି -0.31032509999999996
-3.96844775594046 ଜାରେ -0.5146525999999999
-3.926869105495572 ପାଟିକରି -0.23863729999999994
-3.7304057682782603 ଦାଉଦଙ୍କ -0.34812429999999994
-3.8295689029241227 ପୁତ୍ର -0.31263459999999993
-3.3922600598080117 ସଠାେରେ -0.3086056
-3.526649677873817 ଅଟକି -0.2133971
-3.9891610967513995 ଆଣ -0.39084559999999996
-3.950354517386182 କରିବି -0.7394504999999999
-3.9607366571221028 ଚାହୁଁଛ -0.34768309999999997
-3.7908250430268353 ଶକ୍ତି -0.3157035999999999
-3.4883915334818765 ବିଶ୍ବାସ -0.4915349
-3.700529649897587 ଉଦ୍ଧାର -0.42339799999999994
-3.4326239008243506 ସଙ୍ଗେ -0.2558172
-3.593666996761614 ଜନସମୂହ -0.17527430000000002
-3.520245747023573 ଧର୍ମଶାସ୍ତ୍ରୀମାନେ -0.17542469999999996
-3.5617272193857152 ଫାରୂଶୀମାନେ -0.17954860000000003
-3.8826517426814515 ମାଶାଙ୍କେ -0.4517247
-4.125642257161611 ବ୍ଯବସ୍ଥାର -0.22691800000000004
-3.405631393819469 ବ୍ଯାଖ୍ଯା -0.2574024999999999
-3.95986730175966 ପାଇଛନ୍ତି -0.3028553
-3.493013175023984 ଯାହାସବୁ -0.17074119999999998
-3.639121628994679 କହୁଛନ୍ତି -0.47160459999999993
-3.7034099561274587 ମାନିବା -0.45612789999999986
-3.5920784275870092 ଉଚ଼ିତ -0.1827294
-3.4316583716772406 କରୁଛନ୍ତି -0.7071224999999999
-3.753595022266592 କରନାହିଁ -0.3524007
-3.657470707498264 କହନ୍ତି -0.5769593
-3.8520822636246974 କଡ଼ାକଡ଼ି -0.12531089999999998
-3.9665711209556607 ନିୟମ -0.22435859999999996
-3.8641422105268135 ତିଆରି -0.48416509999999996
-3.791687199553932 ନିୟମଗୁଡ଼ିକ -0.16943039999999995
-3.3893356790828055 ବାଧ୍ଯ -0.3324455
-3.815847898809533 ଚେ଼ଷ୍ଟା -0.1965464
-3.6346869348495727 ଦେଖଇେ -0.1755636
-3.6584332089679648 ହବୋ -0.6743853999999999
-3.746628608227842 ବଡ଼ବଡ଼ -0.12531089999999998
-3.9633480201631337 ସ୍ବତନ୍ତ୍ର -0.1885946
-3.9785391558027485 ପୋଷାକକୁ -0.12531089999999998
-3.505076983060069 ଲମ୍ବା -0.16582879999999994
-3.8672746231045254 କରିଥାନ୍ତି -0.5706633
-3.538001997952034 ମହତ୍ତ୍ବପୂର୍ଣ୍ଣ -0.17085589999999998
-3.9701156479986297 ମାନ -0.2451568
-4.136582700639207 ପାଇବାକୁ -0.20669280000000004
-3.451872814268531 ପାଆନ୍ତି -0.39958009999999994
-3.3954674437460444 ବଜାର -0.21478820000000004
-3.530044233312159 ସ୍ଥାନମାନଙ୍କ -0.7242946
-3.985314365648585 ଲୋକମାନଙ୍କର -0.21447649999999996
-3.989289484393062 ନମସ୍କାର -0.22588019999999995
-3.9366548257984415 ପ୍ରତିଦାନ -0.12531089999999998
-3.818594923987515 ଚ଼ାହାଁନ୍ତି -0.15315409999999996
-3.754782594435664 ରାବ୍ବୀ -0.12531089999999998
-3.592740589861661 କହେି -0.34144009999999997
-3.9714774561292256 ସମସ୍ତେ -0.20679889999999998
-4.078169069499535 ଭାଇଭଉଣୀ -0.12531089999999998
-4.019247637240663 ସମସ୍ତଙ୍କର -0.17176959999999997
-3.3247234771796204 ଅଛନ୍ତି -0.604299
-3.377086326231376 ସଂସାର -0.2499557
-3.6649627487103147 କାହାରିକୁ -0.15365719999999997
-3.7416033394951933 ପରମପିତା -0.2751526999999999
-4.020854200644205 ସମ୍ -0.24566909999999995
-3.886589709439591 ବୋଧନ -0.12531089999999998
-3.8230021789440936 ରହୁଛନ୍ତି -0.3596125
-3.6397020545532275 ମାଲିକ -0.17335219999999996
-3.76670370384954 ହେଉଛନ୍ତି -0.31840199999999996
-3.5287188854745404 ଚ଼ାକର -0.12531089999999998
-4.254559357670614 ସବୋ -0.5479337
-3.522393826671042 ତୁମ୍ଭମାନଙ୍କ -0.5180716999999999
-3.875232192822673 ସବୁଠାରୁ -0.4265428
-3.634589910884736 ବଡ଼ -0.24792379999999997
-3.89725698678072 ନତ -0.22715079999999996
-3.6064303062194685 ଧିକ୍ -0.2289251
-4.050170809922672 ସ୍ବର୍ଗରାଜ୍ଯର -0.12531089999999998
-3.9627188804259723 ଦ୍ବାର -0.37532229999999994
-3.5336530075412846 ଦେଉଛ -0.3471214
-4.227854179569224 ପାରୁନାହଁ -0.19991159999999994
-3.867979963761057 ଛଡ଼ା -0.3022925
-3.629206979338865 ଧର୍ମଶାସ୍ତ୍ରୀ -0.2711799999999999
-4.06847362635446 ହାୟ -0.4247999999999999
-3.5699908875096766 ମାର୍ଗ -0.35805419999999993
-3.9616097127431233 ଖାଜେି -0.2319702
-4.1684179109490325 ପାଇବା -0.5217631999999999
-4.059003498379834 ବିଭିନ୍ନ -0.2771893
-3.8925794992998943 ଦେଶ -0.3925412999999999
-4.100812035501244 ସମୁଦ୍ର -0.35785909999999993
-3.8725077381854454 ପାରି -0.33688879999999993
-3.8704625418965204 ସଭେଳି -0.13397799999999996
-3.7563853395052242 ଲୋକଟିଏ -0.14957449999999997
-3.896396341363915 ଯାଉଛ -0.3318686
-3.8353396456839897 ତୁମ୍ଭଠାରୁ -0.1639984
-3.882769348444744 ଏତେ -0.22893609999999995
-3.865774053032929 ନର୍କର -0.203259
-3.6142929180402654 କହିଥାଅ -0.2206801
-3.754838498644518 ଉପାସନା -0.49929649999999987
-3.291480152407508 ମନ୍ଦିର -0.41194299999999995
-3.703706857011633 ରାଣ -0.15797319999999995
-3.623134940570657 ପକାଇ -0.2163727
-3.3511463192008657 ଶପଥ -0.3058772
-3.3858707974404973 କରିଥାଏ -0.6103508999999999
-3.8931585335412944 ଦରକାର -0.39982389999999995
-3.8716272042923605 ମନ୍ଦିରର -0.20951010000000003
-3.613808515884191 ସୁନା -0.41225639999999997
-3.8527860015050086 ରକ୍ଷା -0.6550433999999999
-3.673003116680007 ମୂର୍ଖ -0.2260427
-3.7195048993040367 କିଏ -0.28712340000000003
-3.6756139373332983 ନା -0.2495676
-3.9626559226314995 ସୁନାକୁ -0.12531089999999998
-3.7708648621628225 ପବିତ୍ର -0.4465446
-3.6867288139828016 ନିଏ -0.385721
-3.455312702847496 ବଦେୀ -0.29492609999999997
-4.096403986634577 ରଖାଯାଇଥିବା -0.12531089999999998
-3.9667757315369037 ପଡ଼ିବ -0.47744779999999987
-3.88632506352285 ରଖା -0.1920361
-3.986664451853143 ଯାଇଥାଏ -0.52171
-3.832671527353474 ସମସ୍ତଙ୍କ -0.39774789999999993
-3.651659260947748 ଭିତ -1.9003859999999997
-3.6919845548818184 ୟିଏ -0.24424149999999997
-3.9763913253097356 ନଇେଥାଏ -0.12531089999999998
-3.733163774232878 ଏପରିକି -0.2156418
-3.8009866826509464 ପୋଦିନା -0.19329329999999997
-3.8721436932833235 ନିୟମର -0.12531089999999998
-3.9597215036155813 ଗୁଡ଼ିକୁ -0.1289566
-3.3878902576988796 ପାଳନ -0.6274722999999999
-4.031621116063022 କରୁନାହଁ -0.40070919999999993
-3.871840099778208 ଏଗୁଡ଼ିକ -0.13030759999999997
-3.7913980968615233 ଉପଦେଶଗୁଡ଼ିକୁ -0.12531089999999998
-2.8665521023339506 ରୂପରେ -0.14567029999999997
-4.092202979070796 ପ୍ରକାରର -0.15347859999999994
-3.89715741354063 ପାନୀୟ -0.41723559999999993
-3.892462732203535 ଗିଳି -0.12531089999999998
-3.850403604950001 ପକାଅ -0.20658269999999998
-4.109771880606281 ଧିକ -0.12531089999999998
-3.6117351953554233 ପଟ -0.2901101
-3.9635136955115176 ତୁମ୍ଭମାନଙ୍କର -0.2535461
-3.7562308571939615 ଅନ୍ତର -0.3984667
-4.212817498031674 ଅନ୍ୟକୁ -0.19086240000000002
-3.918703202797801 ଠକି -0.1365604
-4.049666347537954 ପଦାର୍ଥ -0.13623490000000002
-3.8268316688681363 କରୁଛ -0.6381317
-4.076649861454896 ପ୍ରଥମେ -0.1633724
-3.8493503604645793 ଭିତର -0.32211039999999996
-3.7134015918313454 ସଫା -0.45013909999999996
-3.9495394197542972 ବାସ୍ତବ -0.383044
-3.7926911638743896 ରହିଲେ -0.44074149999999995
-2.960224619440578 ପାରିବ -0.5713074999999999
-3.8757888562456597 ଧଳା -0.1974179
-3.74748911766589 ସମାଧି -0.15914450000000002
-3.917462747898994 ଦଖାଯାେଏ -0.18242169999999994
-3.812017416191266 ଲୋକର -0.1744846
-3.772648768381604 ଅପରିଷ୍କାର -0.15797319999999995
-3.4217649056826676 ସହେିଭଳି -0.1552753
-3.7732762549223056 ବାହାରୁ -0.12531089999999998
-4.320013164239767 ଅନ୍ୟମାନଙ୍କୁ -0.22175089999999997
-3.908658655090663 ଦଖାେ -0.3302308
-3.9234558712834806 ଛନ୍ଦ -0.12531089999999998
-4.021684208874309 କପଟ -0.15315409999999996
-3.8477197516795556 ପରିପୂର୍ଣ୍ଣ -0.22840479999999996
-3.66859142708992 ଭବିଷ୍ଯଦ୍ବକ୍ତାମାନଙ୍କ -0.1610114
-3.980471277331639 ସୁଶାେଭିତ -0.12531089999999998
-3.483630913455939 କହୁଛ -0.33659549999999994
-4.156203051764158 ଆମ୍ଭ -0.43172029999999995
-3.881783622445637 ପୂର୍ବପୁରୁଷଙ୍କ -0.3050128999999999
-3.904660170577188 ସମକାଳୀନ -0.31973619999999997
-3.440044320418483 ପ୍ରଣିତ -0.12531089999999998
-4.148777689949873 ବଂଶଧର -0.321622
-3.4134896760282505 ପୂର୍ବପୁରୁଷ -0.19774859999999994
-4.148580985088368 ଦଇେଥିଲେ -0.46907379999999993
-3.5995749326922266 ସର୍ପ -0.15066079999999998
-4.16102446034105 ବିଷଧର -0.24264209999999994
-4.060114726693342 କୁଳ -0.12531089999999998
-3.8987598169556836 ଜନ୍ମ -0.36335209999999996
-3.7832603661736512 ହାଇେଛ -0.3244281
-4.082681523087967 ପରମେଶ୍ବରଙ୍କଠାରୁ -0.2235706
-3.6269354301486674 ଦୋଷୀ -0.34882339999999995
-3.9243683135305885 ବିଚ଼ାର -0.22101819999999997
-3.979121470810768 ନର୍କକୁ -0.16481119999999996
-3.87758427717907 ୟିବ -0.5540729999999999
-4.098392829059767 ଜ୍ଞାନୀଲୋକ -0.12531089999999998
-3.953441759952987 ପଠାଉଛି -0.4369603999999999
-3.7087138829009345 କେତକଙ୍କେୁ -0.12531089999999998
-3.66551038209377 ମାରିବ -0.24566909999999995
-4.020092548979781 କୃଶ -0.5619369999999999
-3.9326136930915947 ଚ଼ଢ଼ାଇ -0.12531089999999998
-4.015503492444446 ସମାଜ -0.278426
-3.9743717061331165 ସମାଜଗୃହ -0.40557649999999995
-3.784614744280269 କୋରଡ଼ା -0.1468106
-3.926262725487758 ସହରରୁ -0.29492609999999997
-3.987870521102214 ସହର -0.3451148
-3.578732164485466 ପେଛ -0.3659476
-3.832439163280257 ଯାଇ -0.210447
-3.9585945312532997 ତାଡ଼ନା -0.18658850000000002
-4.020637617583574 ଯେତେ -0.2571074
-4.028986981654101 ଦିଆ -0.4346922999999999
-3.4302838256621095 ଯାଇଛି -0.4681713999999999
-3.8697418756519473 ସାବ୍ଯସ୍ତ -0.1372733
-3.960756101030751 ସ୍ଥଳ -0.28316829999999993
-4.104499864294682 କରିଥିଲ -0.3902271
-3.0153099599721522 ବର୍ତ୍ତମାନ -0.2697498
-4.1030883504225475 ସହ -0.22668739999999996
-3.891498911386384 ୟିରୁଶାଲମ -0.4565651
-3.50993326737825 ତୁ -0.15303359999999996
-3.5452877492602015 ଯେଉଁମାନଙ୍କୁ -0.2095233
-4.2172711621368135 ତୋ -0.14461209999999997
-3.971991861874974 ପଠାଇଥିଲେ -0.4535470999999999
-3.9149756353990033 ପଥର -0.2903820999999999
-4.109529191254803 ଫୋପାଡ଼ି -0.21177560000000004
-3.58551734908076 ତୋର -0.13485429999999998
-3.839164937989982 ଯଭେଳି -0.17849569999999995
-3.807556308518125 କୁକୁଡ଼ା -0.14461209999999997
-3.8871811445222697 ଛୁଆମାନଙ୍କୁ -0.12531089999999998
-3.8469680117723506 ପକ୍ଷତଳେ -0.12531089999999998
-3.759420734142711 ଏକାଠି -0.2908763
-4.027640477977201 ସହେିପରି -0.25913669999999994
-3.94112171018996 ସନ୍ତାନମାନଙ୍କୁ -0.16072919999999996
-3.820864180667293 କରଇେ -0.2710291
-3.9351335456041667 ପୁରାପୁରି -0.12531089999999998
-2.6479213407661573 ନ -0.5900823999999999
-3.9294792131959047 କହିଛ -0.26569119999999996
-4.160054877420991 ପ୍ରଭୁଙ୍କ -0.26218489999999994
-3.9200666991418354 ଆସୁଛନ୍ତି -0.45668479999999995
-3.830186060794547 ଧନ୍ଯ -0.31725609999999993
-2.9630107792117144 ଅଧିବେଶନ -0.1991456
-3.4286455963219455 ଲଗ -0.3217853
-3.7656593648994376 କରାଇଥାଏ -0.5492264
-4.119285093924991 ସୁରକ୍ଷିତ -0.21931529999999996
-3.9584135424696227 ଆଧାରରେ -0.1353624
-3.9316051819727997 ssh -0.12531089999999998
-3.2433741132012988 X -0.29769129999999994
-3.4967856553837624 ଅସଫଳ -0.31511769999999995
-2.987812692359852 ସମ୍ଭବତଃ -0.2552574
-2.9451585668380633 ସେବକକୁ -0.2171248
-2.748789902386059 ବିନ୍ଯାସ -0.44489509999999993
-3.237986387126764 କୋନଶୋଲରେ -0.2206801
-3.6094795861745594 ପଡିବ -0.42143539999999996
-3.442660232775926 ତାପରେ -0.18504640000000003
-3.15300315097039 ପୁନଃପ୍ରାରମ୍ଭ -0.36793909999999996
-3.601586216120843 ଏଥିପାଇଁ -0.19869949999999995
-3.4518339943250536 ରୁଟ -0.19991169999999997
-3.034684086159909 ସଙ୍କେତ -0.17537440000000004
-3.19679547693296 ସଙ୍କେତକୁ -0.1308992
-2.4586435891017975 ପ୍ରଚେଷ୍ଟା -0.2711143999999999
-3.3795719165815585 ସେବକଟି -0.12531089999999998
-3.5545793006004205 ବର୍ତମାନ -0.1380826
-2.8580437322377943 ନିଷ୍କ୍ରିୟ -0.5314685999999998
-3.704649878935898 ହୋଇଗଲେ -0.2809192999999999
-3.4640573995647697 ସମସ୍ଯାର -0.19329329999999997
-3.491753592228464 କାରଣକୁ -0.12531089999999998
-3.9340247833889763 ନିରୁପଣ -0.23324049999999996
-3.7250675802855153 ନିର୍ଗମକୁ -0.12531089999999998
-3.583720751325304 ଚାହିଁବେ -0.29969759999999995
-3.4182184451749245 ବିସ୍ତ୍ରୁତ -0.203259
-3.883986614770308 ଯନ୍ତ୍ର -0.21000709999999997
-3.4252294615453396 ମାଉସକୁ -0.12531089999999998
-3.9720697372728657 ସଙ୍କେତର -0.12531089999999998
-3.9043437546045237 ଆବଶ୍ଯକତା -0.2401938
-3.236009104642203 ପଡିପାରେ -0.203259
-3.096690175162576 ଫେଲ-ସେଫ -0.22381199999999998
-3.644192808773279 ଏକ୍ସ-ଟାର୍ମ -0.12531089999999998
-3.162636101676098 ସେତେବେଳେ -0.14905639999999998
-3.46946687729186 ଆକର୍ଷିତ -0.18290539999999997
-3.912495548013777 ଦର୍ଶିକାକୁ -0.12531089999999998
-3.661032627365653 ନେବେ -0.35483459999999994
-3.9299102483723964 ଧାରାରୁ -0.12531089999999998
-3.3023781976205093 ବାହାରକୁ -0.2302482
-3.3437791926312355 ଯିବା -0.36567789999999994
-3.71672113171483 ଉପର -0.18759959999999995
-3.7681839024081265 ଭାଗର -0.14957449999999997
-3.451360123234628 exit -0.3451064
-3.2223467217597035 ଅଧିବେଶନକୁ -0.1965464
-3.6475474897096256 ମାଉସ -0.23832729999999996
-3.69037405652144 ଥିବ -0.38721099999999997
-3.0117296866382555 ବୈଧିକରଣ -0.23798229999999998
-3.7205518227949717 ପ୍ରବିଷ୍ଟିକୁ -0.16481119999999996
-3.2318983642695542 ଖାଲି -0.2976164
-3.419377719351749 ସ୍ଥାନ -0.38304939999999993
-3.7420763718440475 s%s -0.15797319999999995
-3.4156213511264686 କୁକି -0.18290539999999997
-2.914271904362308 କରିପାରିଲା -1.4710999999999999
-3.8659641986589937 ଖୋଲିପାରିବ -0.19329329999999997
-4.077339892448038 ତାଲା -0.270505
-3.7313766205716212 ଦେଇ -0.16243699999999997
-3.6246697510903036 ରଖି -0.17180789999999999
-3.558444351513944 ଆଗ୍ରହ୍ଯ -0.30711659999999996
-3.7729995764970172 କରିଦେଉଛି -0.2206801
-3.4118961765718265 ଶେଷ -0.29532169999999996
-3.8559680547817803 ମିନିଟରେ -0.12531089999999998
-3.767978972078066 ହୋଇସାରିଛି -0.42501979999999995
-3.5709946964967947 ସମସ୍ଯା -0.18162239999999996
-3.826499067527774 ଦେଖା -0.167274
-3.5263733939705197 ଦେଇଛି -0.538035
-3.3165639243116085 ପୁନର୍ବାର -0.18681979999999998
-3.4294106023752406 ପ୍ରଦର୍ଶନରେ -0.14461209999999997
-3.911938093476673 ମିନିଟ -0.20287719999999998
-3.42170878029899 ପାଇପ -0.16568759999999996
-3.5063236492402754 ସ୍ରୁଷ୍ଟି -0.49212799999999995
-3.018472129112353 କରିପାରିବ -0.7961490999999999
-3.817741306910331 ଅଧୀନସ୍ଥ -0.12531089999999998
-3.0043368687126084 ପ୍ରକ୍ରିୟାକୁ -0.19228849999999995
-3.441361921910035 ଫୋର୍କ -0.22381199999999998
-2.6839910707291756 ତୃଟି -0.29199379999999997
-3.9807533254332506 ବାକ୍ସକୁ -0.12531089999999998
-3.4347519533107405 ଡିରେକ୍ଟୋରି -0.19830929999999994
-2.8682850105517175 ଅବସ୍ଥିତ -0.41093909999999995
-3.419893893628523 ଅଧିକ୍ରୁତ -0.23174219999999998
-2.719949801623207 ଚାଳକ -0.30878249999999996
-3.4918606727737074 ଲିଖନୀୟ -0.16481119999999996
-3.1172822702159633 ଅନ୍ଯ -0.25271239999999995
-3.147053767613015 ମାନଙ୍କ -0.37276609999999993
-3.381632094428436 ସମୂହ -0.2217152
-3.222816508658266 ପ୍ରଶାସକଙ୍କ -0.2628425
-3.810091489452656 ଉଲ୍ଲେଖିତ -0.17309690000000003
-3.473735286266787 ସର୍ବାଧିକ -0.21760159999999998
-3.6747944492923725 ଆକାରରୁ -0.12531089999999998
-3.277329645682781 ସ୍କ୍ରିପ୍ଟକୁ -0.12531089999999998
-3.448146429115544 ଚଳାଉଛି -0.24819640000000004
-3.895847341930272 କରିହେବ -0.8023367999999999
-3.3826683859163396 ହୁଅନ୍ତୁ -0.4448433999999999
-3.7310705346619795 ଏକାଧିକ -0.1491369
-3.2353575313339893 ପ୍ରଦର୍ଶନକୁ -0.1460242
-3.1661932019459123 ପ୍ରମୂଖ -0.3556344
-3.5366560152646063 ଡେମନକୁ -0.16481119999999996
-3.3846880244696598 ସ୍ଥଗିତ -0.19433440000000002
-3.489233553369545 ପୁନର୍ଚାଳିତ -0.12531089999999998
-3.364201121598295 ଡେମନଟି -0.12531089999999998
-3.9304135935056235 ନେଉଛି -0.1570209
-3.557966800242861 ପ୍ରକ୍ରିୟା -0.24701399999999993
-3.395089379345085 କମ୍ପୁଟରକୁ -0.23959839999999996
-4.111220429510135 ଯନ୍ତ୍ରକୁ -0.1380826
-3.281131373047843 ଆଦି -0.1464494
-3.594345025389728 ଅନୁରୋଧ -0.36646839999999997
-3.678050181809227 ପ୍ରାପ୍ତ -0.3067959
-3.8453577135525774 ଅସ୍ଥିର -0.12531089999999998
-3.459494303137372 ପ୍ରଦର୍ଶନରୁ -0.12531089999999998
-3.390031923788614 ଡେମନ -0.2296354
-3.4047497800528026 ପାଇଲା -0.44992259999999995
-3.345801674529666 ହୋଇଯାଇଛି -0.5089104999999999
-3.64574064058009 କୋନଶୋଲ -0.12531089999999998
-3.666979371037686 ବୈକଲ୍ପିକ -0.12531089999999998
-3.4915436305852774 ସଂରକ୍ଷିତ -0.24731999999999996
-3.4003147490521997 ସଂସ୍କରଣକୁ -0.19189320000000004
-3.418060083349434 ମୂଦ୍ରଣ -0.30039219999999994
-3.3775860590465103 ପର୍ଯ୍ଯନ୍ତ -0.12531089999999998
-3.66305174273391 ଆମକୁ -0.273592
-3.7498223191887097 ମିଳିଛି -0.47942699999999994
-3.728551106599886 ଅଟକାଇ -0.21478829999999996
-3.5851821939190684 ଲେଖିବା -0.46546269999999995
-3.5261061009951162 sକୁ -0.16256469999999998
-3.4495246584646324 ନୋମ -0.13125089999999998
-3.764427284823882 ଇଚ୍ଛାପ୍ରକାଶ -0.27020579999999994
-3.914926136144252 ନିୟନ୍ତ୍ରକକୁ -0.12531089999999998
-3.4310177692682937 ଅନୁରୋଧକୁ -0.167775
-3.519331969863842 ଅସ୍ବୀକାର -0.31605449999999996
-3.4620239767214387 ବୈଧିକ୍ରୁତ -0.15797319999999995
-3.476622241880268 ଅଜଣା -0.20009329999999995
-3.451061260341848 ନିବେଦନ -0.18802929999999998
-3.2809156845630256 କରାଗଲା -0.5835096
-3.553678100865982 ମାନକ -0.1518074
-3.901970508083427 ନିବେଦିତ -0.19329329999999997
-3.4857254570914287 ପରିବର୍ତ୍ତନକ୍ଷମ -0.12531089999999998
-3.815869667827632 ବ୍ଯବହ୍ରୁତ -0.12531089999999998
-3.382691133452705 ସ୍ବୀକ୍ରୁତ -0.17527430000000002
-3.7480744945770192 gdm -0.12531089999999998
-3.4793749689924267 ଶୁଭେଚ୍ଛାକର୍ତ୍ତା -0.2082669
-3.954603984694165 ଙ୍କୁ -0.1329288
-3.204969448147799 କରାଯାଇ -0.3475577999999999
-4.040708549977725 ଡିରେକ୍ଟୋରିକୁ -0.14461209999999997
-3.2257234251242206 Xdmcp -0.17255000000000004
-3.6645215736603753 କମ -0.24423560000000002
-3.444440789218527 ଅଗ୍ରାଧିକାର -0.14461209999999997
-4.063290640612949 ସୀମାର -0.14204540000000002
-3.955651399832075 ବାହାରେ -0.1920109
-3.980667600515703 ବଦଳାଗଲା -0.3451064
-3.31419489021667 ନିର୍ଦ୍ଦେଶକୁ -0.16639579999999998
-3.611556291052946 ServAuthDir -0.12531089999999998
-3.1327486590192084 ବିନ୍ଯାସକୁ -0.158797
-3.399102421631879 Authdir -0.23174219999999998
-3.4551254323876255 ଅବୈଧ -0.2847327
-3.984719420970972 ଲାଇନ -0.1335975
-3.719774136139459 ନିଶ୍ଚଳ -0.12531089999999998
-3.356612640567087 ସ୍ବୀକାର -0.44183629999999996
-3.789204626342291 ପାଇପାରିବ -0.5030593999999999
-3.5302982778616574 ଚାଳକକୁ -0.17276009999999997
-3.7296729200407666 ସୁରକ୍ଷାରେ -0.12531089999999998
-3.7216653481322712 ବିପଦର -0.17527430000000002
-3.717027825975762 ଆଶଙ୍କା -0.2946792
-3.5831179974145195 ଥିବାରୁ -0.24486889999999997
-3.7593958924873503 ଗ୍ରହଣୀୟ -0.16608659999999997
-3.456590165314076 ସମୂହକୁ -0.1468106
-3.4807118725123964 ମିଳିଲେ -0.18242169999999994
-3.59441653607109 ନିଷ୍ପାଦିତ -0.12531089999999998
-3.3647656319657657 ଚୟକ -0.20031909999999997
-3.79004984377643 o -0.15124129999999997
-3.8578090716410416 ପ୍ରବେଶାନୁମତିକୁ -0.16481119999999996
-3.3885229729851254 ହଁ -0.3428649
-3.5005380264714083 n -0.1800261
-4.023812685544906 ନାଁ -0.1868921
-3.4336259392602297 ସ୍ଥାନୀୟ -0.22614419999999996
-2.969075617533191 ମାନଙ୍କୁ -0.2007041
-3.6764625850860355 ନିର୍ଦ୍ଦେଶଟି -0.15315409999999996
-3.4117206879148205 କାର୍ଯ୍ଯ -0.209402
-4.235725570905465 କରିଲା -0.2206801
-3.6698443876390625 initgroups -0.12531089999999998
-3.852599165119033 ଚାଲୁଥିବା -0.17926340000000002
-3.7369070524150922 ଜଣା -0.2776156
-3.836891878733243 ପଡୁଛି -0.26182849999999996
-3.776277931351982 ନମ୍ବର -0.153856
-3.4528921270738264 Xnest -0.12531089999999998
-4.06580344566709 ଖୋଲିହେବ -0.2317421
-3.415074889222027 ପ୍ରଦର୍ଶନଟି -0.12531089999999998
-3.4432176569079322 ପାଇପକୁ -0.12531089999999998
-3.651539264704182 ଖୋଲିବାରେ -0.6627094
-3.435220261404883 ମୂଳ -0.1922784
-3.6779860787648317 ମୁକ୍ତ -0.38079269999999993
-3.971179674402886 ହେବାର -0.2561803
-3.632785843648473 ଚାଳକଟି -0.12531089999999998
-3.4702682317874047 ପରିଚୟକୁ -0.1788188
-3.7779182039664865 ସାରିଛନ୍ତି -0.2570553
-3.5193309845276133 ପ୍ରତ୍ଯାବର୍ତ୍ତନ -0.3555342
-3.249198428913286 ଲଗଇନକୁ -0.25791039999999993
-3.5192450499122243 ବଶତଃ -0.12531089999999998
-3.932895784482565 ଆପମଙ୍କର -0.15797319999999995
-2.9796971130840766 ଯୋଗାଯୋଗ -0.1791244
-3.9391328299454593 ନିରୂପଣ -0.22614489999999998
-3.8061112455076964 ତନ୍ତ୍ରର -0.16610119999999998
-3.9572998043435423 ଲଗକୁ -0.12531089999999998
-3.517448710031979 ହୋଇଯିବ -0.4738863
-3.8609969923629373 ସମସ୍ଯାଟି -0.12531089999999998
-3.860639145921492 ସମଧାନ -0.12531089999999998
-3.425548128047512 ପ୍ରୟୋଗକୁ -0.25220469999999995
-3.432682857036807 ଚଳାଇ -0.24566909999999995
-3.7700813227153622 ପଥଟି -0.12531089999999998
-3.633013226892602 ଚାଳଇ -0.23174219999999998
-3.5744128000687074 ଶବ୍ଦଟି -0.16223429999999997
-3.764817500543818 init -0.19329329999999997
-3.8573074784149424 Xdcmp -0.12531089999999998
-3.5535720384570357 ଜନିତ -0.1385297
-3.287930188477601 ସମାଧାନ -0.3278846999999999
-3.5883952274260054 ସ୍ବୟଂଚାଳିତ -0.15537169999999995
-4.006522487248324 ଧ୍ଯାନ -0.27495899999999995
-3.4849695064018196 ସେବକର -0.1468106
-3.3826308328060013 ପ୍ରତର୍ଶନ -0.12531089999999998
-3.5564827016258187 ଶୁଭେଚ୍ଛକ -0.12531089999999998
-3.361480414076227 ପ୍ରୟୋଗଟି -0.12531089999999998
-3.5480476217704533 ହଠାତ -0.16481119999999996
-3.5117633736749343 ଅଚଳ -0.17314069999999998
-3.49496137375107 ଏକକାଂଶ -0.1965464
-3.8721867542952513 ବିନା -0.2265019
-3.9830976977398813 ଶୁଭେଚ୍ଛକକୁ -0.2317421
-3.562629903315336 ଉପାୟରେ -0.1316498
-3.748416622231472 ସମ୍ପାଦିତ -0.17607769999999998
-3.9753338374837845 ହୋଇପାରିବେ -0.4456624
-3.532137363765631 ଚୟକକୁ -0.12531089999999998
-3.570304787541769 ସ୍କ୍ରିପ୍ଟ -0.1365604
-3.4170171242968506 ଫେରାଇଲା -0.27020579999999994
-3.4265695378950913 ଭାଷା -0.3087392
-4.007374055795068 ପରିବେଶକୁ -0.12531089999999998
-3.460942533307128 ହୋଇଗଲା -0.4385487
-3.652070386802813 ଖୋଜି -0.2712514
-3.452020366254045 xterm -0.17527430000000002
-3.538135465454855 ସ୍ଥାପନକୁ -0.21177560000000004
-3.810944290282248 ନୋମର -0.12531089999999998
-3.4993002930688224 ଅଧିବେଶନରେ -0.2133971
-3.972512076940335 ସମ୍ବନ୍ଧୀୟ -0.19417899999999996
-3.091712921378536 କରାଯିବା -0.33023349999999996
-3.664253637513548 ତାହାହେଲେ -0.19320089999999998
-3.7617268524400678 ତନ୍ତ୍ରକୁ -0.16748749999999996
-3.831950131047575 ଟର୍ମାନାଲ -0.12531089999999998
-3.6924487618251964 ଯନ୍ତ୍ରାନୁକରକରୁ -0.12531089999999998
-3.7350764078259506 ମଧ୍ଯକୁ -0.20939929999999995
-4.0008280173860316 କରିଯିବ -0.12531089999999998
-3.390031799212836 ଅଧିବେଶନଟି -0.16481119999999996
-3.766584022646532 ସୀମିତ -0.18098279999999994
-3.8762908037345687 ସମ୍ପନ୍ନ -0.13187
-3.9000731685423538 କରା -0.3096386
-3.790084324368628 ପାରୁ -0.432695
-3.5985560035563657 ନାହାଁନ୍ତି -0.43284749999999994
-3.516180538585871 ଲଗଇନ୍ -0.17122009999999996
-3.4818670915138896 ପ୍ରଶାସକ -0.15124129999999997
-3.5689806897628333 କରିଦେଇଛନ୍ତି -0.3281976999999999
-3.5152014536795844 ନିଷ୍ପାଦନୀୟ -0.12531089999999998
-3.36940246327652 ପ୍ରସଙ୍ଗକୁ -0.2634638
-3.4670789967779183 ଆଭ୍ଯନ୍ତରୀଣ -0.5201747
-3.658711592422997 ସଫଳ -0.26649810000000007
-3.568679832027304 ମୂଳସ୍ଥାନ -0.28042869999999986
-4.067063354119867 ସୂଚୀତ -0.1756923
-3.3367266851780566 ଜଣାପଡୁ -0.12531089999999998
-3.6954764403959137 ପଞ୍ଜିକାକୁ -0.12531089999999998
-3.2926938154759937 କରିଛନ୍ତି -0.7011683
-3.972822282734584 ପଞ୍ଜିକା -0.15066079999999998
-3.8226029002667867 ଚାଳକର -0.14522039999999997
-3.4246084230990745 ଭାଷାକୁ -0.21453869999999994
-3.898321405621971 ହେବାରୁ -0.16457649999999996
-3.3753269303043463 ଅଧିକୃତ -0.18641910000000003
-2.7882627606914165 ଅନୁମତି -0.4245421
-3.936204610957423 ଲେଖିପାରିଲା -0.42326469999999994
-4.1157125313831076 ଯଥେଷ୍ଟ -0.24337749999999997
-3.5779874374719913 ଡିସ୍କ -0.2784265000000001
-3.597971093360016 ଲିଖନୀ -0.12531089999999998
-3.760174651584801 ଖୋଲିହେଲା -0.5201746
-3.5773853476564583 ପରିସ୍ଥିତିରେ -0.16609699999999997
-3.2995039541343343 ଲଗଆଉଟ -0.19688779999999995
-3.5692136708316964 ବିବରଣୀ -0.2150346
-3.5213528237425518 ବିରତି -0.1570209
-3.4429433575195314 ମାରାତ୍ମକ -0.19253189999999995
-3.4886521305645233 ନଥିବା -0.1756086
-3.4240091127301544 ପାଇପ୍ -0.2078847
-3.922722462515411 ପ୍ରକାରରେ -0.14282159999999997
-3.5626362460435983 ନାମକୁ -0.2244773
-3.478728589295015 ବର୍ଜିତ -0.30711659999999996
-3.4092835085534903 ଅଧିବେଶନରୁ -0.12531089999999998
-3.456257398138263 ଦେଇଛନ୍ତି -0.6395001999999999
-3.426603430493479 ବଦଳାଇବା -0.4391301
-3.5616998861824913 ବଦଳାଇ -0.24153659999999993
-3.5350457432200004 ବଦଳା -0.20774829999999994
-3.5777481318230793 ସଙ୍କେତଟି -0.12531089999999998
-3.746763480037693 ଘଟିଲା -0.3943750999999999
-3.5361526104016607 ଯଥାଶୀଘ୍ର -0.12531089999999998
-3.374938010759124 ଖାତାଟି -0.14282159999999997
-3.626202112404668 ଦିଆଯାଇ -0.4816618999999999
-3.4534779066024943 ଅପରିବର୍ତ୍ତିତ -0.16481119999999996
-3.3557021373449256 Unix -0.17527430000000002
-3.4128304954177344 ପ୍ରଦର୍ଶକ -0.35170749999999995
-3.8290333955661597 ନିୟନ୍ତ୍ରଣକୁ -0.2371787
-3.3561599233190216 ସେବାକୁ -0.16943039999999995
-3.63185603891124 ପ୍ରତିଷ୍ଠାପିତ -0.16481119999999996
-3.416120314422429 ପରଦାରେ -0.12531089999999998
-3.7677089030875566 ଅଭିଗମ -0.3820086
-3.930837740391201 ଅଭିଗମକୁ -0.2082669
-3.669489690527509 ଖୋଲିପାରିଲା -0.9351479999999999
-3.403699220618958 ସକେଟ -0.167775
-3.494986169211098 ବଫର -0.15619149999999998
-3.442251893018102 Xdmc -0.2983258999999999
-3.4583103874858625 ପଢି -0.3494891
-3.405766185999858 ଆଧାରରୁ -0.12531089999999998
-3.465130517748016 ପ୍ଯାକେଟରୁ -0.2317421
-3.519727140482972 ପ୍ରାମାଣୀକ-ସୂଚୀ -0.12531089999999998
-3.9325573998886854 ନିର୍ଯ୍ଯାସ -0.19329329999999997
-3.5268938222771924 ଠିକଣାକୁ -0.21792529999999996
-3.6559221238158726 ସଂଯୋଗିକୀ -0.24668549999999997
-3.726672404534482 ପଚାରିବାରୁ -0.15797319999999995
-3.8855219617813765 ମନା -0.32015189999999993
-3.361476446699862 ନିଷେଧିତ -0.12531089999999998
-3.612743723337308 ସଂଖ୍ଯାକୁ -0.19329329999999997
-3.695930645516656 ପ୍ରକାରକୁ -0.17314069999999998
-3.3838236599161697 ଗ୍ରାହକ -0.26684129999999995
-3.6502793978964103 ତଥ୍ଯକୁ -0.12531089999999998
-3.4265111645777795 ତାଲିକାକୁ -0.20967949999999996
-3.406180927869442 ନିର୍ମାତା -0.12531089999999998
-3.6960607022088086 ଶ୍ରେଣୀକୁ -0.12531089999999998
-3.4312343908534366 ଚଳାଇବାରେ -0.17527430000000002
-4.088055861284001 display -0.19329329999999997
-3.7750654871973706 to -0.17736459999999998
-3.57405298214121 ପାଠ୍ଯ -0.30158589999999996
-3.5642717283897354 ଅତିରିକ୍ତ -0.18488479999999996
-3.7446824083934556 ବିକଲ୍ପ -0.12531089999999998
-3.4295052048672185 ଚଳାନ୍ତୁ -0.4214351
-3.491904262377914 ସିଧା -0.15863739999999996
-3.6531724005604342 ସଳଖ -0.15537169999999995
-3.5633000612906347 ଯାଞ୍ଜ -0.12531089999999998
-3.4942736712506446 ନିହିତ -0.25432889999999997
-3.8196581691960514 ଦୟକରି -0.12531089999999998
-3.936537988524553 ପ୍ରଶାସକଙ୍କୁ -0.12531089999999998
-3.735269876399724 କୁହନ୍ତୁ -0.44639989999999996
-3.4279250190376755 ପରୋକ୍ଷ -0.17527430000000002
-3.5297791274845536 ଗୁଣକୁ -0.12531089999999998
-3.3868621095125024 ମାଗଣା -0.16481119999999996
-4.03140741456817 ପାଇପାରିଲା -0.5201746
-3.713109808819511 କ୍ରମବୀକ୍ଷଣ -0.28042869999999986
-3.352149220969251 ପ୍ରଦାନ -0.6850387
-3.942383195964532 ସମର୍ଥନ -0.3427763999999999
-3.7541744807892017 ସମ୍ପର୍କ -0.2711647
-4.234620547093277 କରିପାରୁ -0.35286519999999993
-3.7948059176844806 ସେକେଣ୍ଡରେ -0.1800261
-3.356286432551789 ବୋଧହୁଏ -0.13563729999999996
-3.594710352654133 ଆଧାରକୁ -0.14282159999999997
-3.8516026383459536 ଅନ -0.3095889
-4.1682364979978095 ଦୟାକରେ -0.17527430000000002
-3.9653004525094535 କରିନାହାଁନ୍ତି -0.2870617999999999
-3.7585150366358087 ନେଟୱାର୍କ -0.12531089999999998
-3.5634301038891527 ମାନଙ୍କର -0.17284799999999997
-3.853944395282385 ପ୍ରୟୋଗର -0.14602409999999996
-4.140820144447636 କ୍ଷେତ୍ର -0.35912629999999995
-3.5597446244036037 ଅନ୍ଯାନ୍ଯ -0.14221009999999998
-3.465037791793068 କମ୍ପୁଟର -0.2026151
-3.834482694360982 ସତେଜନ -0.5466991
-3.405304542044255 ଦବାଇ -0.16481119999999996
-3.4929734329987356 କମ୍ପୁଟରର -0.15315409999999996
-3.346888632157404 ଦବାନ୍ତୁ -0.583972
-3.658437404378963 xdm -0.12531089999999998
-3.3912256667002243 ତଥ୍ଯ -0.2285819
-3.5352889070276015 ବିନିମୟ -0.15585830000000003
-3.440824207934522 ଉତ୍ତରରେ -0.1452932
-3.6962864654571788 ଦିଆଯିବା -0.1922078
-3.4042981497323996 ଉନ୍ନୟନ -0.21649149999999995
-3.3873529242862834 ବାହାରି -0.3230535
-3.412103978371729 ଚୟିତ -0.16379959999999996
-3.452777743672182 ଉପରୋକ୍ତ -0.12531089999999998
-3.4149726264154396 ବାସ୍ତବରେ -0.1567629
-3.9337609924770556 ପରିଚାଳକଙ୍କୁ -0.12531089999999998
-3.654168284818492 ଯେପରିକି -0.17142489999999994
-3.4442268745764895 ସମ୍ବାଦ -0.17674579999999995
-3.784811868299687 ସୀମା -0.3491804
-3.679276231613372 ପହଞ୍ଚି -0.15306480000000003
-3.160822017566311 ପରିଲିଖିତ -0.17527430000000002
-3.9111087951339374 ସୂଚାରୁରୂପେ -0.2032591
-3.6808310435674385 ସଂଖ୍ଯକ -0.16358409999999998
-4.137763943464581 ହଜାଇ -0.12531089999999998
-3.444361287494529 ଅନୁପଲବ୍ଧ -0.29986129999999994
-3.5958520531827713 ଆଭାସୀ -0.16481119999999996
-3.425570541415873 ସହାୟକ -0.23586710000000002
-3.4168647392476474 ଚାବିକୁ -0.14008119999999996
-3.409958096870574 Xauthority -0.2206801
-3.468305161921249 ବହୁ -0.25014
-3.444380365911027 ସନ୍ଦେଶ -0.2931387
-3.8469941282142726 ପଠାଗଲା -0.2628425
-3.846809822879386 ଅକାମି -0.12531089999999998
-3.379469284713146 ବିଧି -0.2827027999999999
-3.561696360268765 b -0.14957449999999997
-3.7886521102431443 v -0.12531089999999998
-3.719602002744182 ନିମ୍ନଲିଖିତ -0.1663218
-3.3971642238654822 ସୁପ୍ତ -0.12531089999999998
-3.8084745583670894 ଅବସ୍ଥାକୁ -0.16639499999999993
-3.5778338530505667 ସେକେଣ୍ଡ -0.17122009999999996
-3.369821897803583 ପ୍ରୋଟୋକଲ -0.16320569999999995
-3.408870785365483 ପରଦାକୁ -0.17288979999999998
-3.497859673086881 ତୃଟିମୁକ୍ତ -0.12531089999999998
-3.5481909388863344 command -0.17527430000000002
-3.9960127931819254 ପପ-ଅପ -0.12531089999999998
-3.8078947089872472 ଖୋଲାଅଛି -0.2206801
-3.6447820358288032 ତଳେ -0.18590779999999998
-3.976643890206229 ତାଲିକାରୁ -0.18077949999999998
-3.561975508076022 ସାଧନ -0.2935061
-4.044579431430327 ଉପଯୁକ୍ତ -0.14344269999999998
-4.060407551907785 ଦ୍ରୁଶ୍ଯମାନ -0.17527430000000002
-3.910736539899175 ହେଉ -0.5834856999999999
-3.627737604422825 ପ୍ରାରମ୍ଭିକରଣ -0.12531089999999998
-3.7554895951677123 ଚାଲିଥାଏ -0.6003788999999999
-3.3918075973573742 ନକରି -0.18671819999999997
-3.420006116308977 ସି -0.12531089999999998
-3.374116700851408 t -0.14957449999999997
-3.890125123379632 ସେଣ୍ଟ -0.12531089999999998
-3.78534780090892 ଭରନ୍ତୁ -0.24819640000000004
-3.3879948796460213 ଡେସ୍କଟପ୍ -0.15619149999999998
-3.365969441294063 ପରିଚାଳକକୁ -0.12531089999999998
-3.4131496255247304 ଶୁଭେଚ୍ଛକଙ୍କୁ -0.2983258999999999
-3.441031781943901 ଅନୁପସ୍ଥିତ -0.3782788999999999
-3.891612558110717 ଯାହାକୁ -0.17364759999999999
-3.3535866518141066 ସଂଳାପ -0.32452369999999997
-3.846419633055855 ହେବନାହିଁ -0.5535756999999999
-3.4573585513104064 ଫେସ -0.16481119999999996
-3.559244015265747 ବ୍ରାଉଜରରେ -0.14957449999999997
-3.4282749055318615 ଫଟୋ -0.15797319999999995
-3.441990574340691 ପସନ୍ଦ -0.3890308
-3.923900331818478 କରାଇବ -0.34257909999999997
-3.4277588386227014 କମ୍ପୁଟରରେ -0.14204540000000002
-3.863832012415975 ଭବିଷ୍ଯତ -0.49783189999999994
-3.898935009699128 ଉପଯୋଗୀତା -0.17527430000000002
-3.5190016127336037 ପ୍ରଭାବିତ -0.2920733999999999
-3.369461288383339 ବ୍ରାଉଜର -0.22622339999999994
-3.583143981215438 ସାଧା -0.12531089999999998
-3.9614556429081316 ସମାପ୍ତି -0.18616399999999997
-4.232051019695368 ଚାଳକରେ -0.12531089999999998
-3.291927704829724 ଅନ୍ତର୍ଭୂକ୍ତ -0.39327509999999993
-3.3954886665157167 ସୂଚୀରେ -0.14957449999999997
-3.933619332563986 ବହିର୍ଭୂତ -0.12531089999999998
-3.761479704080892 tar -0.12531089999999998
-3.612309390487739 ଆର୍କାଇଭ -0.19329329999999997
-3.771619747396908 କରିନାହିଁ -0.3593411
-3.5174099989810106 ପ୍ରସଙ୍ଗ -0.2446407
-3.81835594017493 ଜଣାପଡୁଛି -0.19329329999999997
-3.98425311201443 ସବୁଦିନ -0.8066656999999999
-3.7649426354567517 ନଷ୍ଟ -0.3659253
-3.7078064003340634 ଫାଇଲରୁ -0.19924529999999996
-3.9915504641984367 ଆଲେଖୀକ -0.1468106
-3.7771454890334577 ଏଠାରେ -0.16382189999999996
-3.5331414250101187 ସୂଚୀବଦ୍ଧ -0.16481119999999996
-4.259829738761398 ଖୋଜୁଥିବା -0.1468106
-3.5476686060547733 ବସ୍ତୁକୁ -0.16434550000000003
-3.819628717559928 ସହୟତା -0.12531089999999998
-3.528358556475255 ବ୍ରାଉଜରକୁ -0.1755636
-3.8388451920696287 ବିଭାଗରେ -0.2927062999999999
-3.8307174471474137 ପରବର୍ତ୍ତନ -0.15797319999999995
-3.714736697130068 ଦେଉଛି -0.4057856
-3.4554893279648446 କରାଯାଇଥିଲେ -0.2713193
-3.6910432018147703 ଦେଖାଯିବେ -0.12531089999999998
-3.920739320872778 ସୁରକ୍ଷା -0.2987794999999999
-3.687954028362976 ଅଟକାଇପାରେ -0.12531089999999998
-3.405623641604462 ପରିବର୍ତ୍ତନକୁ -0.16585009999999994
-3.6087903545054267 ରୂପାନ୍ତରିତ -0.2478766
-3.497545546187174 ଅନୁସାରେ -0.23902789999999996
-3.943473383630756 କରିଦିଅନ୍ତୁ -0.42105999999999993
-4.1419417278944515 ପକାନ୍ତୁ -0.4832079
-3.4017631234453902 ନିବେଦନକୁ -0.17527430000000002
-3.434534752499143 ଚୟନକ -0.12531089999999998
-3.380815349656305 ଅନିଷ୍ପନ୍ନ -0.12531089999999998
-3.4084236198924933 ପ୍ରତୀକ୍ଷା -0.15315409999999996
-3.4068699079109894 ଅପସାରିତ -0.30293289999999995
-3.385550211841235 ଦୂରସ୍ଥ -0.15124129999999997
-3.449936711334311 ଖାପ -0.17527430000000002
-3.983061115319858 ମାପକ -0.22119309999999995
-3.7000260082617418 କ୍ରମମୁକ୍ତ -0.17527430000000002
-3.867584416874898 ଅନୁଗ୍ରହ -0.3238058
-3.3075972175965616 ଅକ୍ଷରରୂପ -0.3560967
-3.867603891049443 ସ୍ବାଗତମ -0.2983258999999999
-3.8012359900145727 ସଂଯୋଗକୁ -0.24503699999999998
-3.997217622914043 ପ୍ରତ୍ଯାଖ୍ଯାନ -0.18119799999999997
-3.3623512254252708 passwd -0.12531089999999998
-3.39150999422993 ପରଦାଟି -0.12531089999999998
-4.011888983622219 ନିୟନ୍ତ୍ରିତ -0.15459419999999996
-3.6364678740036918 ଗୁଡାଏ -0.12531089999999998
-3.3673331156195405 ପୂନଃ -0.12531089999999998
-3.3850455606984355 ପ୍ରସଙ୍ଗଟି -0.12531089999999998
-3.8927091362655264 ପ୍ରବିଷ୍ଟି -0.19184779999999999
-3.6170051000033094 କରିହେଲା -1.3496369999999998
-4.092130919763816 ସମାଧନ -0.12531089999999998
-3.7083882151319836 ସାରିବା -0.6081466
-3.8882426972835233 Enter -0.12531089999999998
-3.6535157482853906 ସାରିଛି -0.3003743
-3.3757661401307346 କାର୍ଯ୍ଯକୁ -0.14352589999999998
-3.5464158843338356 କଳାପକୁ -0.12531089999999998
-3.7089668314832958 ମାନଙ୍କରେ -0.12531089999999998
-3.620769517748824 କଳାତ୍ମକ -0.12531089999999998
-3.401630215487598 ଆନନ୍ଦର -0.3310283
-3.4329097239648383 ଚଳାଇବାର -0.12531089999999998
-3.4834629322021318 Dmx -0.12531089999999998
-4.199232556452428 ଲକ୍ଷ୍ଯସ୍ଥ -0.12531089999999998
-3.865119282534421 ପୃଷ୍ଠଭାଗ -0.15797319999999995
-3.95783865463476 ଅନୁଲଗ୍ନ -0.14957449999999997
-4.058011140637329 ଉତ୍ପ୍ରବାସିତ -0.12531089999999998
-3.5758863185882945 ଅନ୍ତରାପୃଷ୍ଠ -0.23899079999999998
-4.068457660887521 ଗ୍ଲେଡ -0.12531089999999998
-3.743757237760703 ବର୍ଣ୍ଣନା -0.3629589
-3.7388293830191492 ତୃଟିଯୁକ୍ତ -0.203259
-4.124870259356757 ଆଗକୁ -0.18724540000000003
-3.409993572732329 ଅନ୍ତରାପୃଷ୍ଠକୁ -0.23357419999999995
-3.918028191215657 ନିଶ୍ଚତ -0.12531089999999998
-3.339193948989047 ୱିଜେଟ -0.26259759999999993
-3.8960747257478454 ପ୍ରତ୍ଯାଶିତ -0.20387509999999998
-3.388417350053805 ଲୋକେଲ -0.12531089999999998
-3.764009485768058 ଅତ୍ଯଧିକ -0.13979789999999997
-3.901832170049291 ଉପନାମ -0.2051622
-3.483318337242841 ମାଶାେ -0.35212519999999997
-4.248237800944599 ଇଶ୍ରାୟେଲର -0.48571479999999995
-3.938232422401979 ପଠାଇଛ -0.19122989999999998
-3.5394921369127204 କହିବି -0.43180419999999997
-3.9731904979211032 କହିବେ -0.5581289
-3.4488444716152755 ସଦାପ୍ରଭୁ -0.544499
-4.00970502146314 ଦର୍ଶନ -0.271129
-3.390864528759436 ମାଶାଙ୍କେୁ -0.20530839999999997
-3.7810347044274915 ଭୂମିରେ -0.19125279999999995
-4.020679858431787 ଫିଙ୍ଗି -0.28074839999999995
-3.865887109132191 ହସ୍ତ -0.40937699999999994
-4.137729590393361 ପ୍ରସାର -0.16481119999999996
-3.882389117484866 ଧର -0.23989599999999997
-3.9637526759706097 ଏହିପରି -0.29499699999999995
-3.732562151436174 ସଦାପ୍ରଭୁଙ୍କୁ -0.3464136
-3.8307841149763595 ଦେଖିଅଛ -0.2894511
-3.9201702387982267 ୟିଏକି -0.15143810000000002
-3.8704120120875367 ପୂର୍ବପୁରୁଷମାନଙ୍କର -0.3422059
-3.7894651303442477 ଅବ୍ରହାମଙ୍କର -0.20498729999999998
-4.048987508416416 ଇସ୍ହାକର -0.3095889
-4.142843385338991 ଯାକୁବର -0.15692409999999998
-4.18664989281377 ହାତକୁ -0.12531089999999998
-4.0160926739399 ଛାତି -0.24566909999999995
-3.88440492520195 ପୁନ୍ନରାଯ -0.12531089999999998
-4.289514132053647 କରିବାରୁ -0.2120709
-3.8134781844205077 ପୂର୍ବପରି -0.13210610000000003
-4.098577543405056 ହାଇଗେଲା -0.4088987
-4.2372091362234485 ଯୋଗୁ -0.13324909999999998
-3.856917360705055 ନକରନ୍ତି -0.5712358
-3.970448640901966 ଚିହ୍ନକୁ -0.12531089999999998
-4.064120230805233 ପ୍ରମାଣ -0.285199
-4.115827561231296 ଶୁଣନ୍ତି -0.49917739999999994
-4.006797942449012 ଜଳ -0.2996861
-3.7552745450211833 ନଇେ -0.2773578
-4.029758152700713 ଢାଳିବ -0.1756923
-3.950339185318112 ମାତ୍ -1.143424
-3.8837890592855246 ରକ୍ତ -0.2975198999999999
-3.785298110962653 ହାଇଯେିବ -0.42203749999999995
-3.836934208771931 କହିବାର -0.2595091
-3.7926600863278064 ମାଠାେ -1.2836029999999998
-4.146760653721296 ଅତୀତ -0.5951907999999999
-3.976010730654074 ବକ୍ତା -0.15211109999999997
-3.8641061920552517 ନଥିଲି -0.20864060000000004
-4.01255951673435 ଯଦିଓ -0.19896149999999999
-3.9278453000259312 ଜାଣନ୍ତି -0.5558253999999999
-3.925643543536816 ଧିର -0.12531089999999998
-3.865871834340431 କରିପାରିବି -0.6568602
-3.4983937640981595 ତାଙ୍କୁ -0.26884449999999993
-3.7625172170618795 ମନୁଷ୍ଯର -0.1579823
-4.067075790403358 ମୁଖ -0.2734439
-3.8816441854242165 ମନୁଷ୍ଯକୁ -0.13485429999999998
-4.323343980546324 ମୁକ -0.12531089999999998
-3.9139799543420932 ବା -0.15951979999999996
-4.086988091229114 ବଧିର -0.12531089999999998
-4.186839581064234 କର୍ମ -0.38443
-4.03627397691397 ସହବର୍ତ୍ତୀ -0.14461209999999997
-3.993943164276748 ଶିଖାଇବି -0.16481119999999996
-3.9549638785459527 ବିନଯ -0.3909833999999999
-3.9225931481279046 ପଠାଇ -0.32791939999999997
-4.10158489950061 ଜଣଙ୍କୁ -0.15694699999999998
-3.953491468366231 ପଠାଅ -0.31352599999999997
-3.7708210286900385 ଜଣକୁ -0.14641
-4.010789349499318 ପଠାଇବି -0.36776469999999994
-3.8731989749259506 ଲବେୀୟ -0.2304077999999999
-3.6535777852530225 ହାରୋଣ -0.3259023
-3.715980863811392 ଆସୁଅଛି -0.3232709999999999
-4.147447388234235 ଆନନ୍ଦିତ -0.3102339
-3.366513252014905 ହାରୋଣକୁ -0.15797319999999995
-3.840097675864717 ବାକ୍ଯ -0.28132499999999994
-3.9975785630551455 ଜିହ୍ବା -0.14857749999999997
-3.8102451361095064 କହିବାକୁ -0.2569351
-3.916291908195546 ସାଙ୍ଗ -0.5137186999999999
-4.115828386632405 ନଇୟୋଅ -0.38863859999999995
-4.001608319591174 ଆଶାବାଡ଼ି -0.1380826
-3.705121204730072 ଶ୍ବଶୁର -0.16481119999999996
-3.920569500755433 ଫରେିଗଲେ -0.42310869999999995
-4.44949562766907 ମିଶରକୁ -0.17136019999999993
-3.978554055166677 ୟିବାକୁ -0.2832994
-3.877437555041045 ଚାହୁଁଛି -0.2711215999999999
-3.890700798704632 ଜାଣିବା -0.4144263999999999
-3.9391129436330314 ଆଜି -0.2637471

\2-grams:
-0.8946565280323199 <unk> <eos> -0.16847086536280675
-1.3509689888059941 <unk> <unk> -0.16847086536280675
-1.6673110851655795 <unk> , -0.16847086536280675
-2.4942630075813677 <unk> ଏହି -0.16847086536280675
-2.643275562926236 <unk> ଓ -0.16847086536280675
-4.855710863854573 <unk> ରାଜା -0.16847086536280675
-2.327662062186201 <unk> ରେ -0.16847086536280675
-4.20268984166141 <unk> ଉଠି -0.16847086536280675
-3.6763063588736253 <unk> ଆପଣାର -0.16847086536280675
-3.903967733904471 <unk> ମାଗିଲା -0.16847086536280675
-3.655806333448307 <unk> ଲେଉଟି -0.16847086536280675
-3.551835758416502 <unk> ଗୃହ -0.16847086536280675
-2.5267014344145804 <unk> ? -0.16847086536280675
-3.509585795165665 <unk> ଉପସ୍ଥିତ -0.16847086536280675
-3.8686596041742893 <unk> ନାମକ -0.16847086536280675
-3.1756355040573125 <unk> ଏକ -0.16847086536280675
-2.993137566813567 <unk> ନିମନ୍ତେ -0.16847086536280675
-4.205130359582657 <unk> ହାତ -0.16847086536280675
-4.577281368880545 <unk> ପ୍ରସ୍ତୁତ -0.16847086536280675
-3.692940697134173 <unk> ଫାଶି -0.16847086536280675
-2.445961387152175 <unk> ହେଲା -0.16847086536280675
-4.914867747791667 <unk> ମାରେ -0.16847086536280675
-1.5692423495343861 <unk> ପାଇଁ -0.16847086536280675
-4.067892742215097 <unk> ପ୍ରବାହିତ -0.16847086536280675
-2.510196141980132 <unk> ପରି -0.16847086536280675
-2.5958422024585017 <unk> ତୁମ୍ଭେ -0.16847086536280675
-3.1544353770946154 <unk> ଅଧିକ -0.16847086536280675
-1.7179249286105864 <unk> ଏବଂ -0.16847086536280675
-4.428614766719692 <unk> ଏପରି -0.16847086536280675
-3.285424630489307 <unk> କଥା -0.16847086536280675
-2.558259049270747 <unk> ତୁମ୍ଭକୁ -0.16847086536280675
-4.296495012190956 <unk> ୟାଅ -0.16847086536280675
-4.098191763579157 <unk> ୟୁଦ୍ଧରେ -0.16847086536280675
-4.6645270247148884 <unk> କରିବାକୁ -0.16847086536280675
-3.6937454150982494 <unk> ଭଦେ -0.16847086536280675
-3.403530911881898 <unk> ଦିଏ -0.16847086536280675
-3.0966528429562112 <unk> ମଧ୍ଯରୁ -0.16847086536280675
-5.030698321713727 <unk> ମନୋନୀତ -0.16847086536280675
-3.1716225491006704 <unk> କଲେ -0.16847086536280675
-4.73013012450895 <unk> ଉତ୍ତମ -0.16847086536280675
-3.9716232443885273 <unk> ଅଗୁରୁ -0.16847086536280675
-3.822126070027967 <unk> ବାସନା -0.16847086536280675
-4.022531227992962 <unk> ସୁଶୋଭିତ -0.16847086536280675
-2.5416949220277374 <unk> ସେ -0.16847086536280675
-3.0287789684919746 <unk> ହେଉଛି -0.16847086536280675
-3.7325311974935746 <unk> ରାଜକୁମାରୀ -0.16847086536280675
-3.634860001824026 <unk> ହବେେ -0.16847086536280675
-1.5266261275923136 <unk> କରିବା -0.16847086536280675
-4.01288131437027 <unk> ଖଚିତ -0.16847086536280675
-3.4834726051271336 <unk> ନିକଟକୁ -0.16847086536280675
-3.1027186463737086 <unk> ତା -0.16847086536280675
-2.570278367542384 <unk> ପ୍ରବେଶ -0.16847086536280675
-3.3846453303277544 <unk> ବାହାର -0.16847086536280675
-1.718616903881675 <unk> କରନ୍ତୁ -0.16847086536280675
-3.1196745410552307 <unk> ପରିବର୍ତ୍ତନ -0.16847086536280675
-2.9655874609050805 <unk> ଫାଇଲଟି -0.16847086536280675
-1.6067886234051134 <unk> ନାହିଁ -0.16847086536280675
-1.7945193192365139 <unk> . -0.16847086536280675
-2.307580590746306 <unk> ସହିତ -0.16847086536280675
-4.851722353027443 <unk> ସୂଚନା -0.16847086536280675
-2.7066291905350983 <unk> ଟର୍ମିନାଲ -0.16847086536280675
-1.9798759911280905 <unk> କିମ୍ବା -0.16847086536280675
-2.5876739352521283 <unk> କେବଳ -0.16847086536280675
-3.262679783108375 <unk> ତାଲିକା -0.16847086536280675
-3.8604868455203754 <unk> ଜ୍ଞାତ -0.16847086536280675
-2.4017620814514005 <unk> ଅଟେ -0.16847086536280675
-3.024353589471409 <unk> ତାଲିକାରେ -0.16847086536280675
-3.655469174373132 <unk> apps -0.16847086536280675
-2.452886833277868 <unk> ହେବା -0.16847086536280675
-1.852612950605444 <unk> ଗୋଟିଏ -0.16847086536280675
-2.551456477028244 <unk> ଥିବା -0.16847086536280675
-3.2211750794905076 <unk> ଅଛି -0.16847086536280675
-2.4648642985033575 <unk> କି -0.16847086536280675
-2.4590715155980027 <unk> ଗୁଡିକ -0.16847086536280675
-3.5245866809198128 <unk> ଭିତରେ -0.16847086536280675
-4.611426837040842 <unk> ବନ୍ଦ -0.16847086536280675
-1.7883337801190753 <unk> ଆପଣ -0.16847086536280675
-4.740232276194282 <unk> ମେନୁବାରକୁ -0.16847086536280675
-2.6568587406781927 <unk> ଦ୍ବାରା -0.16847086536280675
-2.463688840741078 <unk> କରିପାରିବେ -0.16847086536280675
-3.0431362011442116 <unk> ମଧ୍ଯ -0.16847086536280675
-3.8529747816586184 <unk> ଅକ୍ଷମ -0.16847086536280675
-3.4266314339971067 <unk> ଥାଏ -0.16847086536280675
-3.707992795254579 <unk> ଏନକୋଡିଙ୍ଗ -0.16847086536280675
-4.398095360379609 <unk> ନାମ -0.16847086536280675
-3.706073372414858 <unk> ସତ୍ଯ -0.16847086536280675
-2.18446886346765 <unk> ଉଚିତ -0.16847086536280675
-4.5401389336838225 <unk> ଟର୍ମିନାଲରେ -0.16847086536280675
-2.5591381696104194 <unk> ଯଦି -0.16847086536280675
-3.109730893146297 <unk> ଟି -0.16847086536280675
-2.5337643029489474 <unk> ଏହାକୁ -0.16847086536280675
-2.7922166589164896 <unk> ସେହି -0.16847086536280675
-3.7261564138591283 <unk> ପାଠ୍ୟକୁ -0.16847086536280675
-3.068492165796938 <unk> ସ୍ଥିର -0.16847086536280675
-2.9571380455484397 <unk> କରେ -0.16847086536280675
-3.172575192795431 <unk> ହୋଇଥିବା -0.16847086536280675
-3.9394055443596105 <unk> ଦେଇପାରିବ -0.16847086536280675
-4.4898290191334285 <unk> ପରେ -0.16847086536280675
-3.504656693033979 <unk> ପୁନଃସ୍ଥାପନ -0.16847086536280675
-3.167203314455778 <unk> ସେଟ -0.16847086536280675
-3.8803900442302326 <unk> ଟେକ୍ସଟକୁ -0.16847086536280675
-5.128877853482425 <unk> ନୀରବ -0.16847086536280675
-3.505438993649108 <unk> ଏସ୍କେପ -0.16847086536280675
-3.9284043339595422 <unk> ୟେମିତି -0.16847086536280675
-3.531322776531608 <unk> ଦତ୍ତ -0.16847086536280675
-3.4896996323611287 <unk> ଇଚ୍ଛାମୁତାବକ -0.16847086536280675
-5.035758309197101 <unk> ଆକାରକୁ -0.16847086536280675
-3.54976562645902 <unk> ଦ୍ୱାରା -0.16847086536280675
-3.278259496510477 <unk> ଉଲ୍ଲେଖ -0.16847086536280675
-3.529653013136221 <unk> ସ୍ତମ୍ଭ -0.16847086536280675
-2.333466999414655 <unk> କୁ -0.16847086536280675
-3.485669878123548 <unk> ଏଥିରେ -0.16847086536280675
-3.78755538006527 <unk> not -0.16847086536280675
-5.056251727640076 <unk> ଡାହାଣ -0.16847086536280675
-3.986851400323385 <unk> ରଖିବା -0.16847086536280675
-4.23733422273373 <unk> ରେଖାଗୁଡିକର -0.16847086536280675
-3.8199304401307517 <unk> ଧାଡ଼ିଗୁଡ଼ିକୁ -0.16847086536280675
-3.483665161560182 <unk> ପୁରୁଣା -0.16847086536280675
-3.541347307117657 <unk> ଅଭାବ -0.16847086536280675
-4.709537557264641 <unk> ଆଦେଶ -0.16847086536280675
-3.5413876836998543 <unk> ଆଦେଶକୁ -0.16847086536280675
-3.969486089188536 <unk> ଆରମ୍ଭ -0.16847086536280675
-4.706388554433824 <unk> ସେଲ -0.16847086536280675
-2.567406489296931 <unk> ପ୍ରାରମ୍ଭ -0.16847086536280675
-2.026477790894015 <unk> ଲଗଇନ -0.16847086536280675
-3.5229876085760616 <unk> ଅପଡେଟ -0.16847086536280675
-3.6017095868027624 <unk> ସିଷ୍ଟମ -0.16847086536280675
-3.4806846423674402 <unk> ମୂଲ୍ଯ -0.16847086536280675
-4.454987959790059 <unk> ବ୍ଲକ -0.16847086536280675
-3.807427330064218 <unk> ଭୂଲମ୍ବ -0.16847086536280675
-3.6977316824943807 <unk> ରେଖାଙ୍କିତ -0.16847086536280675
-3.2332205846288673 <unk> ଫର୍ମାଟରେ -0.16847086536280675
-5.017950839173111 <unk> ଫଣ୍ଟ -0.16847086536280675
-3.6956866742273373 <unk> କଠିନ -0.16847086536280675
-3.990254079746144 <unk> ପ୍ରତିଛବି -0.16847086536280675
-3.5002308426006112 <unk> ପ୍ରକୃତ -0.16847086536280675
-3.736246883752684 <unk> ସୂଚିତ -0.16847086536280675
-3.0590010924228497 <unk> ଅର୍ଥ -0.16847086536280675
-2.8297192139936316 <unk> କିଛି -0.16847086536280675
-2.0032723197984383 <unk> ବ୍ଯବହାର -0.16847086536280675
-3.402647778561499 <unk> ବ୍ଯାକସ୍ପେସ -0.16847086536280675
-5.0372000574712406 <unk> Ascii -0.16847086536280675
-3.4249633900124383 <unk> ବିଲୋପ -0.16847086536280675
-4.086812367355861 <unk> ରଙ୍ଗଗୁଡିକ -0.16847086536280675
-4.961700386534275 <unk> ଟୋଗଲ -0.16847086536280675
-4.386125904775223 <unk> ପୁନଃସ୍ଥିର -0.16847086536280675
-5.100218722343763 <unk> ବେଗବର୍ଦ୍ଧକ -0.16847086536280675
-4.955324164942771 <unk> କଳା -0.16847086536280675
-2.1945629217085134 <unk> s -0.16847086536280675
-3.3741622322041183 <unk> d -0.16847086536280675
-3.5801793325700166 <unk> ସମୟରେ -0.16847086536280675
-3.7512033872447126 <unk> ଦେଖାଅ -0.16847086536280675
-5.037464094801951 <unk> ଅବରେଖନ -0.16847086536280675
-3.098776075246108 <unk> ରଖନ୍ତୁ -0.16847086536280675
-4.57906423556098 <unk> ଚୟନ -0.16847086536280675
-3.434280878094625 <unk> ଭୂଲ -0.16847086536280675
-2.8072133599352704 <unk> ସ୍ଥାପନ -0.16847086536280675
-4.148472030584817 <unk> କ୍ଲିକ -0.16847086536280675
-3.0108054834615454 <unk> ବିଫଳ -0.16847086536280675
-3.655381810391483 <unk> ବିନ୍ୟାସ -0.16847086536280675
-5.055101761949014 <unk> ଚଲାଇବା -0.16847086536280675
-3.584110565039728 <unk> ୱିଣ୍ଡୋକୁ -0.16847086536280675
-3.9193170170358984 <unk> ନିଷ୍ପାଦନ -0.16847086536280675
-4.563141435831601 <unk> ସମାପ୍ତ -0.16847086536280675
-4.621080439313825 <unk> ଖୋଲି -0.16847086536280675
-3.3972115293605722 <unk> ଆହ୍ବାନ -0.16847086536280675
-2.9742256782791476 <unk> ଯୀଶୁ -0.16847086536280675
