
\data\
ngram 1=7048
ngram 2=41461
ngram 3=3054

\1-grams:
-2.631535	!	-1.443475
-1.362539	,	-0.3447208
-1.119707	.	-1.173147
-2.977532	;	-0.2163527
-1.055988	</s>
-99	<s>	-0.6378938
-2.2762	?	-1.749955
-3.270737	A	-0.2181968
-4.319955	Ababaleki	-0.1003618
-4.064682	Abafana	-0.1003618
-4.319955	Abafundi	-0.1003618
-4.319955	Abaholi	-0.1003618
-4.064682	Abakwa	-0.1003618
-4.173827	Abalandeli	-0.1003618
-4.240774	Abalobi	-0.1003618
-3.696706	Abaningi	-0.1003618
-3.294649	Abantu	-0.1334463
-3.556527	Abanye	-0.1199086
-4.416865	Abashayeli
-4.416865	Abezindaba	-0.1003618
-4.416865	Absa	-0.1003618
-4.240774	Action	-0.1003618
-4.319955	Ad	-0.1003618
-4.064682	Afcon	-0.1786954
-4.173827	Affairs	-0.1003618
-3.346827	Africa	-0.1672354
-4.018925	African	-0.2082959
-3.233595	Afrika	-0.2313884
-3.814805	Aftonbladet	-0.1272405
-4.018925	Agasti	-0.20918
-3.977532	Age	-0.1003618
-4.240774	Agency	-0.1618575
-4.416865	Agriculture	-0.1003618
-4.416865	Ahmadinejad	-0.1003618
-4.319955	Ahs	-0.1003618
-3.939744	Ajax	-0.3859355
-3.696706	Ake	-0.1003618
-3.904982	Akekho	-0.1003618
-4.416865	Akufanele	-0.1003618
-3.977532	Akukho	-0.1595117
-3.939744	Akukhona	-0.1003618
-4.416865	Akumangalisi	-0.1003618
-4.416865	Akuyona	-0.1003618
-4.416865	Akuzange	-0.2082958
-4.319955	Akwaziwa	-0.1003618
-4.319955	Album	-0.1003618
-4.416865	Algeria	-0.1003618
-3.939744	Ali	-0.1003618
-4.319955	Alice	-0.2098442
-4.416865	Allah	-0.1003618
-4.240774	Allan	-0.2534701
-4.319955	Alliance	-0.2082959
-4.416865	Alokhu	-0.1003618
-4.240774	AmaJuda	-0.1003618
-4.173827	AmaKristu	-0.1003618
-4.018925	AmaMbatha	-0.2972427
-4.416865	Amabandla	-0.1003618
-4.173827	Amakhansela	-0.1003618
-4.416865	Amakhasi	-0.1003618
-3.740171	Amakhosi	-0.1509844
-4.416865	Amakomidi	-0.1003618
-4.064682	Amalunga	-0.1003618
-4.416865	Amanani	-0.1003618
-4.115835	Amandla	-0.1003618
-4.018925	Amanye	-0.1003618
-4.064682	Amanzi	-0.1003618
-4.319955	Amaphaphu	-0.1003618
-3.977532	Amaphoyisa	-0.1003618
-4.240774	Amaqembu	-0.1003618
-4.416865	Amazing	-0.1003618
-4.240774	Amazwe	-0.1003618
-4.416865	America	-0.1003618
-4.240774	American	-0.1003618
-4.240774	An	-0.1003618
-3.500411	Anc	-0.1549951
-4.416865	Angazi	-0.1003618
-4.416865	Angeke	-0.1003618
-4.416865	Antarctic	-0.1003618
-3.939744	Anton	-0.3317564
-4.416865	Apostle	-0.2082959
-4.416865	Applied	-0.2534701
-3.872797	April	-0.1978455
-3.939744	Arab	-0.1595117
-4.416865	Arabhiya	-0.1003618
-4.064682	Arabhu	-0.20918
-4.319955	Arabia	-0.1003618
-3.788476	Arrows	-0.1003618
-4.319955	Arvc	-0.1003618
-4.319955	Asazi	-0.1003618
-4.064682	Asikwazi	-0.1003618
-4.064682	Association	-0.2082959
-4.240774	At	-0.1003618
-4.319955	Athi	-0.1003618
-4.416865	Atm	-0.1003618
-4.319955	Atomic	-0.274337
-4.240774	August	-0.1856283
-4.416865	Augusto	-0.274337
-4.240774	Authority	-0.1003618
-4.173827	Awakening	-0.2082959
-4.319955	Award	-0.1003618
-4.416865	Awu	-0.1003618
-4.319955	Ayanda	-0.2082959
-4.064682	Ayikho	-0.1003618
-3.696706	B	-0.1786954
-4.240774	Baba	-0.2082959
-4.018925	Babe
-4.416865	Babona	-0.1003618
-3.587561	Bafana	-0.1911351
-4.319955	Bafokeng	-0.1003618
-4.173827	Bailey	-0.1618575
-3.788476	BakaJehova	-0.1003618
-4.416865	Bakhe	-0.1003618
-4.416865	Bakwa
-4.319955	Balale	-0.1003618
-4.416865	Baneminyaka	-0.1003618
-4.319955	Baningi	-0.1003618
-4.115835	Bank	-0.1003618
-4.416865	Baphinde	-0.1003618
-4.064682	Baroka	-0.3067542
-4.416865	Base	-0.1003618
-3.717895	Bathi	-0.1003618
-4.240774	Baye	-0.1003618
-4.319955	Bekukhona	-0.1003618
-4.416865	Bekuthi	-0.1003618
-4.416865	Bekwa	-0.1003618
-3.939744	Bese	-0.1003618
-4.416865	Bhalisela	-0.274337
-4.018925	Bheka	-0.1516621
-4.416865	Bhuti	-0.274337
-4.240774	Bible	-0.1003618
-4.064682	Bidvest	-0.3859355
-4.173827	Big	-0.1856283
-4.319955	Bika
-4.018925	Bildt	-0.1003618
-4.240774	Black	-0.1003618
-4.319955	Bloemfontein	-0.2534701
-4.416865	Bm	-0.1003618
-4.319955	Board	-0.1003618
-4.240774	Bobabili	-0.1003618
-4.416865	Bona	-0.1003618
-4.416865	Bond	-0.1003618
-4.240774	Bongani	-0.274337
-4.173827	Bonginkosi	-0.274337
-4.018925	Bongiwe	-0.3067542
-4.064682	Bonke	-0.1786954
-4.319955	Bonnke	-0.1003618
-4.416865	Bonpasse	-0.1003618
-4.319955	Booysen	-0.1003618
-4.319955	Brazil	-0.1786954
-4.416865	Brian	-0.274337
-4.319955	Britain	-0.1786954
-4.416865	British
-4.064682	Brussels	-0.1003618
-4.240774	Bujram	-0.1003618
-4.416865	Bukenya	-0.1003618
-4.416865	Business	-0.1003618
-3.763653	Buthelezi	-0.1370596
-4.240774	Buyani	-0.274337
-3.696706	C	-0.1786954
-3.904982	Cabanga	-0.1003618
-3.696706	Caf	-0.2951421
-4.319955	Calmfors	-0.1003618
-4.416865	Cameron	-0.1003618
-4.173827	Cameroon	-0.1003618
-3.638714	Cape	-0.4409008
-4.319955	Care	-0.1003618
-4.115835	Carl	-0.3784088
-4.416865	Cathedral	-0.1003618
-4.416865	Cela	-0.1003618
-4.240774	Celtic	-0.1003618
-4.416865	Center	-0.1003618
-4.018925	Centre	-0.1377649
-3.872797	Cha	-0.1334463
-4.416865	Challenge	-0.1003618
-3.788476	Champions	-0.4528823
-4.240774	Charter	-0.1003618
-3.294649	Chiefs	-0.1891707
-4.319955	China	-0.1003618
-4.416865	Chinese	-0.1003618
-4.064682	Chippa	-0.3317564
-3.939744	Christian	-0.1003618
-4.416865	Christina	-0.1003618
-3.487446	Church	-0.1456482
-3.872797	Cishe	-0.1003618
-3.620985	City	-0.1003618
-4.115835	Clock	-0.1618575
-4.416865	Coast	-0.1003618
-4.416865	Coffee	-0.1003618
-4.240774	Combined	-0.274337
-4.416865	Commission	-0.1003618
-4.064682	Community	-0.1003618
-4.240774	Confederations	-0.274337
-4.319955	Congress	-0.1003618
-4.240774	Cosmos	-0.1003618
-4.064682	Council	-0.1786954
-4.240774	Cps	-0.1003618
-4.173827	Cup	-0.1003618
-4.319955	Cyclone	-0.2082959
-4.064682	D	-0.1003618
-3.939744	Da	-0.1786954
-4.319955	Dagbladet	-0.1003618
-3.939744	Dagens	-0.6214468
-4.115835	Daily	-0.1618575
-4.416865	Dam	-0.1003618
-3.717895	Daniel	-0.1003618
-4.416865	Dar
-4.416865	Davids	-0.1003618
-4.018925	Day	-0.1509843
-4.319955	De	-0.1003618
-4.064682	December	-0.1595117
-4.416865	Deckville	-0.1003618
-4.416865	Defence	-0.274337
-4.416865	Democratic	-0.1003618
-4.416865	Denmark	-0.1003618
-3.904982	Development	-0.1003618
-4.319955	Digital	-0.274337
-4.416865	Dineo	-0.1003618
-4.416865	Dingane	-0.1003618
-4.240774	Dingiswayo	-0.1003618
-3.939744	Dj	-0.1939906
-4.416865	Djwhal
-3.740171	Dladla	-0.2041785
-3.657197	Dlamini	-0.1468738
-4.319955	Dlebe	-0.2082959
-4.416865	Dlekezele	-0.1003618
-4.319955	Dlomo	-0.1003618
-4.173827	Doctor	-0.1003618
-4.319955	Dokotela	-0.1003618
-4.319955	Dolly	-0.1003618
-4.018925	Drop	-0.1595117
-3.904982	Dube	-0.1456536
-4.416865	Dube-Ncube	-0.1003618
-4.416865	Duke	-0.1003618
-3.740171	Duma	-0.1003618
-4.416865	Dumisa	-0.2082959
-3.872797	Dundee	-0.1377649
-4.240774	Dunywa	-0.1003618
-4.319955	Durban	-0.1003618
-4.319955	E	-0.2082958
-4.416865	ESweden	-0.1003618
-4.319955	Earth	-0.1003618
-4.115835	East	-0.1003618
-4.416865	Ec	-0.1003618
-4.416865	Ecce	-0.2534701
-4.240774	Economic	-0.1003618
-4.416865	Education	-0.274337
-4.416865	Edward	-0.1003618
-3.696706	Eff	-0.1003618
-4.319955	Egypt	-0.1786954
-4.240774	Einstein	-0.2082959
-4.115835	Ekhuluma	-0.1003618
-4.064682	Eks	-0.274337
-4.115835	Ekugcineni	-0.1003618
-4.240774	Ekupheleni	-0.1003618
-4.240774	Ekuqaleni	-0.1003618
-4.416865	Ekuvukeni	-0.2082959
-4.319955	Elinye	-0.1003618
-4.319955	Elizabeth	-0.274337
-4.416865	Emandulo	-0.1003618
-4.416865	Emazweni	-0.1003618
-4.416865	Emhlabeni	-0.1003618
-4.240774	Eminyakeni	-0.1786954
-4.319955	Eminye	-0.1003618
-4.416865	Emmanuel	-0.2082958
-4.240774	Empeleni	-0.1003618
-4.416865	Employment	-0.2534701
-3.904982	Emu	-0.1825334
-3.740171	Emva	-0.1003618
-4.115835	Encwadini	-0.1003618
-4.416865	Endleleni	-0.1003618
-4.319955	Endumeni	-0.1003618
-3.620985	Enye	-0.1003618
-4.018925	Ephakathi	-0.1509843
-4.416865	Eqinisweni	-0.274337
-4.064682	Eric	-0.3784088
-4.173827	Ertugral	-0.1003618
-4.319955	Esidimeni	-0.1003618
-4.416865	Esihlokweni	-0.1003618
-3.904982	Esikhathini	-0.1003618
-4.173827	Esinye	-0.1003618
-4.416865	Eskilstuna	-0.1003618
-4.018925	Eskom	-0.1377649
-3.406141	Eu	-0.1913395
-3.513775	Europe	-0.2290277
-3.977532	European	-0.1509844
-4.416865	Eva	-0.274337
-3.842834	Expressen	-0.155893
-4.416865	Ezicacile	-0.1003618
-4.115835	Ezimnyama	-0.1003618
-4.416865	Eziningi	-0.1003618
-4.018925	Ezinye	-0.1003618
-4.319955	Ezisematheni	-0.274337
-4.319955	F	-0.1003618
-4.064682	Facebook	-0.1618575
-4.319955	Faka	-0.1003618
-4.319955	Falköpings	-0.1003618
-3.904982	Farm	-0.1377649
-4.319955	Faya	-0.274337
-3.788476	Fc	-0.1003618
-4.115835	February	-0.1702034
-4.416865	Feleba	-0.1003618
-4.416865	Fellowship	-0.1003618
-4.319955	Financial	-0.1003618
-4.319955	Finland	-0.1003618
-4.115835	Flames	-0.1003618
-3.788476	Fm	-0.1702034
-4.319955	Fnb	-0.1003618
-4.173827	Foreign	-0.1509843
-4.240774	Forum	-0.1003618
-4.240774	France	-0.1003618
-3.939744	Free	-0.4295614
-4.115835	Freedom	-0.2534701
-3.069535	Funda	-0.2144711
-3.462623	Futhi	-0.1115312
-4.240774	G	-0.1003618
-4.416865	Gabon	-0.1003618
-4.115835	Gama	-0.1003618
-3.717895	Gardell	-0.1199086
-3.977532	Gauteng	-0.1939906
-4.416865	Gcaba	-0.1003618
-4.240774	Gcwensa	-0.1003618
-4.240774	General	-0.1003618
-4.240774	Generations	-0.1003618
-4.416865	George	-0.1003618
-4.240774	Georgia	-0.1786954
-4.416865	Germany	-0.1003618
-4.319955	Ghana	-0.1003618
-4.240774	Glencoe	-0.1618575
-4.416865	Global	-0.1003618
-4.240774	Glug	-0.1003618
-4.319955	God	-0.1003618
-4.416865	Gogo	-0.1003618
-4.064682	Golden	-0.3784088
-4.416865	Google	-0.1003618
-4.319955	Gospel
-4.416865	Gqokwana	-0.1003618
-4.416865	Grade	-0.1003618
-4.319955	Greece	-0.1003618
-4.416865	Greg	-0.2534701
-4.319955	Grishen	-0.1003618
-4.416865	Gumbi	-0.1003618
-4.018925	Gupta	-0.1003618
-4.416865	Gwala	-0.1003618
-4.018925	Gwebu	-0.1003618
-4.018925	Hadebe	-0.1003618
-4.416865	Hall	-0.1003618
-4.115835	Hamas	-0.1003618
-4.416865	Hamba	-0.1003618
-4.416865	Hambani	-0.274337
-4.416865	Hans
-4.416865	Health	-0.1003618
-4.173827	Heritage	-0.1003618
-4.173827	Hezbollah	-0.1003618
-4.416865	Hhayi	-0.1003618
-4.115835	High	-0.1003618
-4.319955	Highlands	-0.274337
-4.319955	Hinduism	-0.1003618
-4.416865	History	-0.1003618
-4.319955	Hiv	-0.1003618
-4.416865	Hlabelamadlozi	-0.1003618
-4.240774	Hlakanipha	-0.274337
-4.416865	Hlala	-0.1003618
-3.977532	Hlatshwayo	-0.1003618
-4.416865	Hlela	-0.1003618
-4.416865	Hlengwa	-0.1003618
-4.416865	Hlola
-3.121298	Holger	-1.466545
-4.319955	Homo	-0.1003618
-4.416865	Hultqvist	-0.1003618
-4.319955	Hädinge	-0.1786954
-4.416865	Häxriket	-0.1003618
-2.965847	I	-0.1175482
-4.416865	I-Facebook	-0.1003618
-4.319955	I-Idp	-0.1003618
-3.763653	IBhayibheli	-0.1604876
-4.416865	IKhomishana	-0.1003618
-4.115835	IMeya	-0.1003618
-4.319955	INkosi
-4.240774	Ibandla	-0.1003618
-4.416865	Ibhere	-0.274337
-4.240774	Icala	-0.1003618
-3.657197	Idlozi	-0.1003618
-4.416865	Idolobha	-0.1003618
-4.319955	Iec	-0.1003618
-3.763653	Ifp	-0.1003618
-3.977532	Igama	-0.2098442
-3.939744	Ii	-0.1618575
-4.064682	Iii	-0.1003618
-4.173827	Ikhansela	-0.1003618
-4.240774	Ikomidi	-0.1003618
-4.416865	Imali	-0.1003618
-4.416865	Imam	-0.1003618
-4.416865	Imbangela
-4.416865	Imbeleko	-0.1003618
-3.977532	Imibiko	-0.1003618
-4.416865	Imihlangano	-0.1003618
-4.115835	Imininingwane	-0.1003618
-4.064682	Imiphumela	-0.1003618
-4.416865	Imisebenzi	-0.1003618
-4.173827	Imithetho	-0.1003618
-4.064682	Impendulo	-0.2082959
-4.115835	Impi	-0.1003618
-4.319955	Impilo	-0.1003618
-4.416865	Improved
-4.416865	Imvelaphi	-0.1003618
-3.474857	In	-0.1191973
-4.416865	Inani	-0.1003618
-4.115835	Incwadi	-0.1003618
-4.416865	Indaba	-0.1003618
-4.240774	Indawo	-0.1003618
-3.740171	Indlela	-0.1003618
-4.319955	Indlu	-0.1003618
-4.240774	Information	-0.1003618
-3.513775	Ingabe	-0.1003618
-4.416865	Ingabe-ke	-0.1003618
-3.977532	Ingelosi	-0.1003618
-4.416865	Ingozi	-0.1003618
-4.416865	Ingxenye	-0.1003618
-4.018925	Inhlangano	-0.1003618
-3.842834	Inhlekelele	-0.1516622
-4.416865	Inhlolo-vo	-0.1003618
-4.115835	Inhloso	-0.1003618
-4.018925	Iningi	-0.1003618
-4.416865	Injongo	-0.1003618
-4.319955	Inkampani	-0.1003618
-3.904982	Inkantolo	-0.1433812
-4.416865	Inkinga	-0.1003618
-4.115835	Inkosi	-0.1003618
-4.319955	Inkulumo	-0.1003618
-4.319955	Institute	-0.1786954
-3.904982	International	-0.1509843
-4.173827	Into	-0.1003618
-4.416865	Intsha	-0.1003618
-4.319955	Ipayipi	-0.1003618
-4.064682	Iphephandaba	-0.1003618
-4.173827	Iphinde	-0.1003618
-3.676502	Iqembu	-0.1003618
-4.240774	Iqiniso	-0.1003618
-3.541804	Iran	-0.1316407
-4.416865	Iranian	-0.1003618
-4.416865	Iron	-0.2534701
-4.240774	Irvin	-0.2534701
-4.240774	IsAmbulo	-0.1003618
-4.416865	Isambulo	-0.1003618
-3.161592	IsiSwidi	-0.2412504
-4.064682	Isibonelo	-0.1003618
-3.977532	Isifundo	-0.1003618
-4.240774	Isigaba	-0.1003618
-4.173827	Isigeniso	-0.1003618
-3.474857	Isihloko	-0.1537388
-3.788476	Isikhathi	-0.1334463
-4.173827	Isikhulu	-0.1003618
-4.319955	Isiko	-0.1003618
-4.319955	Isikole	-0.1003618
-4.416865	Isimanga	-0.1003618
-3.872797	Isimo	-0.1272404
-4.319955	Isinyathelo	-0.1003618
-4.319955	Isiprofetho	-0.1003618
-4.319955	Isitatimende	-0.1003618
-4.416865	Isithakazelo	-0.1003618
-4.319955	Isithelo	-0.274337
-4.173827	Isithombe	-0.1003618
-4.416865	Isizwe	-0.1003618
-3.763653	Islam	-0.2049655
-4.115835	Islamic	-0.1509843
-4.319955	Islamism	-0.1003618
-3.842834	Islamist	-0.1338802
-3.676502	Islamists	-0.1334463
-4.115835	Isono	-0.1003618
-4.173827	Isonto	-0.1509844
-4.115835	Israeli	-0.1003618
-3.226533	Israyeli	-0.2227907
-3.278562	It	-0.1003618
-4.240774	Itamar	-0.4753188
-4.416865	Ithemba	-0.1003618
-4.319955	Ithi	-0.1003618
-4.416865	Itumeleng	-0.2534701
-4.240774	Iv	-0.1003618
-3.904982	Iviki	-0.1786954
-4.319955	Izakhamuzi
-4.416865	Izibongo	-0.2082958
-4.319955	Izihlahla	-0.1003618
-4.240774	Izikhathi	-0.1003618
-4.173827	Izikhukhula	-0.1003618
-4.416865	Izimvula	-0.1003618
-4.173827	Izincwadi	-0.1003618
-3.977532	Izindaba	-0.1003618
-4.319955	Izindawo	-0.1003618
-4.319955	Izingane	-0.1003618
-4.240774	Izinhlangano	-0.1786954
-4.416865	Izinhlekelele	-0.1003618
-4.319955	Izinhlelo	-0.1003618
-4.319955	Izinkinga	-0.1003618
-4.018925	Izinto
-4.416865	Izisulu	-0.1003618
-4.240774	Izolo	-0.1003618
-3.696706	Izwe	-0.1300221
-4.240774	Izwi	-0.1003618
-3.814805	Jacob	-0.3784088
-3.872797	January	-0.1456536
-4.240774	Januwari	-0.1786954
-4.173827	Jihad	-0.1003618
-4.115835	Jikelele	-0.1003618
-3.939744	Johane	-0.2082958
-4.416865	Johannesburg	-0.274337
-3.939744	Johansson	-0.1300221
-4.416865	John
-4.173827	Jordan	-0.1786954
-4.319955	Julayi	-0.2082958
-4.416865	Julius	-0.1003618
-3.676502	July	-0.310567
-3.977532	June	-0.1456536
-4.319955	Juni	-0.2534701
-3.696706	Kaizer	-0.6869655
-4.173827	Kakade	-0.1003618
-4.416865	Kakukho	-0.1003618
-4.115835	Kanjalo	-0.1003618
-4.416865	Kanjani	-0.1003618
-3.513775	Kanti	-0.1003618
-4.018925	Kanye	-0.1003618
-4.416865	Kapa	-0.1003618
-4.416865	Karam	-0.1003618
-4.416865	Karl-Johan
-4.240774	Karlsson	-0.1786954
-4.319955	Kasingeneni	-0.1003618
-4.416865	Kasiyeni	-0.1003618
-4.319955	Kekana	-0.1003618
-4.319955	Kepha	-0.2082958
-3.977532	Khali	-0.1003618
-4.416865	Khangela	-0.1003618
-4.240774	Khanyile	-0.1003618
-4.416865	Kheswa	-0.1003618
-4.240774	Khompela	-0.1003618
-3.696706	Khona	-0.1199086
-3.904982	Khona-ke	-0.1003618
-3.977532	Khoza	-0.1003618
-4.319955	Khubisa	-0.1003618
-3.487446	Khumalo	-0.1456482
-3.842834	Khumbula	-0.1618575
-4.319955	Khune	-0.1003618
-4.416865	Kidumbaki	-0.1003618
-4.416865	Knockout	-0.1003618
-2.925503	Kodwa	-0.1043071
-4.416865	Komunye	-0.1003618
-4.115835	Kong	-0.1003618
-3.657197	Konke	-0.1692605
-3.977532	Korea	-0.20918
-4.319955	Korinte	-0.274337
-3.977532	Kristu	-0.1334463
-3.676502	Ku	-0.1249359
-4.240774	Kuba	-0.1003618
-3.763653	Kubalulekile	-0.1272404
-3.842834	Kube	-0.1003618
-3.620985	Kubikwa	-0.1003618
-3.842834	Kubonakala	-0.1003618
-4.416865	Kubonisa	-0.1003618
-3.842834	Kubukeka	-0.1003618
-4.319955	Kufana	-0.1003618
-3.620985	Kufanele	-0.1003618
-4.319955	Kukhanya	-0.1003618
-4.416865	Kukholakala	-0.1003618
-3.167667	Kukhona	-0.1135932
-4.064682	Kulabo	-0.1003618
-4.319955	Kule	-0.1003618
-4.173827	Kulesi	-0.1003618
-4.416865	Kulezi	-0.1003618
-3.788476	Kulindeleke	-0.1003618
-4.173827	Kulo	-0.1003618
-4.416865	Kulomdlalo	-0.1003618
-4.319955	Kulula	-0.1003618
-4.319955	Kumanje	-0.1003618
-4.173827	Kumayelana	-0.1003618
-3.603952	Kumele	-0.1003618
-4.319955	Kumelwe	-0.1003618
-4.173827	Kunabantu	-0.1003618
-4.173827	Kunalokho	-0.1003618
-4.319955	Kundalini	-0.1003618
-4.416865	Kunene	-0.1003618
-4.416865	Kunezindlela	-0.1003618
-3.977532	Kungaba	-0.1786954
-4.416865	Kungabe	-0.1003618
-4.319955	Kungakapheli	-0.1003618
-3.620985	Kungani	-0.121339
-4.173827	Kungase	-0.1003618
-4.319955	Kungcono	-0.1003618
-4.416865	Kungenye	-0.1003618
-4.173827	Kungenzeka	-0.2082958
-4.240774	Kuningi	-0.1003618
-4.319955	Kuphakathi	-0.1003618
-4.416865	Kuphela	-0.1003618
-4.240774	Kuphinde	-0.1003618
-4.416865	Kuphose	-0.1003618
-4.319955	Kuqopheke	-0.1003618
-4.416865	Kushaqeke	-0.1003618
-4.319955	Kusho	-0.1003618
-4.416865	Kusobala	-0.2534701
-4.416865	Kusuka	-0.1003618
-3.904982	Kusukela	-0.1003618
-3.872797	Kuthe	-0.1003618
-3.556527	Kuthiwa	-0.1186608
-4.416865	Kutsho	-0.1003618
-4.319955	Kutshoni	-0.1003618
-4.416865	Kuvele	-0.1003618
-4.416865	Kuvuke	-0.1003618
-4.416865	Kuyakhathaza	-0.2082959
-4.416865	Kuyathakazelisa	-0.1003618
-3.904982	Kuye	-0.1003618
-4.115835	Kuyenzeka	-0.1003618
-4.416865	Kuyijoka	-0.1003618
-4.416865	Kuyini
-3.286531	Kuyinto	-0.1091378
-4.416865	Kuyo	-0.1003618
-4.115835	Kuyoba	-0.1618575
-4.416865	Kuyothi	-0.1003618
-4.416865	Kuzokhumbuleka	-0.1003618
-4.416865	Kuzothi	-0.1003618
-4.064682	KwaZulu	-0.2648096
-4.064682	KwaZulu-Natal	-0.1003618
-3.814805	Kwaba	-0.1003618
-4.319955	Kwabase	-0.274337
-4.018925	Kwabe	-0.1003618
-4.416865	Kwakukhona	-0.1003618
-4.416865	Kwakungekho	-0.1003618
-4.416865	Kwakungenxa	-0.1003618
-4.115835	Kwakuwusuku	-0.1003618
-4.416865	Kwakuyoba	-0.1003618
-4.416865	Kwase	-0.1003618
-4.018925	Kwathi	-0.1003618
-4.416865	Kwathunyelwa	-0.2082959
-4.240774	Kweminye	-0.1003618
-4.416865	Kwenye	-0.1003618
-4.416865	Kwenza	-0.1003618
-4.416865	Kwenzeka	-0.1003618
-4.416865	Kwenziwa	-0.1003618
-3.977532	Kwesinye	-0.1003618
-4.173827	Kzn	-0.1003618
-4.115835	La	-0.1003618
-3.814805	Laba	-0.1334463
-4.416865	Labantu	-0.1003618
-3.763653	Labo	-0.1003618
-4.115835	Langa	-0.1509843
-3.513775	Lapha	-0.1003618
-3.270737	Lapho	-0.1003618
-4.416865	Lars	-0.2534701
-4.416865	Lavrov	-0.1003618
-4.240774	Lawa	-0.1003618
-3.365713	Le	-0.1481677
-4.416865	League	-0.1003618
-4.416865	Lebanon	-0.1003618
-3.872797	Leli	-0.1003618
-4.018925	Leliqembu	-0.1003618
-4.240774	Lemidlalo	-0.1003618
-3.638714	Lena	-0.1003618
-4.319955	Lendawo	-0.1003618
-4.173827	Lenhlekelele	-0.1003618
-3.740171	Lensizwa	-0.1003618
-4.416865	Leopard	-0.1003618
-3.462623	Lesi	-0.1003618
-4.416865	Leyo	-0.1003618
-3.541804	Lezi	-0.1003618
-4.173827	Lezindaba	-0.1003618
-4.416865	Libuye	-0.1003618
-4.416865	Lifa	-0.1003618
-4.416865	Like	-0.1003618
-4.319955	Lindeborg	-0.1003618
-4.416865	Lindelihle	-0.1003618
-4.416865	Lisenethini	-0.274337
-4.319955	Lithe	-0.1003618
-3.462623	Lo	-0.121339
-4.416865	Loba	-0.1003618
-3.527563	Lokho	-0.1354732
-2.791038	Lokhu	-0.111829
-4.173827	Lolu	-0.1003618
-4.416865	Lolucwaningo	-0.1003618
-4.115835	Lomcimbi	-0.1003618
-4.319955	Lomdlali	-0.1003618
-4.115835	Lomdlalo	-0.1003618
-4.319955	Lomhlangano	-0.1003618
-4.416865	Lomphumela	-0.1003618
-4.416865	Lomqeqeshi	-0.1003618
-4.416865	Lomqhudelwano	-0.1003618
-3.904982	Lona	-0.1003618
-4.416865	London	-0.1003618
-4.240774	Lonke	-0.1003618
-4.416865	Lowesifazane	-0.1003618
-4.416865	Lowesilisa	-0.1003618
-3.872797	Lowo	-0.1003618
-4.319955	Lwazi	-0.2082958
-4.173827	M	-0.2534701
-4.173827	Mabhida	-0.2082958
-4.319955	Mabizela	-0.1003618
-4.319955	Madela	-0.2082958
-4.416865	Madlala
-4.319955	Madonsela	-0.2082958
-4.064682	Mageba	-0.1003618
-4.173827	Magnus	-0.1003618
-4.064682	Magwaza	-0.1509843
-3.872797	Mahaye	-0.1300221
-4.018925	Mahlabathini	-0.1433812
-4.240774	Mahlangu	-0.1003618
-4.115835	Malema	-0.1509844
-3.939744	Malinga	-0.1003618
-4.416865	Mama	-0.1003618
-4.416865	Mambatheni	-0.1003618
-3.904982	Mamelodi	-0.7305914
-4.240774	Manager	-0.1003618
-4.115835	Mandela	-0.1509843
-4.173827	Mandla	-0.1003618
-4.416865	Mangcengeza	-0.1003618
-4.416865	Maningi	-0.1003618
-3.041201	Manje	-0.1162886
-4.416865	Manor	-0.274337
-4.173827	Manyosi	-0.2082959
-4.416865	Maphakathi	-0.1003618
-4.018925	March	-0.1003618
-4.064682	Marcus	-0.2082959
-4.416865	Marikana
-4.319955	Marizburg	-0.2082958
-4.115835	Mashi	-0.2082958
-4.416865	Mashiba	-0.1003618
-4.240774	Masuku	-0.1003618
-4.416865	Matewu	-0.1003618
-4.319955	Mathebula	-0.1003618
-4.416865	Matwister	-0.1003618
-4.416865	Mawana	-0.1003618
-3.842834	May	-0.1618575
-4.018925	Mayelana	-0.1003618
-4.416865	Mazibuko	-0.1003618
-4.319955	Mbasa	-0.1003618
-3.010325	Mbatha	-0.2475851
-4.115835	Mbatheni	-0.1618575
-3.842834	Mbeje	-0.2028147
-4.416865	Mbhizi	-0.1003618
-4.319955	Mbokazi	-0.1003618
-4.416865	Mbudlele	-0.1003618
-3.977532	Mchunu	-0.1003618
-4.416865	Melika	-0.1003618
-4.416865	Melmoth	-0.1003618
-4.115835	Messina	-0.1509844
-4.319955	Metro	-0.2082958
-3.977532	Meya	-0.1003618
-4.240774	Meyi	-0.1003618
-4.173827	Mfu	-0.1003618
-4.416865	Mfundisi	-0.1003618
-4.416865	Mgabadeli	-0.1003618
-4.416865	Mgqumeni	-0.1003618
-4.173827	Mhlakazanhlansi	-0.2335204
-3.977532	Mhlawumbe	-0.1003618
-4.240774	Mhlongo	-0.1003618
-4.173827	Middle	-0.3067543
-4.018925	Million	-0.1003618
-4.018925	Mina	-0.1003618
-4.319955	Ministry	-0.1003618
-4.064682	Mkhize	-0.1618575
-4.319955	Mkhulu	-0.1003618
-4.416865	Mmangalelwa	-0.2534701
-4.416865	Mmm	-0.1003618
-4.115835	Mngane	-0.1003618
-4.416865	Mngeni	-0.1003618
-4.173827	Mnu	-0.1003618
-3.676502	Mnuz	-0.1952497
-4.319955	Mnyango	-0.1003618
-4.416865	Molefe	-0.1003618
-4.173827	Mondle	-0.1786954
-4.416865	Mondli	-0.1003618
-4.173827	Mongameli	-0.1003618
-4.416865	Morrison	-0.1003618
-4.416865	Motaung	-0.1003618
-4.416865	Motupa	-0.1003618
-4.240774	Moya	-0.2082958
-4.416865	Mpande	-0.1003618
-3.977532	Mpangazitha	-0.1595117
-4.416865	Mpikiswano	-0.274337
-4.319955	Mpumalanga	-0.1003618
-3.939744	Ms	-0.1003618
-4.416865	Mseleku	-0.2082959
-4.319955	Msibi	-0.1003618
-4.319955	Mthembu	-0.1003618
-4.416865	Mthetho	-0.1003618
-4.240774	Mthethwa	-0.1003618
-4.416865	Mthimkhulu	-0.1003618
-4.173827	Mthiyane	-0.1003618
-3.788476	Mthombeni	-0.155893
-4.064682	Mtn	-0.1003618
-4.416865	Mtshali	-0.2082959
-4.018925	Muslim	-0.1509843
-4.173827	Myeni	-0.1003618
-4.173827	Mzinyathi	-0.2648096
-4.240774	N	-0.2082958
-4.416865	Nakhu	-0.1003618
-3.337684	Nakuba	-0.1003618
-4.416865	Namanje	-0.1003618
-4.240774	Namhlanje	-0.1786954
-3.740171	Namuhla	-0.1003618
-4.240774	Nanka	-0.1003618
-4.115835	Nanzelela	-0.2082959
-4.064682	Naphezu	-0.1003618
-4.319955	Nasi	-0.1003618
-3.638714	Natal	-0.139507
-4.240774	Natali	-0.1003618
-4.173827	Nathi	-0.1618575
-4.416865	Nation	-0.1003618
-3.740171	National	-0.1604876
-4.416865	Nations	-0.1003618
-3.939744	Nato	-0.1003618
-4.319955	Natu	-0.1786954
-4.416865	Nazi	-0.1003618
-4.416865	Nceku	-0.2534701
-4.173827	Ncube	-0.1003618
-4.416865	Ncwane	-0.1003618
-3.872797	Ndaba	-0.1272404
-4.319955	Ndabezitha	-0.1003618
-4.240774	Ndlela	-0.1618575
-3.740171	Ndlovu	-0.2082959
-4.416865	Ndoro	-0.1003618
-3.763653	Ndumeni	-0.1229954
-4.416865	Ndwandwe	-0.1003618
-4.319955	Ne
-3.977532	Nedbank	-0.3232629
-4.319955	Nelson	-0.2534701
-3.763653	New	-0.4063871
-3.696706	News	-0.1003618
-3.939744	Newsblog	-0.1003618
-3.788476	Nfp	-0.1786954
-3.696706	Ngabe	-0.1509844
-3.416865	Ngakho	-0.111984
-3.657197	Ngakho-ke	-0.1334463
-4.319955	Ngakusasa	-0.1003618
-4.319955	Ngale	-0.274337
-4.064682	Ngaleso	-0.2743371
-4.416865	Ngalesosikhathi	-0.1003618
-4.319955	Ngalokho	-0.1003618
-4.416865	Ngamanye	-0.274337
-4.416865	Ngaphakathi	-0.1003618
-4.018925	Ngaphambi	-0.1003618
-4.018925	Ngaphandle	-0.1433812
-4.416865	Ngaphansi	-0.1003618
-3.587561	Ngaphezu	-0.1618575
-4.240774	Ngasekuqaleni	-0.1003618
-4.416865	Ngaso	-0.274337
-4.416865	Ngcobo	-0.1003618
-4.416865	Ngculaza	-0.1003618
-4.240774	Nge	-0.1003618
-4.173827	Ngeke	-0.1003618
-4.240774	Ngema	-0.1003618
-4.115835	Ngemuva	-0.1003618
-3.717895	Ngemva	-0.1249359
-4.416865	Ngenkathi	-0.2082959
-3.788476	Ngenxa	-0.1003618
-4.240774	Ngeshwa	-0.1003618
-3.904982	Ngesikhathi	-0.1003618
-4.319955	Ngesinye	-0.274337
-4.240774	Ngeviki	-0.1003618
-4.115835	Ngezinye	-0.274337
-4.173827	Ngibona	-0.1003618
-4.416865	Ngicabanga	-0.2082958
-4.319955	Ngicela	-0.1003618
-4.240774	Ngifuna	-0.1003618
-4.416865	Ngikholwa	-0.1003618
-3.814805	Ngisho	-0.1003618
-4.416865	Ngithi	-0.1003618
-3.657197	Ngo	-0.1003618
-4.319955	Ngo-December	-0.1003618
-4.416865	Ngo-February	-0.1003618
-3.977532	Ngoba	-0.1003618
-4.319955	Ngobese	-0.1003618
-4.018925	Ngokombiko	-0.1786954
-4.240774	Ngokomthetho	-0.1003618
-3.977532	Ngokuba	-0.1377649
-4.240774	Ngokuhamba	-0.1003618
-4.319955	Ngokuphathelene	-0.1003618
-4.240774	Ngokushesha	-0.1003618
-3.541804	Ngokusho	-0.1003618
-4.240774	Ngokusobala	-0.1786954
-4.416865	Ngokuvamile	-0.1003618
-4.115835	Ngokwemibiko	-0.1003618
-4.173827	Ngokwesibonelo	-0.1003618
-4.173827	Ngokwesitatimende	-0.1003618
-4.416865	Ngongoma	-0.1003618
-3.842834	Ngonyaka	-0.1334463
-4.416865	Ngoza	-0.1003618
-4.173827	Ngqongqoshe	-0.1003618
-4.319955	Ngu	-0.1003618
-4.416865	Ngubani	-0.1003618
-4.416865	Nguni	-0.1003618
-4.416865	Ngwenya	-0.1003618
-4.115835	Nhlanhla	-0.1786954
-4.115835	Nhlazatshe	-0.1702034
-4.173827	Nhleko	-0.1003618
-4.416865	Nicolson	-0.1003618
-4.416865	Niekerk	-0.1003618
-4.319955	Nigeria	-0.1003618
-3.105111	Nilsson	-0.1003618
-4.115835	Nina	-0.1003618
-4.416865	Ningizimu	-0.274337
-4.416865	Njalo	-0.1003618
-4.319955	Njengamanje	-0.1003618
-4.416865	Njengo	-0.1003618
-3.294649	Njengoba	-0.1003618
-4.240774	Nkandla	-0.1003618
-4.416865	Nkk	-0.1003618
-4.240774	Nkomo	-0.1003618
-4.416865	Nkonjeni	-0.2082959
-4.416865	Nkonyeni	-0.1003618
-3.814805	Nkosi	-0.1433812
-4.240774	Nkosikazi	-0.2082959
-4.416865	Nkosinathi	-0.1003618
-4.416865	Nksz	-0.1003618
-3.541804	Nkulunkulu	-0.2508523
-3.939744	No	-0.4528823
-4.416865	Nobamba
-4.416865	Noise
-3.638714	Nokho	-0.2328037
-3.500411	Noma	-0.1509843
-4.240774	Nomusa	-0.1856283
-4.319955	Nongoma	-0.2082958
-4.416865	Nor	-0.1003618
-4.064682	North	-0.2648096
-4.416865	Norway	-0.274337
-4.018925	Not	-0.1003618
-4.319955	Novemba	-0.274337
-3.904982	November	-0.2899649
-4.416865	Now	-0.1003618
-3.487446	Npg	-0.3504788
-4.416865	Nqumani	-0.1003618
-4.416865	Nsfas	-0.1003618
-4.416865	Ntombela	-0.1003618
-4.240774	Ntshangase	-0.1003618
-3.872797	Nukani	-0.1003618
-4.240774	Nuz	-0.1003618
-3.603952	Nxele	-0.2200871
-3.939744	Nxumalo	-0.1003618
-4.319955	Nyembe	-0.1003618
-4.018925	Nyheter	-0.1003618
-4.416865	Nzama	-0.1003618
-4.319955	O	-0.1003618
-4.240774	OFakazi	-0.2082958
-4.240774	OMbuso	-0.1003618
-3.939744	Obama	-0.1003618
-3.904982	October	-0.1409059
-4.240774	Okhulumela	-0.1003618
-4.173827	Okokuqala	-0.1003618
-4.173827	Okthoba	-0.2335204
-4.240774	Okubalulekile	-0.1003618
-4.416865	Okubi	-0.1003618
-4.173827	Okuhle	-0.1003618
-4.416865	Okumele	-0.1003618
-4.416865	Okungukuthi	-0.1003618
-4.319955	Okuningi	-0.1003618
-3.740171	Okunye	-0.1003618
-4.064682	Okwamanje	-0.1003618
-4.416865	Okwesibili	-0.1003618
-4.319955	Olsson	-0.2082958
-4.240774	Olympics	-0.1003618
-3.939744	Omasipala	-0.1003618
-3.311355	Omunye	-0.1003618
-3.740171	On	-0.2096103
-4.416865	Online	-0.1003618
-4.416865	Order	-0.1003618
-3.278562	Orlando	-0.4972546
-4.240774	Oscar	-0.274337
-4.319955	Osolwa
-4.240774	Ososayensi	-0.1003618
-4.240774	Owen	-0.2534701
-4.416865	Owesifazane	-0.1003618
-4.240774	Owesilisa	-0.1003618
-3.939744	Oyingcwele	-0.1003618
-4.416865	Palacious
-4.240774	Palestina	-0.1786954
-4.064682	Palestine	-0.1377649
-4.018925	Palestinians	-0.1786954
-4.416865	Panama	-0.1003618
-4.416865	Papers	-0.1003618
-4.115835	Park	-0.1003618
-4.064682	Party	-0.1509843
-4.319955	Pastor	-0.1003618
-4.416865	Paul	-0.1003618
-4.115835	Peter	-0.2082959
-4.319955	Phakade	-0.274337
-3.717895	Phakathi	-0.1272404
-4.319955	Phela	-0.1003618
-4.240774	Phongolo	-0.1003618
-4.416865	Phoqelela	-0.1003618
-4.319955	Pillay	-0.1003618
-4.416865	Pinter	-0.1003618
-3.294649	Pirates	-0.1362052
-4.416865	Pistorious	-0.1003618
-4.319955	Pitoli	-0.1003618
-4.416865	Platinum	-0.2534701
-4.416865	Plessis	-0.1003618
-4.416865	Pmw	-0.1003618
-4.240774	Pole	-0.1786954
-4.240774	Polokwane	-0.1856283
-4.018925	Pongola	-0.1939906
-4.416865	Pope	-0.1003618
-4.319955	Post	-0.1003618
-4.416865	Power	-0.1003618
-4.319955	Pravin	-0.1003618
-4.173827	Primary	-0.2082958
-4.319955	Prophet	-0.2082958
-4.416865	Ps	-0.274337
-3.814805	Psl	-0.1604876
-3.638714	Putin	-0.1269664
-4.319955	Qapha	-0.1003618
-4.064682	Qinisekisa	-0.1003618
-3.977532	R	-0.1618575
-3.842834	Radio	-0.1003618
-4.240774	Ragnheidur	-0.1003618
-4.240774	Report	-0.1003618
-4.416865	Republic	-0.1003618
-4.240774	Rfsl	-0.1003618
-4.416865	Robert	-0.1003618
-4.173827	Roma	-0.2082959
-4.416865	Royal	-0.1003618
-3.240774	Russia	-0.183576
-3.416865	Russian	-0.1991384
-4.115835	Sa	-0.1702034
-4.416865	Sab	-0.1003618
-4.173827	Sabc	-0.1003618
-4.173827	Sabelo	-0.1003618
-4.240774	Sakhe	-0.1003618
-4.416865	Samoura	-0.1003618
-4.018925	Samuyeli	-0.1003618
-4.173827	Sangweni	-0.1786954
-4.319955	Sanlam	-0.1003618
-4.319955	Saudi	-0.3784088
-4.416865	Sbu	-0.1003618
-3.696706	School	-0.1813347
-4.319955	Scientists	-0.1003618
-4.319955	Sea	-0.1003618
-4.416865	Sebenzisa	-0.1003618
-4.416865	Secretary	-0.2082958
-4.173827	Security	-0.1786954
-4.319955	Sekukonke	-0.1003618
-3.657197	Sekuyisikhathi	-0.1334463
-4.416865	Senegal	-0.1003618
-4.240774	Senzangakhona	-0.1003618
-3.939744	Senzo	-0.2648096
-3.939744	September	-0.1433812
-4.115835	Service	-0.1003618
-4.319955	Services	-0.1003618
-4.240774	Sgcino	-0.4753188
-4.173827	Shabalala	-0.1003618
-4.240774	Shaka	-0.1003618
-3.462623	Shandu	-0.2704903
-3.717895	Shangase	-0.1588938
-4.416865	Share	-0.1003618
-4.416865	Shelembe	-0.1003618
-4.240774	Shiite	-0.1003618
-4.115835	Sibisi	-0.1003618
-3.814805	Sibiya	-0.1272404
-4.115835	Sibona	-0.1003618
-4.319955	Sibongile	-0.1003618
-4.416865	Sibonisa	-0.1003618
-4.115835	Sibusiso	-0.1003618
-4.173827	Sidinga	-0.1003618
-3.763653	Sifuna	-0.1003618
-4.416865	Sihle	-0.1003618
-4.416865	Sikhakhane	-0.1003618
-4.416865	Sikholelwa	-0.274337
-4.416865	Sikhuluma	-0.1003618
-4.416865	Silo	-0.1003618
-4.064682	Simelane	-0.1003618
-4.416865	Sindi	-0.1003618
-3.904982	Sine	-0.1003618
-4.416865	Sinenkululeko	-0.1003618
-4.416865	Singaba	-0.1003618
-4.416865	Singabantu	-0.1003618
-4.416865	Singase	-0.1003618
-4.240774	Singasho	-0.1003618
-4.319955	Sinikeza	-0.1003618
-3.939744	Siphila	-0.1334463
-4.173827	Siphinde	-0.1003618
-3.904982	Sisekuzo	-0.1003618
-4.416865	Sisi	-0.1003618
-4.319955	Sithebe
-4.319955	Sithi	-0.1003618
-4.240774	Sithola	-0.1003618
-3.788476	Sithole	-0.1377649
-4.416865	Sivananda	-0.1003618
-4.319955	Siyabonga	-0.1003618
-4.416865	Siyakwamukela
-4.319955	Siyazi	-0.2082959
-3.904982	Siye	-0.1003618
-4.416865	Sizokwenza	-0.1003618
-4.173827	Sizwe	-0.1003618
-4.416865	Sizwesithini	-0.1003618
-4.416865	Sj	-0.2534701
-4.319955	Smaland-Gazette	-0.2082959
-4.064682	Smanga	-0.5545002
-4.240774	Social	-0.2098442
-4.064682	Society	-0.1003618
-4.319955	Solutions	-0.1003618
-4.240774	Sonke	-0.1003618
-3.872797	Sontshikazi	-0.1509843
-3.977532	South	-0.3317564
-4.319955	Soweto	-0.1003618
-4.416865	Space	-0.1003618
-4.416865	Sri
-3.696706	Stadium	-0.2049989
-3.939744	Stanley	-0.1702034
-4.416865	Starch	-0.1003618
-3.571767	Stars	-0.1618575
-3.657197	State	-0.24721
-3.763653	States	-0.1618575
-4.319955	Steenkamp	-0.1003618
-4.240774	Step	-0.1786954
-4.173827	Steve	-0.2534701
-4.416865	Sthembiso	-0.2082958
-3.814805	Stockholm	-0.1249359
-4.416865	Stoltenberg	-0.1003618
-4.416865	Stop	-0.1003618
-4.416865	Stratford	-0.2082958
-4.064682	Street	-0.1003618
-3.42786	Sundowns	-0.1285628
-4.018925	Supersport	-0.4528823
-4.064682	Supersports	-0.2648096
-4.416865	Svenska	-0.1003618
-3.939744	Svt	-0.1433812
-4.115835	Swallows	-0.1509844
-3.018925	Sweden	-0.23624
-3.657197	Swedish	-0.1199086
-4.416865	Sydsvenskan	-0.1003618
-4.115835	Syria	-0.2335204
-4.416865	Tactical	-0.1003618
-4.416865	Taxis	-0.1003618
-4.416865	Teachers	-0.1003618
-4.319955	Telegraph	-0.1003618
-4.115835	Telkom	-0.1786954
-4.416865	Thandeka	-0.1003618
-3.375472	The	-0.1103623
-3.571767	Thina	-0.1186608
-4.416865	Thokozani	-0.1003618
-3.977532	Thola	-0.1433812
-4.416865	Through	-0.1003618
-3.939744	Thulani	-0.20918
-4.416865	Thuli	-0.274337
-4.416865	Thwala	-0.1003618
-4.064682	Times	-0.1003618
-4.064682	Tinkler	-0.1003618
-4.240774	Tira	-0.2082958
-4.416865	Tomas	-0.1003618
-3.788476	Town	-0.1692606
-4.319955	Tunisia	-0.1003618
-3.842834	Tv	-0.1409058
-4.115835	Twitter	-0.1618575
-3.487446	U	-0.1003618
-4.319955	UBongani	-0.2098442
-4.416865	UBonisiwe	-0.1003618
-4.319955	UDaniyeli	-0.1003618
-4.064682	UDavida	-0.1003618
-4.319955	UFaro	-0.1003618
-4.416865	UGogo	-0.1003618
-3.571767	UJesu	-0.1003618
-4.416865	UJonathani
-4.173827	UKhansela	-0.1003618
-4.319955	UMbhishobhi	-0.1003618
-3.556527	UMeya	-0.121339
-4.416865	UMfundisi	-0.1003618
-4.319955	UMnu	-0.1003618
-3.487446	UMnuz	-0.1003618
-3.939744	UMongameli	-0.1003618
-4.416865	UMoya	-0.2082958
-4.240774	UMshushisi	-0.1003618
-3.977532	UMsolwa	-0.1003618
-4.416865	UMthethosisekelo	-0.2082959
-4.319955	UNdunankulu	-0.1003618
-3.814805	UNgqongqoshe	-0.1786954
-4.319955	UNkk	-0.1003618
-4.173827	UNksz	-0.1003618
-3.302922	UNkulunkulu	-0.1285628
-4.173827	UPawule
-4.416865	UProfesa	-0.1003618
-4.173827	USathane	-0.1003618
-4.416865	UShandu	-0.1003618
-4.319955	Ubani	-0.1003618
-3.872797	Ube	-0.1003618
-3.814805	Ubona	-0.2082959
-4.416865	Ubuchwepheshe	-0.1003618
-4.416865	Ubufakazi	-0.1003618
-4.416865	Ubukhulu	-0.1003618
-4.064682	Ubuye	-0.1003618
-4.416865	Ucwaningo	-0.1003618
-4.115835	Uganda	-0.1003618
-3.977532	Uhlelo	-0.1003618
-4.416865	Uhlupho	-0.1003618
-3.717895	Uhulumeni	-0.1003618
-4.416865	Ukhetho	-0.2082958
-4.416865	Ukhonze	-0.1003618
-4.416865	Ukhozi	-0.1003618
-4.240774	Ukraine	-0.1786954
-4.240774	Ukristu	-0.1786954
-3.904982	Ukuba	-0.1003618
-4.173827	Ukube	-0.1003618
-4.319955	Ukubhala	-0.1003618
-4.319955	Ukubheka	-0.1003618
-4.416865	Ukuchitheka	-0.2082959
-4.416865	Ukudalwa	-0.2082959
-4.115835	Ukudla	-0.1003618
-4.416865	Ukugqugquzela	-0.2082959
-4.416865	Ukuhlaselwa
-4.416865	Ukuhlela	-0.1003618
-4.319955	Ukukhanya	-0.1003618
-4.416865	Ukuphenduka	-0.1003618
-4.319955	Ukuqhuma	-0.274337
-4.240774	Ukusebenza	-0.1003618
-4.240774	Ukusetshenziswa	-0.1003618
-4.319955	Ukuthanda	-0.1003618
-3.657197	Ukuthi	-0.1003618
-4.416865	Ukuza	-0.2534701
-4.018925	Ukuzamazama	-0.1786954
-3.42786	Ukuze	-0.1003618
-4.319955	Ukuzibandakanya	-0.1003618
-4.416865	Ukuziphatha	-0.1003618
-4.319955	Ukuziqhenya	-0.1003618
-4.319955	Ukwakhiwa	-0.1003618
-4.064682	Ukwelapha	-0.1003618
-3.977532	Ukwenza	-0.1334463
-4.064682	Ulf	-0.3859355
-2.640527	Uma	-0.1270849
-3.872797	Umasipala	-0.1003618
-4.319955	Umbhalo	-0.1003618
-3.939744	Umbiko	-0.1003618
-4.240774	Umbono	-0.1003618
-4.416865	Umbuthano	-0.1003618
-4.064682	Umbuzo	-0.1003618
-4.240774	Umcimbi	-0.1003618
-4.240774	Umculi	-0.1003618
-4.416865	Umculo	-0.1003618
-4.319955	Umdlali	-0.1003618
-4.416865	Umemulo	-0.1003618
-4.240774	Umfundisi	-0.1003618
-3.763653	Umhlaba	-0.1003618
-4.319955	Umhlangano	-0.1003618
-4.240774	Umholi	-0.1003618
-4.173827	Umkhandlu	-0.1003618
-4.416865	Umkhulu	-0.1003618
-4.416865	Umlando	-0.1003618
-4.173827	Umlayezo	-0.1003618
-4.064682	Umndeni	-0.1003618
-3.939744	Umnyango	-0.1003618
-4.416865	Umonakalo	-0.1003618
-3.638714	Umphakathi	-0.1003618
-4.173827	Umphathi	-0.1003618
-4.018925	Umphik'ukristu	-0.1516622
-4.319955	Umphikukristu	-0.1003618
-4.115835	Umphumela	-0.1618575
-4.173827	Umqeqeshi	-0.1003618
-4.416865	Umqondisi	-0.1003618
-4.319955	Umqondo	-0.1003618
-3.788476	Umsebenzi	-0.1377649
-4.416865	Umsolwa	-0.1003618
-4.173827	Umthetho	-0.1003618
-3.904982	Umuntu	-0.1509844
-4.416865	Umuthi	-0.1003618
-4.416865	Umzabalazo	-0.1003618
-4.416865	Umzekeliso	-0.1003618
-3.872797	Un	-0.155893
-4.319955	Unelungelo	-0.1003618
-4.416865	Ungabi
-4.319955	Ungabona	-0.1003618
-4.115835	Ungakwazi	-0.1003618
-4.319955	Ungqongqoshe	-0.1003618
-3.763653	Union	-0.1003618
-3.294649	United	-0.1926512
-4.064682	University	-0.2082959
-4.416865	Unkulunkulu	-0.1003618
-3.904982	Uphinde	-0.1003618
-4.319955	Uppsala	-0.2534701
-3.939744	Uqhube	-0.274337
-4.115835	Us	-0.1003618
-4.240774	Usa	-0.1003618
-4.416865	Usongo	-0.1003618
-4.115835	Usuke	-0.1003618
-4.416865	Usuku
-3.977532	Uthando	-0.1003618
-3.717895	Uthe	-0.1003618
-3.226533	Uthi	-0.1081805
-4.240774	Uthini	-0.1003618
-4.416865	Uthisha	-0.1003618
-4.319955	Uthola	-0.1003618
-4.319955	Uveze	-0.274337
-4.319955	Uyazi	-0.1003618
-4.416865	Uye	-0.1003618
-4.173827	V	-0.1003618
-4.416865	Varsity	-0.1003618
-4.240774	Vele	-0.1003618
-4.416865	Vetlanda	-0.1003618
-4.319955	Village	-0.1003618
-4.319955	Vimba	-0.1003618
-4.173827	Vincent	-0.2098442
-4.416865	Vryheid	-0.1003618
-4.416865	Vula	-0.1003618
-4.173827	Wabe	-0.1003618
-4.416865	Wabhala	-0.1003618
-4.319955	Wabona	-0.1003618
-4.416865	Wagcina
-4.240774	Wallin	-0.1003618
-4.416865	Waphila	-0.1003618
-4.319955	War	-0.1003618
-3.788476	Ward	-0.1856283
-4.319955	Wasbank	-0.1003618
-3.740171	WaseRoma	-0.1604876
-3.872797	Water	-0.1433811
-4.064682	Wathi	-0.1003618
-4.416865	Wathola	-0.1003618
-4.018925	We	-0.1003618
-4.416865	Weather	-0.1003618
-4.416865	Well	-0.1003618
-3.788476	Wena	-0.1300221
-4.319955	Wenza	-0.1003618
-3.904982	West	-0.2419821
-4.319955	Western	-0.2082958
-4.416865	Widman	-0.1003618
-4.115835	Wilkerson	-0.1003618
-4.173827	With	-0.1003618
-3.842834	Wits	-0.1003618
-3.939744	Wonke	-0.1702034
-3.696706	World	-0.1433812
-4.240774	Wosiyane	-0.1786954
-4.319955	Wwf	-0.1003618
-3.872797	Xaba	-0.1003618
-4.319955	Xhumana	-0.1003618
-4.416865	Xolani	-0.1003618
-3.676502	Yebo	-0.1370596
-4.416865	Yeka	-0.1003618
-3.814805	Yena	-0.1003618
-4.319955	Yenza	-0.1003618
-4.064682	Yezwe	-0.1786954
-4.416865	Yiba	-0.1003618
-4.416865	Yilokho	-0.1003618
-4.416865	Yilowo	-0.1003618
-4.240774	Yingakho	-0.1003618
-3.587561	Yini	-0.1003618
-3.872797	Yiqiniso	-0.4753188
-3.788476	Yize	-0.1433812
-4.173827	Yoga	-0.1003618
-4.319955	Yokuqala	-0.1003618
-4.416865	Yona	-0.1003618
-4.240774	Yonke	-0.1003618
-4.319955	Young	-0.2082958
-4.115835	Zama	-0.3317564
-4.416865	Zamalek	-0.1003618
-4.416865	Zanele	-0.274337
-4.240774	Zapad	-0.1618575
-4.416865	ZeBhayibheli	-0.1003618
-4.416865	Zibuze	-0.1003618
-4.319955	Zihlalo	-0.1003618
-4.018925	Zikalala	-0.1003618
-4.240774	Zikhali	-0.1003618
-4.064682	Zikhona	-0.1003618
-4.416865	Zimbabwe	-0.1003618
-4.064682	Ziningi	-0.1618575
-4.416865	Zoe	-0.274337
-4.319955	Zondo	-0.1003618
-3.904982	Zonke	-0.1003618
-3.365713	Zulu	-0.2376701
-4.416865	Zululand	-0.1003618
-3.587561	Zuma	-0.1373564
-4.319955	Zungu	-0.1003618
-4.115835	Zwane	-0.2082959
-3.027699	a	-0.1170618
-4.416865	aBantu	-0.1003618
-3.939744	aba	-0.1003618
-4.319955	abaNtu	-0.1003618
-4.115835	ababaleki	-0.1856283
-4.240774	ababe	-0.1003618
-4.319955	ababephila	-0.1003618
-4.319955	ababhalisile	-0.1003618
-4.416865	ababhekana	-0.1003618
-4.416865	ababhekene	-0.1003618
-3.657197	ababili	-0.1003618
-4.416865	ababoshiwe	-0.1003618
-4.416865	abacebile	-0.1003618
-4.064682	abaculi	-0.1003618
-3.872797	abacwaningi	-0.1338802
-3.620985	abadala	-0.1458986
-4.319955	abadayisa	-0.1003618
-4.240774	abadinga	-0.3784088
-3.872797	abadlali	-0.1509844
-4.240774	abafa	-0.1003618
-3.620985	abafana	-0.1894749
-4.416865	abafayo	-0.1003618
-4.416865	abafileyo	-0.1003618
-4.064682	abafisa	-0.1003618
-4.319955	abafokazane	-0.1003618
-4.173827	abafowabo	-0.1003618
-3.814805	abafuna	-0.1272404
-4.240774	abafunda	-0.1003618
-3.474857	abafundi	-0.1433812
-4.240774	abagibeli	-0.1003618
-4.319955	abagulayo	-0.1003618
-4.240774	abahlakaniphile	-0.1003618
-3.788476	abahlala	-0.121339
-4.115835	abahlanu	-0.1003618
-4.416865	abahlaziyi	-0.1003618
-3.814805	abaholi	-0.1370596
-4.416865	abajikelezayo	-0.1003618
-4.416865	abakhethwe	-0.1003618
-4.416865	abakhileyo	-0.1003618
-4.319955	abakholwa	-0.1003618
-4.416865	abakhulu	-0.1003618
-4.173827	abakhuluma	-0.1003618
-4.319955	abakwa	-0.1786954
-3.977532	abakwazi	-0.1003618
-4.416865	abakweleta	-0.1003618
-4.416865	abakwenzayo	-0.1003618
-4.416865	abalahlekelwe	-0.2082959
-4.319955	abalandela	-0.1786954
-3.696706	abalandeli	-0.155893
-4.319955	abalelwa	-0.274337
-4.416865	abalulekile	-0.1003618
-4.319955	abambalwa	-0.2082958
-4.416865	abamele	-0.1003618
-4.240774	abameleli	-0.1003618
-4.319955	abameli	-0.1003618
-4.240774	abamnyama	-0.1003618
-4.416865	abampofu	-0.2534701
-4.416865	abanakho	-0.1003618
-4.416865	abanamandla	-0.1003618
-4.319955	abancane	-0.1003618
-4.240774	abane	-0.1003618
-4.173827	abangaba	-0.1003618
-4.240774	abangahlakaniphile	-0.1786954
-4.115835	abangakwazi	-0.1003618
-4.319955	abangamaKristu	-0.1003618
-4.240774	abangani	-0.1003618
-4.416865	abangaphansi	-0.1003618
-4.416865	abangase	-0.1003618
-4.240774	abangazange	-0.1003618
-4.416865	abangela	-0.1003618
-4.416865	abangenawo	-0.1003618
-4.416865	abangokomoya	-0.1003618
-4.064682	abangu	-0.1003618
-4.319955	abaningana	-0.1003618
-2.925503	abaningi	-0.1632419
-4.416865	abanophondo	-0.1003618
-2.377451	abantu	-0.2503682
-4.319955	abantulayo	-0.1003618
-3.500411	abantwana	-0.1175628
-3.155602	abanye	-0.1661478
-4.416865	abaphathi	-0.1003618
-4.319955	abaphethe	-0.1003618
-4.416865	abaphezulu	-0.1003618
-3.842834	abaphila	-0.2496976
-4.240774	abaporofethi	-0.1786954
-4.319955	abaqapheli	-0.274337
-4.416865	abasafufusa	-0.1003618
-4.416865	abasayinde	-0.274337
-4.416865	abase	-0.1003618
-3.977532	abaseSweden	-0.1003618
-3.842834	abasebenza	-0.1003618
-3.450723	abasebenzi	-0.1431483
-3.842834	abasha	-0.1003618
-3.904982	abasolwa	-0.1003618
-4.416865	abasuke
-4.115835	abaswele	-0.1433812
-4.416865	abatakuli	-0.1003618
-4.416865	abathakathi	-0.1003618
-4.240774	abathanda	-0.1003618
-4.319955	abathandekayo	-0.1003618
-4.064682	abathandi	-0.2082958
-4.064682	abathathu	-0.1003618
-4.416865	abathe	-0.1003618
-4.018925	abathi	-0.1003618
-4.319955	abathintekayo	-0.1786954
-4.319955	abathintekile	-0.2082958
-4.319955	abathintwe	-0.1003618
-4.240774	abathola	-0.1003618
-4.319955	abavala	-0.2534701
-4.240774	abavela	-0.1003618
-4.416865	abavelele	-0.1003618
-4.319955	abavoti	-0.1003618
-4.416865	abawazi	-0.1003618
-3.788476	abaye	-0.1003618
-4.319955	abayishumi	-0.1003618
-4.319955	abayoba	-0.1003618
-4.115835	abazali	-0.1509843
-4.319955	abazalwane	-0.1003618
-4.173827	abazange	-0.1003618
-4.064682	abazi	-0.1516622
-3.186416	abe	-0.1218636
-4.416865	abefundisi	-0.1003618
-4.416865	abeke	-0.2082958
-4.319955	abelungu	-0.1003618
-4.064682	abenza	-0.1003618
-3.788476	abesifazane	-0.1618575
-4.416865	abeza	-0.1003618
-3.788476	abezindaba	-0.1888321
-4.115835	abhekane	-0.1003618
-3.541804	abo	-0.2190519
-4.416865	abomndeni	-0.1003618
-4.319955	abonakala	-0.1003618
-4.240774	abonakale	-0.1003618
-4.416865	abone	-0.1003618
-4.319955	abonisa	-0.1786954
-4.240774	aboniswe	-0.1003618
-4.416865	abophe	-0.1003618
-4.319955	abuya	-0.1003618
-4.240774	abuye	-0.1786954
-4.173827	abuyele	-0.1003618
-4.416865	aces	-0.1003618
-4.416865	adlale	-0.1003618
-4.319955	adle	-0.1003618
-4.319955	adlule	-0.2082959
-4.416865	afake	-0.1003618
-4.240774	afana	-0.1003618
-4.416865	afanele	-0.1003618
-4.416865	afeze	-0.1003618
-4.416865	afika	-0.1003618
-4.319955	afike	-0.1003618
-4.115835	afuna	-0.1003618
-4.240774	afunde	-0.1003618
-4.416865	afune	-0.1003618
-4.416865	agcina	-0.274337
-4.240774	agcine	-0.1003618
-4.416865	ahambe	-0.1003618
-4.319955	ahlala	-0.1003618
-4.018925	ahlale	-0.1003618
-4.173827	ahlanzekile	-0.2082959
-4.115835	ahlukahlukene	-0.1786954
-4.319955	ahlukene	-0.1003618
-4.319955	ahole	-0.1003618
-4.416865	airtime	-0.1003618
-4.319955	ajenda	-0.1786954
-4.416865	ajulile	-0.1003618
-4.416865	akade	-0.1003618
-4.416865	akakaze	-0.1003618
-4.319955	akakwazi	-0.1003618
-4.416865	akasebenzi	-0.1003618
-4.240774	akasekho	-0.274337
-3.904982	akazange	-0.1618575
-4.416865	akaze
-4.319955	akazi	-0.1003618
-4.018925	ake	-0.1786954
-3.788476	akekho	-0.20918
-4.173827	akha	-0.1003618
-4.319955	akhangela	-0.274337
-3.638714	akhe	-0.1588937
-4.416865	akhethe	-0.1003618
-4.416865	akhethiwe	-0.1003618
-4.416865	akhethwe	-0.1003618
-4.115835	akhishwe	-0.1003618
-3.788476	akho	-0.1229954
-4.173827	akhokhe	-0.1786954
-4.240774	akhona	-0.1003618
-4.319955	akhulume	-0.1003618
-4.319955	akubona	-0.2082959
-4.173827	akufanele	-0.1003618
-3.587561	akukho	-0.1186608
-4.319955	akukhona	-0.1003618
-4.018925	akulona	-0.4409008
-4.416865	akulula	-0.1003618
-4.173827	akumele	-0.1003618
-4.319955	akunjalo	-0.1003618
-4.416865	akushilo	-0.1003618
-3.842834	akusho	-0.3935949
-4.416865	akushoyo	-0.1003618
-4.173827	akusiwona	-0.1003618
-3.939744	akusiyo	-0.1334463
-4.240774	akusona	-0.1003618
-3.657197	akuyona	-0.1433812
-4.416865	akuzange
-4.416865	akuzona	-0.1003618
-4.416865	akwa	-0.1003618
-4.319955	akwanele	-0.1786954
-4.064682	akwazi	-0.1003618
-4.240774	akwenzayo	-0.1618575
-4.240774	alamu	-0.1003618
-4.416865	alandelayo	-0.1003618
-4.319955	album	-0.1003618
-4.416865	alethe	-0.1003618
-4.319955	alikho	-0.1003618
-4.240774	alinganiselwa	-0.2082958
-4.319955	all	-0.1003618
-4.240774	alo	-0.1618575
-3.587561	ama	-0.1003618
-4.416865	ama-SDA	-0.2082959
-3.872797	amaJuda	-0.1409059
-3.439142	amaKristu	-0.1389702
-4.319955	amaMbatha	-0.1003618
-4.018925	amaSulumane	-0.1433811
-3.977532	amabandla	-0.1003618
-4.240774	amabhakaniya	-0.1003618
-4.064682	amabhange	-0.1003618
-4.319955	amabhomu	-0.1003618
-4.064682	amabhuku	-0.1003618
-4.416865	amabhuloho	-0.2082959
-3.206012	amabili	-0.1650503
-3.788476	amabutho	-0.1468738
-3.904982	amacala	-0.1334463
-4.319955	amacebo	-0.1003618
-4.319955	amadamu	-0.1003618
-4.319955	amadlingozi	-0.2082958
-4.319955	amadlozi	-0.1003618
-3.842834	amadoda	-0.1300221
-4.416865	amafomu	-0.1003618
-4.240774	amafutha	-0.1003618
-3.904982	amagama	-0.1377649
-4.416865	amagatsha	-0.1003618
-4.416865	amagciwane	-0.1003618
-3.872797	amagoli	-0.1663899
-4.416865	amagula	-0.1003618
-4.416865	amahebezi	-0.1003618
-4.416865	amahemuhemu	-0.1003618
-4.240774	amahlandla	-0.1786954
-4.240774	amahlanu	-0.2082958
-4.240774	amahle	-0.1003618
-4.319955	amaholo	-0.1003618
-3.939744	amahora	-0.1003618
-4.416865	amakhadi	-0.1003618
-4.319955	amakhanda	-0.1003618
-4.319955	amakhandlela	-0.1786954
-3.740171	amakhansela	-0.1555552
-4.416865	amakhasimende	-0.1003618
-4.319955	amakhaya	-0.1003618
-4.416865	amakhokho
-4.319955	amakholwa	-0.1003618
-4.319955	amakhono	-0.1003618
-4.416865	amakhophi
-3.977532	amakhosi	-0.1003618
-3.788476	amakhulu	-0.1003618
-3.904982	amakomidi	-0.1433812
-3.842834	amalangabi	-0.1377649
-4.240774	amalitha	-0.1003618
-4.319955	amaloli	-0.1003618
-3.571767	amalunga	-0.2265616
-3.571767	amalungelo	-0.1952236
-4.115835	amalungiselelo	-0.2082959
-3.763653	amalungu	-0.2371502
-4.319955	amanani	-0.1003618
-4.416865	amancane	-0.1003618
-3.138112	amandla	-0.1584935
-3.842834	amane	-0.1334463
-3.842834	amanga	-0.1003618
-4.173827	amaningana	-0.1003618
-3.311355	amaningi	-0.1813291
-4.416865	amantombazane	-0.1003618
-3.603952	amanye	-0.1334463
-4.416865	amanyuvesi	-0.1003618
-2.96202	amanzi	-0.2267784
-4.416865	amapayipi	-0.1003618
-4.416865	amaphaphu	-0.1003618
-3.814805	amaphekula	-0.155893
-4.319955	amaphenathi	-0.1003618
-4.416865	amaphepha	-0.1003618
-4.064682	amaphephandaba	-0.1003618
-4.416865	amaphesenti	-0.1003618
-3.587561	amaphoyisa	-0.1199086
-4.173827	amaphupho	-0.1003618
-4.319955	amaphutha	-0.1003618
-4.319955	amaphuzu	-0.1003618
-4.416865	amapuleti
-3.346827	amaqembu	-0.1794179
-4.319955	amaqhinga	-0.1003618
-4.319955	amaqiniso	-0.1003618
-4.319955	amaqoqo	-0.1786954
-4.240774	amarekhodi	-0.1003618
-4.240774	amasha	-0.1003618
-4.319955	amashumi	-0.1003618
-4.240774	amasignali	-0.1003618
-4.064682	amasiko	-0.1433812
-4.064682	amasonto	-0.1003618
-3.939744	amasosha	-0.1825334
-4.018925	amasu	-0.1003618
-4.416865	amatafula	-0.1003618
-4.064682	amatekisi	-0.1618575
-4.416865	amathambo	-0.1003618
-3.556527	amathathu	-0.1377649
-4.416865	amathe	-0.1003618
-4.319955	amathemba	-0.1003618
-4.416865	amathempeli	-0.1003618
-4.416865	amathimba	-0.1003618
-3.541804	amathuba	-0.1269664
-4.240774	amavesi	-0.1003618
-4.319955	amaviki	-0.1003618
-3.904982	amavoti	-0.1003618
-3.676502	amawadi	-0.1952497
-4.319955	amazinga
-4.416865	amazinyo	-0.1003618
-3.319955	amazwe	-0.1955002
-3.395676	amazwi	-0.1782164
-3.571767	ambalwa	-0.1962183
-3.556527	amehlo	-0.1587231
-4.319955	amele	-0.1003618
-4.416865	amelwe	-0.1003618
-4.416865	ami
-3.872797	amnyama	-0.1377649
-4.240774	amukele	-0.1003618
-4.173827	an	-0.1003618
-3.395676	and	-0.1003618
-4.416865	anda	-0.274337
-4.319955	angaba	-0.2082958
-4.115835	angabona	-0.1003618
-4.173827	angahle	-0.1786954
-4.416865	angakhuluma	-0.1003618
-4.416865	angakusiza	-0.1003618
-4.240774	angakwazi	-0.1003618
-4.173827	angaphandle	-0.1003618
-4.319955	angaphansi	-0.1003618
-4.115835	angaphezu	-0.1003618
-3.939744	angase	-0.1003618
-4.416865	angazi	-0.274337
-4.416865	angcolile	-0.1003618
-3.587561	angeke	-0.1003618
-4.416865	angena	-0.1003618
-4.173827	angene	-0.1003618
-3.788476	angu	-0.1509843
-4.416865	anikezwe	-0.1003618
-4.416865	anjalo	-0.2534701
-4.416865	annuity	-0.1003618
-4.319955	anti-lwamaSemite	-0.1003618
-3.939744	aphansi	-0.1003618
-4.416865	aphathe	-0.274337
-4.240774	aphendule	-0.1003618
-4.416865	aphesheya	-0.274337
-4.416865	aphethwe	-0.1003618
-4.173827	aphezulu	-0.1003618
-4.240774	aphikisayo	-0.1003618
-3.842834	aphinde	-0.1003618
-4.319955	aphonse	-0.1003618
-4.416865	aphuma	-0.1003618
-4.064682	aphume	-0.1786954
-4.416865	aqhubeke	-0.1003618
-4.416865	aqonde	-0.1003618
-4.115835	are	-0.1003618
-4.173827	article	-0.1003618
-4.240774	as	-0.1003618
-4.416865	asaqhubeka
-4.416865	asazi	-0.2082959
-4.115835	ase	-0.1433812
-4.416865	ase-Europe	-0.1003618
-3.977532	aseBaltic	-0.2671719
-4.018925	asePalestina	-0.1911351
-4.115835	asebenza	-0.1003618
-4.319955	asebenze	-0.1003618
-4.416865	aseqalile	-0.1003618
-4.319955	asetshenziswa	-0.1003618
-4.319955	asetshenziswe	-0.2082958
-4.416865	ashaywa	-0.1003618
-4.018925	ashaywe	-0.1509844
-4.416865	ashiye	-0.1003618
-4.173827	asho	-0.1509843
-4.416865	ashone	-0.1003618
-4.115835	asikwazi	-0.1003618
-4.319955	asindise	-0.1003618
-4.173827	asiza	-0.1003618
-4.416865	asizange	-0.1003618
-4.416865	asuka	-0.2534701
-4.416865	asuke	-0.1003618
-4.319955	asukume	-0.1003618
-3.587561	at	-0.1003618
-3.740171	athathe	-0.2010129
-4.173827	athe	-0.1003618
-3.513775	athi	-0.1003618
-4.319955	athola	-0.1003618
-3.842834	athole	-0.1003618
-4.240774	athule	-0.1003618
-4.416865	ave	-0.1003618
-4.240774	avele	-0.2082958
-4.319955	avuke	-0.1003618
-4.240774	awo	-0.1003618
-3.977532	awu	-0.1509843
-4.319955	awuboni	-0.1003618
-4.173827	awukwazi	-0.1003618
-4.416865	awusoze	-0.1003618
-4.319955	axolise	-0.1003618
-4.416865	axwayise	-0.1003618
-3.872797	aye	-0.1003618
-4.416865	ayi	-0.1003618
-3.872797	ayikho	-0.1249359
-4.416865	ayinakho	-0.1003618
-4.319955	ayingozi	-0.2082959
-4.319955	ayisekho	-0.2082958
-4.416865	ayisikhombisa	-0.1003618
-4.319955	ayisiprofetho	-0.1003618
-4.416865	ayisishiyagalolunye	-0.1003618
-3.939744	ayisithupha	-0.1456536
-3.977532	ayo	-0.1377649
-4.064682	ayobe	-0.1003618
-4.416865	azama	-0.1003618
-4.064682	aze	-0.1003618
-4.319955	aziwa	-0.1003618
-4.319955	azo	-0.1003618
-4.240774	azobe	-0.1786954
-4.173827	b	-0.1003618
-4.319955	ba	-0.1003618
-3.763653	baba	-0.1433812
-4.319955	babalelwa	-0.1003618
-4.416865	babantwana	-0.1003618
-3.270737	babe	-0.1260366
-4.319955	babecabanga	-0.2098442
-4.319955	babekwazi	-0.1003618
-4.416865	babheka	-0.1003618
-3.541804	babo	-0.2132514
-4.018925	babone	-0.1377649
-4.416865	babulala	-0.1003618
-4.173827	babuye	-0.1003618
-4.319955	bacabanga	-0.2098442
-4.173827	bacabange	-0.1786954
-4.416865	badayisa	-0.1003618
-4.064682	bafa	-0.1509844
-4.416865	bafaka	-0.1003618
-4.319955	bafana	-0.1003618
-4.018925	bafanyana	-0.1003618
-4.416865	bafe	-0.1003618
-4.416865	bafika	-0.1003618
-3.717895	bafuna	-0.2049655
-4.240774	bafunda	-0.1003618
-4.416865	bafundise	-0.1003618
-4.416865	bagcine	-0.1003618
-4.240774	bahamba	-0.1003618
-4.115835	bahambe	-0.1003618
-4.115835	bahlala	-0.1003618
-4.018925	bahlangana	-0.1003618
-4.416865	bahlangane	-0.1003618
-4.319955	bahlobene	-0.1003618
-4.319955	bahulumeni	-0.1003618
-3.904982	baka	-0.1433812
-4.240774	bakaNkulunkulu	-0.1003618
-4.319955	bake	-0.1003618
-4.115835	bakha	-0.1003618
-4.240774	bakhathazekile	-0.1003618
-3.620985	bakhe	-0.1852645
-4.319955	bakhiqize	-0.1003618
-4.173827	bakho	-0.1003618
-3.977532	bakholelwa	-0.4409009
-4.416865	bakholwa	-0.2534701
-4.416865	bakholwe	-0.1003618
-4.319955	bakhona	-0.1003618
-4.319955	bakhuluma	-0.1003618
-3.788476	bakwa	-0.2000638
-3.740171	bakwazi	-0.1468738
-4.416865	balaba	-0.1003618
-4.173827	balahlekelwa	-0.1509844
-4.319955	balahlekelwe	-0.1003618
-4.416865	balale	-0.1003618
-4.416865	bale	-0.1003618
-4.173827	baleliqembu	-0.1003618
-4.319955	baletha	-0.1003618
-4.416865	balindele	-0.1003618
-4.416865	balo	-0.1003618
-4.416865	balwa	-0.1003618
-4.416865	bamaJuda	-0.1003618
-4.319955	bamanga	-0.1786954
-3.872797	bami	-0.2089145
-4.416865	bamukele	-0.2082959
-4.416865	bang	-0.1003618
-4.319955	bangaki	-0.1003618
-4.064682	bangase	-0.2098442
-4.416865	bangene	-0.1003618
-4.319955	bangu	-0.1003618
-3.696706	bani	-0.1249359
-4.416865	banikela	-0.1003618
-4.173827	banikezwa	-0.1003618
-4.319955	banikwa	-0.2082958
-4.319955	baningi	-0.1003618
-4.319955	banquma	-0.1003618
-3.696706	bantu	-0.1249359
-4.018925	baphaphame	-0.1377649
-4.064682	baphenduke	-0.1509843
-4.173827	baphile	-0.1003618
-3.904982	baphinde	-0.1003618
-4.319955	baphuma	-0.1003618
-4.319955	baphume	-0.1003618
-4.064682	baqala	-0.1003618
-4.319955	baqaphela	-0.1003618
-4.319955	baqhubeka	-0.1003618
-4.240774	baqhubeke	-0.1003618
-4.018925	baqonde	-0.1786954
-4.416865	basabela	-0.1003618
-3.527563	base	-0.1513715
-4.416865	baseJapan	-0.1003618
-4.416865	baseMzansi	-0.1003618
-4.416865	baseNingizimu	-0.274337
-4.240774	basePalestine	-0.1003618
-4.173827	basebenzisa	-0.1003618
-3.763653	basekhaya	-0.1377649
-4.416865	basema	-0.2534701
-4.319955	bashaye	-0.1003618
-4.319955	bashaywa	-0.1003618
-4.319955	basinda	-0.1003618
-4.115835	basindiswe	-0.1433812
-4.416865	basiza	-0.1003618
-4.416865	basizwa	-0.274337
-4.240774	basolwa	-0.1003618
-4.416865	basophongolo	-0.1003618
-3.977532	basuke	-0.1003618
-4.416865	bathathe	-0.1003618
-4.173827	bathe	-0.1003618
-3.416865	bathi	-0.1135932
-4.115835	bathola	-0.1509843
-3.842834	bathole	-0.1003618
-4.416865	bathumela	-0.1003618
-4.416865	bavakashela	-0.1003618
-4.319955	bavamise	-0.2743371
-4.416865	bavele	-0.274337
-4.319955	bavume	-0.1786954
-4.416865	bavunyelwe	-0.1003618
-4.064682	bawo	-0.1003618
-4.319955	baxwayisa	-0.1003618
-4.416865	bay	-0.1003618
-4.115835	baya	-0.1003618
-4.416865	bayanda	-0.1003618
-4.416865	bayaqaphela	-0.274337
-3.541804	baye	-0.147778
-4.416865	bayeka	-0.1003618
-4.240774	bayeke	-0.1003618
-3.977532	bayo	-0.1003618
-4.416865	bayovuka	-0.2082959
-4.173827	bazama	-0.1003618
-3.788476	baze	-0.1003618
-4.115835	bazi	-0.3859355
-4.173827	bazinza	-0.1786954
-4.416865	baziphathe	-0.2082959
-4.416865	bazithola	-0.1003618
-4.240774	bazo	-0.1003618
-4.319955	bazoba
-4.416865	bazokwazi	-0.1003618
-3.603952	be	-0.1596328
-4.416865	beKaizer	-0.2534701
-4.416865	bebandla	-0.1003618
-4.416865	bebelokhu	-0.1003618
-3.977532	bebhola	-0.1509844
-4.064682	bebona	-0.1003618
-4.416865	befika	-0.1003618
-4.064682	befuna	-0.1003618
-4.319955	behamba	-0.1003618
-4.416865	behlala	-0.1003618
-4.416865	behlangene	-0.1003618
-4.416865	behluleka	-0.1003618
-4.416865	bekhona	-0.1003618
-4.115835	bekukhona	-0.1003618
-4.240774	bekulokhu	-0.1003618
-4.319955	bekungakaboshwa	-0.2534701
-4.416865	bekungeke	-0.1003618
-4.416865	bekuyoba	-0.1003618
-4.416865	beligi	-0.1003618
-4.416865	belindele	-0.1003618
-4.173827	belu	-0.1003618
-4.416865	belungiselela	-0.1003618
-4.319955	bendawo	-0.1003618
-4.416865	benhlangano	-0.1003618
-4.319955	bentela	-0.1003618
-3.872797	benza	-0.1003618
-3.872797	benze	-0.1249359
-4.416865	bephila	-0.1003618
-4.416865	bephuma	-0.1003618
-4.115835	beqembu	-0.3859355
-4.319955	besaba	-0.1003618
-2.837081	bese	-0.1417009
-4.064682	besebenzisa	-0.1003618
-4.416865	beshaya	-0.1003618
-4.416865	besho	-0.2082959
-3.788476	besifazane	-0.1249359
-4.416865	besifunda
-4.240774	besilisa	-0.1003618
-4.416865	besintu	-0.1003618
-4.173827	best	-0.1003618
-4.240774	bestayela	-0.1003618
-3.872797	bethi	-0.1003618
-3.763653	bethu	-0.1509843
-4.416865	beya	-0.1003618
-4.416865	beza	-0.2082958
-4.416865	bezama	-0.1003618
-4.064682	beze	-0.1003618
-4.416865	bezempilo
-4.416865	bezingane	-0.1003618
-4.416865	bezokwazi	-0.274337
-4.416865	bezombusazwe	-0.1003618
-4.319955	bezwa	-0.1003618
-4.319955	bezwe	-0.1003618
-4.416865	bha	-0.1003618
-4.115835	bhala	-0.1911351
-3.977532	bheka	-0.1003618
-4.240774	bhuti	-0.1003618
-4.115835	big	-0.1003618
-4.240774	billion	-0.1786954
-4.240774	black	-0.1003618
-4.018925	blog	-0.1003618
-4.240774	blue	-0.2534701
-4.416865	bo
-4.173827	bobabili	-0.1003618
-4.416865	bobulili	-0.274337
-4.115835	bodwa	-0.2082958
-4.064682	bokuthi	-0.1433812
-4.173827	bomculo	-0.1003618
-4.416865	bomnotho	-0.1003618
-4.416865	bomphakathi	-0.1003618
-3.450723	bona	-0.1199086
-3.064682	bonke	-0.2240899
-4.319955	budebuduze	-0.2082958
-4.416865	buhlungu	-0.1003618
-4.115835	buka	-0.1003618
-4.416865	bukhoma	-0.1003618
-4.240774	busuku	-0.1003618
-3.717895	by	-0.1249359
-4.064682	cabanga	-0.1003618
-3.872797	cala	-0.1433812
-4.416865	call	-0.1003618
-4.416865	can	-0.1003618
-4.319955	carbon	-0.2098442
-4.416865	cash	-0.1003618
-4.240774	ceke	-0.1003618
-4.115835	cela	-0.1003618
-3.842834	cha	-0.1003618
-4.416865	chiefs	-0.1003618
-3.571767	chip	-0.1888687
-4.416865	chithi	-0.2534701
-4.416865	chwa	-0.2082959
-3.328729	cishe	-0.1144113
-4.416865	city	-0.1003618
-4.416865	committee	-0.1003618
-4.018925	control	-0.1377649
-4.416865	courier	-0.1003618
-4.416865	course	-0.1003618
-4.416865	cover	-0.1003618
-4.416865	credit	-0.1003618
-3.763653	cup	-0.1663899
-4.416865	da	-0.1003618
-3.939744	daba	-0.1003618
-4.173827	de	-0.1003618
-4.416865	delivery	-0.1003618
-4.416865	dengwane	-0.1003618
-4.319955	dioxide	-0.1003618
-4.416865	do	-0.2082958
-4.416865	dollar	-0.2082958
-4.173827	dolobha	-0.1003618
-2.854572	e	-0.1861578
-4.173827	e-Afrika	-0.1618575
-3.814805	e-Dundee	-0.1618575
-4.240774	e-Europe	-0.1618575
-4.416865	e-Iceland	-0.1003618
-4.173827	e-United	-0.4753188
-4.173827	e-Wasbank	-0.1003618
-4.064682	eBhayibheli	-0.1433812
-3.977532	eBhayibhelini	-0.2686562
-4.319955	eBrazil	-0.1003618
-4.416865	eDamaseku	-0.274337
-4.319955	eDlamini	-0.1786954
-3.788476	eDundee	-0.1644137
-4.416865	eFrance	-0.1003618
-4.319955	eGauteng	-0.1003618
-4.416865	eGaza	-0.1003618
-4.319955	eGlencoe	-0.1003618
-4.173827	eGoli	-0.1618575
-4.173827	eHong	-0.3784088
-4.416865	eJalimane	-0.1003618
-4.319955	eJapan	-0.1003618
-4.416865	eJapane	-0.1003618
-4.064682	eJerusalema	-0.2082958
-4.416865	eKapa	-0.274337
-4.416865	eLindelani	-0.1003618
-4.064682	eMacia	-0.2335204
-4.319955	eMadadeni	-0.1786954
-4.416865	eMahlabathini	-0.274337
-4.319955	eMaputo	-0.2098442
-4.319955	eMelika	-0.1003618
-4.115835	eMexico	-0.1003618
-4.240774	eMgungundlovu	-0.1003618
-4.173827	eMkhandlwini	-0.2335204
-4.416865	eMkhanyakude	-0.1003618
-4.240774	eMnambithi	-0.1003618
-4.319955	eMnyangweni	-0.1003618
-4.319955	eMoses	-0.2534701
-3.842834	eMpumalanga	-0.4935374
-4.416865	eMsinga	-0.2082959
-3.814805	eMzansi	-0.1509844
-4.319955	eMzinyathi	-0.1003618
-4.240774	eNcotshane	-0.2082958
-4.416865	eNdiya	-0.1003618
-3.939744	eNdumeni	-0.2485722
-4.416865	eNgilandi	-0.1003618
-3.587561	eNingizimu	-0.6825935
-4.416865	eNkonjeni	-0.1003618
-4.319955	eNkosini	-0.1003618
-4.115835	eNquthu	-0.1911351
-4.240774	eNtumbane	-0.1003618
-4.173827	eNyuvesi	-0.1003618
-4.319955	ePalestina	-0.1003618
-4.416865	ePhakeme	-0.1003618
-4.064682	ePhalamende	-0.1856283
-4.115835	ePitoli	-0.1702034
-4.173827	eRoma	-0.1003618
-4.416865	eRoyal	-0.274337
-3.872797	eRussia	-0.1735803
-4.319955	eRwanda	-0.1003618
-3.513775	eSibongile	-0.1943316
-4.240774	eSithembile	-0.1003618
-4.319955	eSodoma	-0.1003618
-3.620985	eSweden	-0.2697615
-4.319955	eTaiwan	-0.1003618
-4.416865	eTestamenteni	-0.1003618
-3.904982	eThekwini	-0.2451431
-4.416865	eVryheid	-0.1003618
-4.319955	eWasbank	-0.1003618
-3.676502	eYurophu	-0.2371502
-4.240774	eZimbabwe	-0.1003618
-4.173827	eba	-0.1003618
-4.416865	ebalelwa	-0.1003618
-4.115835	ebaluleke	-0.2648095
-4.173827	ebalulekile	-0.2082959
-4.416865	ebamba	-0.1003618
-4.416865	ebambekayo	-0.1003618
-4.018925	ebandleni	-0.1003618
-4.064682	ebantwini	-0.2302959
-3.814805	ebe	-0.1003618
-4.416865	ebekiwe	-0.1003618
-4.416865	ebhadla	-0.2534701
-4.240774	ebhala	-0.1003618
-4.018925	ebhaliwe	-0.1786954
-4.319955	ebhange	-0.1003618
-4.416865	ebheka	-0.1003618
-4.319955	ebhekene	-0.1003618
-4.416865	ebhekiswe	-0.1003618
-4.240774	ebholeni	-0.1618575
-4.416865	ebibanjelwe	-0.2082959
-4.416865	ebihambisana	-0.1003618
-4.416865	ebike	-0.2534701
-3.717895	ebizwa	-0.4206976
-4.416865	ebona	-0.1003618
-4.416865	ebonakale	-0.1003618
-4.416865	ebonisa	-0.1003618
-4.319955	ebucayi	-0.1786954
-4.240774	ebuhlungu	-0.1003618
-4.240774	ebukhoneni	-0.1856283
-3.939744	ebumnyameni	-0.1595117
-4.319955	ebuncaneni	-0.1003618
-3.226533	ebusuku	-0.2147308
-4.416865	ebusweni	-0.1003618
-4.240774	ebuye	-0.1856283
-4.173827	ebuzwa	-0.2302959
-4.115835	ecacile	-0.1003618
-3.977532	ecaleni	-0.1911351
-4.173827	ecela	-0.1003618
-4.240774	eceleni	-0.1003618
-4.173827	echaza	-0.1003618
-4.416865	echazwe	-0.1003618
-4.240774	edabuka	-0.1003618
-4.416865	edibana	-0.1003618
-4.064682	edingekayo	-0.1509844
-4.319955	edition	-0.1003618
-4.416865	edla	-0.1003618
-4.240774	edlozini	-0.1786954
-4.416865	edlula	-0.1003618
-3.375472	edlule	-0.3708276
-3.676502	edolobheni	-0.1468738
-4.319955	edume	-0.1003618
-3.872797	eduze	-0.1272404
-4.064682	eduze-ukufa	-0.1786954
-3.717895	efana	-0.2282909
-3.620985	efanayo	-0.1976662
-3.872797	efanele	-0.1377649
-4.115835	efika	-0.1003618
-3.872797	efuna	-0.1003618
-4.319955	egameni	-0.1003618
-4.416865	egazini	-0.1003618
-4.240774	egcekeni	-0.1003618
-4.319955	egcwele	-0.1003618
-4.319955	egijima	-0.1003618
-4.416865	egumbini	-0.274337
-3.842834	ehamba	-0.2899649
-4.319955	ehambele	-0.1003618
-4.319955	ehambisana	-0.1003618
-3.939744	ehholo	-0.2335204
-4.416865	ehhovisi	-0.1003618
-4.173827	ehlala	-0.1003618
-4.416865	ehlanzekile	-0.1003618
-4.416865	ehlasela	-0.1003618
-4.416865	ehlaselwa	-0.1003618
-4.416865	ehle	-0.1003618
-4.416865	ehlelekile	-0.1003618
-4.240774	ehlezi	-0.1003618
-4.319955	ehlobo	-0.1786954
-4.173827	ehlukahlukene	-0.1003618
-4.064682	ehlukene	-0.1786954
-4.319955	ehlukile	-0.1003618
-4.416865	ehola	-0.1003618
-3.696706	ejele	-0.1748481
-4.416865	ekade	-0.1003618
-4.240774	ekamu	-0.2335204
-4.115835	eke	-0.1003618
-4.416865	ekhala	-0.1003618
-4.115835	ekhanda	-0.1003618
-4.018925	ekhasini	-0.1516622
-3.302922	ekhaya	-0.2267784
-4.319955	ekhemisi	-0.1003618
-4.416865	ekhetheke	-0.1003618
-4.319955	ekhethekile	-0.1003618
-4.416865	ekhiqizwa	-0.1003618
-4.115835	ekhishwe	-0.1003618
-3.977532	ekhona	-0.1003618
-4.416865	ekhonjiwe	-0.1003618
-4.173827	ekhukhwini	-0.1003618
-3.904982	ekhuluma	-0.1370596
-4.319955	ekhulwini	-0.1003618
-4.173827	ekomidi	-0.1003618
-4.018925	ekubeni	-0.1003618
-4.416865	ekude	-0.1003618
-4.064682	ekufanele	-0.1618575
-4.115835	ekufeni	-0.1786954
-4.319955	ekufihleni	-0.2082958
-4.416865	ekufundeni	-0.1003618
-3.717895	ekugcineni	-0.1003618
-4.240774	ekuhambeni	-0.1003618
-4.018925	ekuhlaseleni	-0.1509844
-4.416865	ekukhanyeni	-0.1003618
-4.416865	ekuletheni	-0.1003618
-4.319955	ekulweni	-0.1003618
-4.416865	ekulwisaneni	-0.274337
-4.319955	ekunqobeni	-0.2082959
-3.788476	ekupheleni	-0.1468738
-3.788476	ekuphileni	-0.2049655
-3.657197	ekuqaleni	-0.2086824
-4.319955	ekusebenziseni	-0.1003618
-3.556527	ekuseni	-0.1824042
-4.416865	ekuthatheni	-0.2082959
-3.513775	ekutheni	-0.1165891
-4.319955	ekuthuthukiseni	-0.1003618
-4.416865	ekwazi	-0.1003618
-4.173827	ekwenzeni	-0.1003618
-4.416865	elahlekile	-0.1003618
-4.416865	elakuleli	-0.1003618
-4.416865	elalibizwa	-0.1003618
-3.872797	elandelayo	-0.1003618
-4.240774	elanga	-0.1003618
-4.416865	elangeni	-0.1003618
-4.416865	elaseYurophu	-0.2082958
-4.173827	elayizolo	-0.1003618
-4.416865	electronic	-0.1003618
-4.018925	eledlule	-0.1433812
-4.115835	elele	-0.1618575
-4.416865	element	-0.1003618
-4.115835	elibizwa	-0.274337
-4.173827	elibomvu	-0.1003618
-3.977532	elidala	-0.1003618
-4.319955	elidume	-0.1003618
-4.416865	elifika	-0.1003618
-4.416865	elihle	-0.1003618
-3.365713	elikhulu	-0.1492001
-4.018925	elikushoyo	-0.1334463
-3.788476	elilodwa	-0.1456536
-4.416865	elimele	-0.1003618
-4.240774	elimnyama	-0.1003618
-4.416865	elincane	-0.1003618
-4.319955	elinde	-0.1003618
-4.240774	elindlule	-0.1003618
-4.064682	elinganiselwa	-0.1856283
-4.416865	elingaphansi	-0.1003618
-4.319955	elingu	-0.1003618
-3.842834	elinye	-0.1663899
-4.173827	eliphethe	-0.1786954
-3.676502	eliphezulu	-0.1377649
-3.740171	elisha	-0.1644136
-4.173827	elishaywe	-0.1003618
-4.416865	eliteketiswa	-0.1003618
-3.872797	elithi	-0.1300221
-4.416865	elithile	-0.2534701
-4.319955	elitsha	-0.2098442
-4.416865	eliya	-0.1003618
-4.319955	eliyingozi	-0.1786954
-4.416865	eliyisiprofetho	-0.1003618
-4.173827	elizayo	-0.1003618
-4.416865	elokhu	-0.1003618
-4.416865	elokusula	-0.274337
-4.115835	elula	-0.1003618
-4.319955	ema	-0.1003618
-4.240774	emabandleni	-0.2098442
-4.240774	emadolobheni	-0.1003618
-4.240774	emafwini	-0.1786954
-4.173827	emahhovisi	-0.1003618
-4.115835	emahhovisini	-0.1003618
-3.814805	emakhaya	-0.1663899
-4.416865	emakhemisi	-0.1003618
-4.319955	emali	-0.1003618
-4.416865	emalini	-0.1003618
-4.115835	emandleni	-0.1003618
-4.416865	emangalisayo	-0.2082958
-4.416865	emangcwabeni	-0.1003618
-4.115835	emanzini	-0.1786954
-4.416865	emaphakathi	-0.1003618
-4.416865	emaphepheni	-0.1003618
-4.240774	emaphoyiseni	-0.1618575
-4.240774	emaqenjini	-0.2098442
-4.115835	emashumini	-0.20918
-4.240774	emasimini	-0.1786954
-3.872797	emasontweni	-0.155893
-4.319955	emathafeni	-0.1003618
-4.240774	emathuneni	-0.1003618
-4.319955	emathunjini	-0.2082959
-3.788476	emavikini	-0.3859355
-4.319955	emayelana	-0.1003618
-3.474857	emazweni	-0.1699108
-4.115835	emazwini	-0.1003618
-3.939744	embalwa	-0.2238887
-4.319955	embhalweni	-0.1003618
-4.115835	embi	-0.1003618
-4.319955	embonweni	-0.1003618
-4.173827	embukisweni	-0.1003618
-4.319955	embulungeni	-0.3784088
-4.319955	embusweni	-0.1003618
-4.115835	emcimbini	-0.2082959
-4.416865	emculweni	-0.1003618
-3.337684	emdlalweni	-0.2739748
-4.240774	emehlweni	-0.1003618
-4.319955	emele	-0.1003618
-4.416865	emelene	-0.1003618
-4.319955	ememeza	-0.1003618
-4.319955	emfuleni	-0.1003618
-4.416865	emgwaqeni	-0.1003618
-4.319955	emgwaqweni	-0.1003618
-2.690546	emhlabeni	-0.4427074
-4.173827	emhlane	-0.1003618
-3.814805	emhlanganweni	-0.1272404
-4.416865	emi	-0.1003618
-4.018925	emibi	-0.1377649
-3.740171	emibili	-0.1509843
-3.541804	emidlalweni	-0.2470134
-4.416865	emigwaqeni	-0.1003618
-4.319955	emigwaqweni	-0.1003618
-4.416865	emihlangano	-0.1003618
-4.319955	emihlanganweni	-0.2082958
-3.620985	emihlanu	-0.1633927
-3.763653	emikhulu	-0.1003618
-4.416865	emindeni	-0.1003618
-4.240774	emindenini	-0.1003618
-4.416865	emine	-0.1003618
-4.115835	emini	-0.261697
-3.541804	eminingi	-0.1212284
-4.115835	eminyaka	-0.1786954
-3.356167	eminyakeni	-0.2596103
-3.872797	eminye	-0.1334463
-4.416865	emiphakathini	-0.1003618
-4.416865	emisakazweni	-0.1003618
-4.319955	emisebenzini	-0.1003618
-4.319955	emisha	-0.1003618
-3.814805	emithathu	-0.1865702
-4.416865	emizini	-0.1003618
-4.173827	emkhakheni	-0.1003618
-3.904982	emkhandlwini	-0.1409058
-4.319955	emkhathini	-0.1786954
-4.416865	emkhukhwini	-0.1003618
-3.842834	emlandweni	-0.1509843
-4.240774	emlenzeni	-0.1856283
-3.904982	emndenini	-0.1003618
-4.319955	emnothweni	-0.1786954
-4.319955	emnyama	-0.1003618
-4.416865	emnyango	-0.1003618
-4.173827	emnyangweni	-0.1618575
-4.416865	emotweni	-0.1003618
-3.587561	emoyeni	-0.1395071
-4.416865	empambanweni	-0.2534701
-3.763653	empeleni	-0.1003618
-3.439142	emphakathini	-0.186614
-4.240774	emphilweni	-0.3784088
-4.416865	empikiswaneni	-0.2082958
-3.527563	empilweni	-0.2607725
-3.763653	empini	-0.1748481
-4.319955	empumalanga	-0.1003618
-4.416865	empumelelweni	-0.1003618
-3.904982	emqhudelwaneni	-0.4409008
-4.319955	emqondweni	-0.1003618
-3.939744	emsakazweni	-0.1003618
-4.240774	emsamo	-0.1003618
-3.788476	emsebenzini	-0.1003618
-4.115835	emshadweni	-0.1003618
-4.319955	emswaneni	-0.1003618
-4.416865	emthandazweni	-0.1003618
-4.064682	emthethweni	-0.1433811
-4.416865	emtholampilo	-0.2082958
-4.416865	emulini	-0.1003618
-4.416865	emumva	-0.1003618
-3.474857	emuva	-0.1853372
-2.754107	emva	-0.381348
-4.416865	emzileni	-0.1003618
-3.842834	emzimbeni	-0.1663899
-3.500411	emzini	-0.181324
-4.416865	ena	-0.1003618
-3.977532	enamandla	-0.1433812
-3.872797	encane	-0.1595117
-3.788476	encwadini	-0.1555552
-4.319955	endabeni	-0.1003618
-4.064682	endala	-0.1003618
-3.074442	endaweni	-0.1835068
-4.416865	endle	-0.2082959
-3.814805	endleleni	-0.2028147
-3.571767	endlini	-0.212711
-4.018925	endlule	-0.1509844
-4.416865	endodaneni	-0.1003618
-4.319955	enduduzo	-0.1003618
-4.240774	eneminyaka	-0.1856283
-4.319955	engaba	-0.1003618
-4.319955	engafanele	-0.1003618
-4.416865	engahle	-0.1003618
-4.115835	engakaze	-0.1003618
-4.319955	engalungile
-4.416865	engamashumi	-0.274337
-4.416865	engamatshumi	-0.1003618
-4.319955	engamele	-0.2082959
-4.416865	engango	-0.1003618
-4.115835	engaphansi	-0.2082959
-4.173827	engaphezu	-0.1003618
-4.240774	engaphezulu	-0.1003618
-4.064682	engase	-0.1702034
-4.416865	engasekho	-0.274337
-4.416865	engathi	-0.1003618
-4.416865	engaziwa	-0.274337
-4.018925	engcono	-0.1334463
-4.319955	engcwele	-0.1003618
-4.173827	engekho	-0.1003618
-4.064682	engena	-0.1509844
-4.319955	engenawo	-0.1003618
-4.416865	engenile	-0.274337
-4.319955	engokomoya	-0.1003618
-4.064682	engokoqobo	-0.1516622
-4.115835	engokwesiprofetho	-0.1003618
-3.740171	engozini	-0.1986398
-4.018925	engqondweni	-0.1433811
-4.240774	engqungqutheleni	-0.1003618
-3.337684	engu	-0.2037343
-4.319955	engxenyeni	-0.1003618
-4.319955	enhla	-0.1003618
-4.416865	enhlabathini	-0.1003618
-4.416865	enhlanganweni	-0.1003618
-4.018925	enhle	-0.1595117
-4.319955	enhlekeleleni	-0.1003618
-4.240774	enhliziyweni	-0.1786954
-4.319955	enikeza	-0.1003618
-3.977532	eningi	-0.1003618
-3.977532	eningizimu	-0.222838
-3.814805	enjalo	-0.2548492
-4.319955	enkangala	-0.2082958
-3.439142	enkantolo	-0.2029798
-4.416865	enkathini	-0.2082959
-4.319955	enkonzweni	-0.1003618
-3.059884	enkulu	-0.1785592
-3.842834	enkundleni	-0.2041785
-4.416865	enobudlova	-0.1003618
-4.319955	enobungozi	-0.1003618
-4.416865	enqubweni	-0.274337
-4.416865	ensimini	-0.1003618
-4.416865	entabeni	-0.274337
-3.302922	entsha	-0.1348481
-4.416865	entsheni	-0.1003618
-4.319955	entwasahlobo	-0.1003618
-4.416865	enu	-0.1003618
-4.416865	enuzi	-0.1003618
-3.977532	enyakatho	-0.1509844
-3.450723	enye	-0.1968788
-4.416865	enyuvesi	-0.1003618
-3.977532	enza	-0.1300221
-3.939744	enze	-0.1003618
-4.416865	enzima	-0.1003618
-4.416865	epayipini	-0.1003618
-4.416865	ephakathi	-0.1003618
-3.939744	ephakeme	-0.1786954
-3.904982	ephalamende	-0.1334463
-4.240774	ephawulekayo	-0.1618575
-4.240774	ephelele	-0.274337
-4.319955	ephelileyo	-0.1003618
-4.018925	ephephandabeni	-0.1003618
-4.319955	ephepheni	-0.1003618
-4.240774	ephephile	-0.1003618
-4.240774	ephethe	-0.1003618
-4.416865	ephethwe	-0.1003618
-4.240774	ephezulu	-0.1003618
-4.173827	ephila	-0.1003618
-4.416865	ephothule	-0.1003618
-4.173827	ephuma	-0.1003618
-4.240774	ephume	-0.2082959
-4.416865	ephusile	-0.1003618
-4.319955	ephuze	-0.1003618
-4.416865	epulazini
-4.173827	eqandeni	-0.1003618
-4.416865	eqembu	-0.2082959
-4.018925	eqenjini	-0.1911351
-4.416865	eqhubekayo	-0.2082958
-4.416865	eqhweni	-0.1003618
-3.977532	eqinile	-0.1409058
-4.319955	eqinisweni	-0.1003618
-4.319955	eqolo	-0.1003618
-4.319955	esaba	-0.1003618
-4.416865	esabekayo	-0.274337
-4.416865	esakaza	-0.1003618
-4.416865	esanda	-0.1003618
-3.939744	esandleni	-0.20918
-4.173827	esanele	-0.1003618
-4.416865	esangweni	-0.1003618
-4.319955	esebenza	-0.1003618
-4.416865	esebonga	-0.1003618
-4.416865	esefaka	-0.1003618
-4.319955	esehamba	-0.1003618
-4.416865	esemdala	-0.2082959
-4.416865	esemncane	-0.1003618
-4.173827	esencane	-0.1003618
-4.416865	eseningizimu	-0.1003618
-4.240774	esenyakatho	-0.1003618
-3.977532	esenza	-0.1003618
-4.416865	esenziwe	-0.1003618
-4.416865	eseqedile	-0.1003618
-4.416865	esesabisayo	-0.1003618
-4.064682	esethi	-0.1003618
-4.319955	esetshela	-0.1003618
-4.416865	eseveza	-0.1003618
-4.416865	esexhumana	-0.1003618
-4.416865	esezinhlelweni	-0.2534701
-4.319955	eshaya	-0.1003618
-4.416865	eshaywa	-0.1003618
-4.416865	eshicilelwe	-0.1003618
-4.240774	esho	-0.1786954
-3.556527	esibhedlela	-0.1629881
-4.319955	esibi	-0.1003618
-3.904982	esibizwa	-0.2648095
-3.842834	esibucayi	-0.1822985
-4.319955	esidayisa	-0.1003618
-3.311355	eside	-0.151488
-4.240774	esidlangalaleni	-0.1003618
-4.173827	esidlule	-0.1003618
-3.977532	esifanayo	-0.1334463
-4.416865	esifanele	-0.1003618
-4.064682	esifundazweni	-0.1003618
-4.115835	esifundeni	-0.1618575
-4.240774	esifundweni	-0.1003618
-4.115835	esigabeni	-0.1003618
-4.173827	esigodini	-0.1003618
-4.064682	esihlalweni	-0.1786954
-3.939744	esihle	-0.1003618
-4.240774	esihloko	-0.2098442
-3.788476	esihlokweni	-0.1199086
-3.788476	esihogweni	-0.1370596
-4.416865	esika	-0.1003618
-4.173827	esikalini	-0.274337
-3.375472	esikhathini	-0.3468869
-4.416865	esikhethekile	-0.1003618
-4.240774	esikhishwe	-0.1003618
-3.500411	esikhulu	-0.1354299
-3.395676	esikhundleni	-0.1229954
-4.416865	esikhungweni
-4.416865	esikhwameni	-0.1003618
-4.416865	esikole	-0.1003618
-3.42786	esikoleni	-0.2306489
-4.018925	esikolweni	-0.1003618
-3.977532	esilandelayo	-0.274337
-4.416865	esimanzonzo	-0.1003618
-4.115835	esimweni	-0.1003618
-4.416865	esinalo	-0.1003618
-4.416865	esincane	-0.1003618
-4.064682	esingakanani	-0.1003618
-4.319955	esingenhla	-0.1003618
-4.319955	esingokomoya	-0.1003618
-3.939744	esiningi	-0.1003618
-4.240774	esinjalo	-0.1003618
-4.115835	esintwini	-0.3859355
-3.814805	esinye	-0.1509844
-4.115835	esinzima	-0.1433811
-4.416865	esiphakeme	-0.1003618
-4.240774	esiphambanweni	-0.1003618
-4.416865	esiphathelene	-0.1003618
-4.416865	esiphethweni	-0.2082958
-3.872797	esiphezulu	-0.1377649
-4.064682	esiphila	-0.1377649
-4.416865	esiphilayo	-0.1003618
-4.173827	esiphuthumayo	-0.1003618
-4.416865	esiqinile	-0.1003618
-4.416865	esise	-0.1003618
-4.018925	esisha	-0.1003618
-4.319955	esishubile	-0.1003618
-4.416865	esishukiwe	-0.274337
-3.788476	esisodwa	-0.1686423
-4.416865	esiswini	-0.274337
-4.173827	esiteshini	-0.3784088
-3.439142	esithi	-0.1161282
-4.018925	esithile	-0.1003618
-4.416865	esitokisini	-0.1003618
-4.115835	esitolo	-0.1003618
-4.319955	esivela	-0.1003618
-4.416865	esivumelwaneni	-0.1003618
-4.064682	esiye	-0.1003618
-4.319955	esiyikho	-0.1003618
-4.018925	esiyisiprofetho	-0.1003618
-4.416865	esiza	-0.1003618
-3.620985	esizayo	-0.131208
-4.240774	esizukulwaneni	-0.1856283
-3.474857	esontweni	-0.2627572
-4.115835	esuka	-0.1003618
-4.416865	esweni	-0.1003618
-4.319955	eswini	-0.1003618
-4.416865	ethanda	-0.1003618
-4.173827	ethandwa	-0.1786954
-4.416865	ethandweni	-0.1003618
-4.240774	ethatha	-0.1618575
-4.064682	ethathwa	-0.1003618
-3.977532	ethe	-0.1702034
-4.416865	ethembeni	-0.1003618
-3.255497	ethi	-0.1205986
-3.842834	ethile	-0.1003618
-4.416865	ethintekile	-0.1003618
-4.115835	ethola	-0.2335204
-4.240774	etholakala	-0.1003618
-3.657197	ethu	-0.1933559
-4.319955	ethula	-0.2098442
-4.173827	ethule	-0.1618575
-4.064682	euro	-0.1003618
-4.319955	evamile	-0.1786954
-3.842834	evela	-0.1003618
-4.416865	evele	-0.1003618
-4.416865	eveza	-0.1003618
-4.240774	evikini	-0.2098442
-4.240774	evulekile	-0.1003618
-4.416865	evulelekile	-0.1003618
-4.416865	ewadini	-0.1003618
-3.872797	ewu	-0.1003618
-4.416865	ewusizo	-0.2082959
-4.319955	exhumene	-0.1003618
-4.319955	extra	-0.274337
-3.842834	eya	-0.1914111
-4.240774	eyabhalwa	-0.1003618
-4.319955	eyakhe	-0.1003618
-4.319955	eyakhiwe	-0.1003618
-4.319955	eyamanqamu	-0.1003618
-4.416865	eyandulela	-0.274337
-4.319955	eyanyatheliswa	-0.1003618
-4.416865	eyayibizwa	-0.1003618
-4.064682	eyaziwa	-0.1003618
-4.319955	eye	-0.1003618
-3.939744	eyedlule	-0.2686562
-4.064682	eyenza	-0.1003618
-4.416865	eyenzeka	-0.1003618
-4.018925	eyenziwa	-0.1003618
-4.319955	eyenziwe	-0.1003618
-4.173827	eyi	-0.1003618
-4.416865	eyingozi	-0.2082958
-4.416865	eyinhlekelele	-0.1003618
-4.018925	eyishumi	-0.1003618
-4.416865	eyisikhombisa	-0.1003618
-4.416865	eyisimanga	-0.1003618
-4.416865	eyisisekelo	-0.1003618
-4.319955	eyisithupha	-0.1003618
-3.842834	eyodwa	-0.1370596
-4.416865	eyokuqala	-0.1003618
-4.416865	ezabe
-4.115835	ezahlukahlukene	-0.1003618
-3.556527	ezahlukene	-0.2005395
-4.416865	ezaholela	-0.1003618
-4.416865	ezakhayo	-0.1003618
-4.416865	ezakhiwa	-0.1003618
-4.173827	ezama	-0.1003618
-4.240774	ezanele	-0.1003618
-4.319955	ezansi	-0.1003618
-3.620985	ezayo	-0.216121
-4.240774	eze	-0.1003618
-4.240774	ezedlule	-0.1003618
-4.240774	ezehlukene	-0.1003618
-4.018925	ezempi	-0.1377649
-4.240774	ezeni	-0.1003618
-4.240774	ezenza	-0.1003618
-4.416865	ezenzakalayo	-0.1003618
-4.064682	ezenzeka	-0.1911351
-4.319955	ezenzekayo	-0.1003618
-4.319955	ezenziwa	-0.1003618
-3.977532	ezepolitiki	-0.1003618
-4.416865	ezethusayo	-0.1003618
-4.115835	ezibalulekile	-0.1003618
-4.416865	ezibhalwe	-0.1003618
-4.416865	ezibhedlela	-0.1003618
-4.319955	ezibonakalayo	-0.1003618
-4.319955	ezibonisa	-0.2534701
-4.240774	ezibuhlungu	-0.1618575
-4.416865	ezidayisa	-0.274337
-4.416865	ezidingekayo	-0.1003618
-3.450723	ezifana	-0.1316407
-4.319955	ezifanayo	-0.1003618
-4.319955	ezifanele	-0.1003618
-4.416865	ezifundazweni	-0.1003618
-4.240774	ezifundeni	-0.1618575
-4.240774	ezigcwele	-0.1003618
-4.416865	ezigidini	-0.1003618
-4.416865	ezihambisana	-0.1003618
-4.240774	ezihlahleni	-0.2082958
-4.416865	ezihlakaniphile
-4.319955	ezihlala	-0.1003618
-4.416865	ezihlobene	-0.1003618
-4.416865	ezihlokweni	-0.1003618
-3.939744	ezihlukahlukene	-0.1433811
-4.173827	ezikhathini	-0.1618575
-4.064682	ezikhona	-0.1433812
-4.416865	ezikhulwini	-0.1003618
-4.416865	eziko	-0.1003618
-4.064682	ezikoleni	-0.1433811
-4.319955	ezikweletini	-0.1003618
-4.115835	ezilandelayo	-0.1003618
-4.319955	ezimathonsi	-0.1003618
-3.872797	ezimbalwa	-0.1003618
-3.740171	ezimbi	-0.1509843
-3.212745	ezimbili	-0.1766132
-4.319955	ezimbili-state	-0.1003618
-4.319955	ezimele	-0.1003618
-4.416865	ezimhlophe	-0.1003618
-4.240774	ezimisiwe	-0.1786954
-4.115835	ezimnandi	-0.1509844
-4.115835	ezimnyama	-0.1003618
-3.788476	ezimpilweni	-0.3829091
-4.416865	ezimpini	-0.1003618
-4.115835	ezinamandla	-0.1003618
-3.904982	ezincane	-0.1911351
-4.416865	ezincwadini	-0.2082959
-4.416865	ezindala	-0.1003618
-3.42786	ezindaweni	-0.1237505
-4.173827	ezindlini	-0.1003618
-4.173827	ezine	-0.1003618
-4.319955	ezingaba	-0.1003618
-4.319955	ezingafanele	-0.1003618
-4.319955	ezingalindelekile	-0.1003618
-4.416865	ezingama	-0.1003618
-4.416865	ezinganeni	-0.1003618
-4.240774	ezingaphansi
-4.018925	ezingaphezu	-0.1003618
-4.173827	ezingasho	-0.1702034
-4.319955	ezingekho	-0.1003618
-4.416865	ezingenhla	-0.1003618
-3.939744	ezingeni	-0.1377649
-4.416865	ezingezinhle	-0.1003618
-3.977532	ezingokomoya	-0.1618575
-4.018925	ezingu	-0.1003618
-4.173827	ezinhlanu	-0.1786954
-4.018925	ezinhle	-0.1509844
-4.416865	ezinhlekeleleni	-0.1003618
-3.487446	eziningana	-0.1476958
-3.055137	eziningi	-0.1468484
-4.319955	ezinjalo	-0.1003618
-4.319955	ezinkantolo	-0.1003618
-4.115835	ezinkingeni	-0.1003618
-3.270737	ezinkulu	-0.1570072
-4.416865	ezinkulukazi	-0.1003618
-4.416865	ezinkundleni	-0.2534701
-4.416865	ezinophephela	-0.274337
-4.416865	ezinqumweni	-0.1003618
-3.474857	ezinsukwini	-0.4430341
-3.603952	ezintathu	-0.1446579
-4.416865	ezinto	-0.1003618
-3.977532	ezintsha	-0.1786954
-4.240774	ezintweni	-0.1003618
-4.416865	ezinyathelweni	-0.1003618
-3.319955	ezinye	-0.163984
-4.115835	ezinzima	-0.1003618
-4.240774	eziphakeme	-0.1003618
-4.064682	eziphathelene	-0.1003618
-4.319955	eziphezulu	-0.1003618
-4.416865	eziphi	-0.1003618
-4.240774	eziphuma	-0.1786954
-4.416865	eziqukethwe	-0.1003618
-4.416865	eziteshini	-0.1003618
-4.416865	ezithatha	-0.1003618
-4.173827	ezithi	-0.1003618
-3.842834	ezithile	-0.1516621
-3.620985	ezithinta	-0.1003618
-3.904982	ezitolo	-0.1377649
-4.416865	ezivamile	-0.1003618
-3.872797	ezivela	-0.1003618
-4.064682	eziwu	-0.1003618
-4.416865	eziya	-0.1003618
-4.115835	eziye	-0.1786954
-4.018925	eziyingozi	-0.3897483
-4.319955	eziyishumi	-0.1003618
-4.173827	eziyisikhombisa	-0.1786954
-4.173827	eziyisisekelo	-0.1003618
-4.416865	eziyisishiyagalombili	-0.1003618
-4.018925	eziyisithupha	-0.1003618
-4.173827	ezizayo	-0.1786954
-4.416865	ezizimele	-0.1003618
-4.240774	ezizwakalayo	-0.1003618
-4.416865	ezizweni	-0.1003618
-4.319955	ezobe
-4.173827	ezokwenza	-0.1003618
-4.416865	ezokwenzeka	-0.1003618
-3.904982	ezombusazwe	-0.1618575
-4.173827	ezomnotho	-0.1003618
-4.319955	ezosiza	-0.1003618
-4.064682	ezulwini	-0.1702034
-4.240774	ezwe	-0.1003618
-2.985501	ezweni	-0.270067
-4.319955	ezwenikazi	-0.1003618
-4.416865	ezwini	-0.1003618
-4.416865	faka	-0.1003618
-4.319955	fast	-0.1786954
-4.416865	fc	-0.1003618
-4.416865	flat	-0.2082959
-3.904982	fm	-0.1377649
-3.278562	for	-0.1225336
-4.319955	force	-0.1003618
-4.173827	free	-0.1003618
-4.240774	from	-0.2082958
-4.319955	front	-0.1003618
-4.173827	funda	-0.1003618
-2.038013	futhi	-0.1698614
-4.416865	game	-0.1003618
-4.319955	gay	-0.1003618
-4.416865	gene	-0.1003618
-4.416865	giant	-0.1003618
-3.571767	global	-0.1958105
-4.173827	glug	-0.2082959
-4.416865	gogo	-0.1003618
-4.115835	got	-0.1003618
-4.240774	hamba	-0.1003618
-3.717895	has	-0.1515839
-4.115835	hatshi	-0.1003618
-4.115835	hayi	-0.1003618
-4.416865	health
-4.240774	heroin	-0.1003618
-3.286531	hhayi	-0.1571718
-4.319955	hit	-0.1003618
-4.018925	hlangothi	-0.1003618
-4.173827	hlelo	-0.1003618
-4.416865	horror	-0.1003618
-2.872797	i	-0.1680145
-4.416865	i-CD	-0.2082959
-3.977532	i-IDP	-0.1334463
-4.416865	i-Okawa	-0.1003618
-4.416865	i-ajenda	-0.1003618
-4.416865	i-imeyili	-0.1003618
-4.173827	iBafana	-0.2534701
-4.240774	iBaltic	-0.1003618
-3.513775	iBhayibheli	-0.1541066
-4.319955	iBidvest	-0.3784088
-4.416865	iCeltic	-0.1003618
-4.416865	iChippa	-0.2082959
-3.842834	iCourier	-0.1509844
-4.240774	iDA	-0.1003618
-4.240774	iDaily	-0.274337
-4.416865	iDemo	-0.1003618
-4.416865	iGasoline	-0.1003618
-4.416865	iGeasy	-0.1003618
-4.416865	iJomo	-0.274337
-4.018925	iKaizer	-0.6214468
-4.416865	iLembe	-0.1003618
-3.904982	iMamelodi	-0.6794388
-4.173827	iMarizburg	-0.2648095
-4.064682	iMeya	-0.1702034
-4.416865	iMlimisi	-0.1003618
-4.240774	iMoroka	-0.4753188
-4.416865	iNational	-0.274337
-4.416865	iNhlangano
-4.240774	iNingizimu	-0.3067543
-3.763653	iNkosi	-0.1003618
-4.319955	iNongoma	-0.274337
-4.319955	iOrlando	-0.3784088
-4.319955	iPSL	-0.1003618
-4.416865	iPongola	-0.2534701
-4.416865	iRand
-4.240774	iRussia	-0.1003618
-4.416865	iSabatha	-0.1003618
-4.319955	iSivumelwano	-0.2534701
-4.416865	iSodoma	-0.2082959
-4.319955	iSonto	-0.1786954
-4.416865	iSoviet	-0.2082959
-3.977532	iSundowns	-0.1377649
-4.319955	iSupersport	-0.1786954
-4.319955	iSupersports	-0.1003618
-4.416865	iTransnet	-0.1003618
-4.416865	iTropical	-0.2534701
-4.416865	iWits	-0.1003618
-4.416865	iYurophu	-0.1003618
-4.240774	iZwi	-0.3784088
-4.173827	iba	-0.1003618
-4.319955	ibalazwe	-0.1003618
-3.977532	ibandla	-0.1003618
-4.115835	ibanga	-0.1786954
-3.385457	ibe	-0.1377649
-4.319955	ibekwe	-0.1003618
-4.064682	ibhakaniya	-0.1618575
-4.240774	ibhalwe	-0.1003618
-4.416865	ibhekane	-0.1003618
-4.240774	ibheyili	-0.2082959
-4.416865	ibhizinisi	-0.1003618
-3.676502	ibhola	-0.1403768
-4.416865	ibhuloho	-0.274337
-4.416865	ibigcwele	-0.1003618
-4.416865	ibilokhu	-0.1003618
-4.319955	ibizwa	-0.2534701
-4.319955	ibona	-0.1003618
-4.173827	ibonakala	-0.1003618
-4.319955	ibonisa	-0.2534701
-4.240774	ibukeka	-0.1003618
-4.319955	ibutho	-0.1003618
-4.173827	ibuya	-0.1003618
-4.173827	ibuye	-0.1003618
-4.319955	ibuyise	-0.1003618
-3.395676	icala	-0.1579158
-4.173827	ice	-0.1003618
-4.173827	icwecwe	-0.1003618
-4.416865	idale	-0.2082958
-4.416865	idamu	-0.1003618
-4.173827	idatha	-0.1003618
-4.173827	idinga	-0.1003618
-4.319955	idla	-0.1003618
-4.240774	idlala	-0.1003618
-3.126831	idlozi	-0.1690595
-4.240774	idlule	-0.2082959
-4.240774	idolobha	-0.1003618
-4.416865	idumela	-0.1003618
-4.240774	if	-0.1003618
-4.240774	ifa	-0.1618575
-4.416865	ifakwe	-0.1003618
-4.416865	ifike	-0.1003618
-4.319955	ifilimu	-0.1003618
-3.346827	igama	-0.2025164
-4.416865	igane	-0.2082959
-3.939744	igazi	-0.1003618
-4.240774	igcine	-0.1003618
-4.064682	igciwane	-0.1856283
-4.115835	igoli	-0.1618575
-4.416865	igumbi	-0.1003618
-4.240774	igunya	-0.1003618
-4.240774	igxathu	-0.1003618
-4.115835	ihamba	-0.1003618
-4.115835	ihambe	-0.1618575
-4.018925	ihhovisi	-0.1786954
-4.416865	ihlala	-0.1003618
-4.416865	ihlaya	-0.1003618
-4.240774	ihlombe	-0.1003618
-4.416865	ihora	-0.1003618
-4.416865	ijaji	-0.2082959
-4.018925	ijezi	-0.1003618
-3.977532	ikakhulu	-0.1003618
-3.513775	ikakhulukazi	-0.1300221
-4.319955	ikamu	-0.1786954
-4.319955	ike
-3.977532	ikhadi	-0.1702034
-4.240774	ikhala	-0.1003618
-4.319955	ikhalenda	-0.2534701
-3.977532	ikhambi	-0.1003618
-4.018925	ikhanda	-0.1003618
-3.439142	ikhansela	-0.190228
-4.173827	ikhasi	-0.1003618
-4.416865	ikhaya	-0.1003618
-4.173827	ikhiphe	-0.2082958
-4.018925	ikhona	-0.1618575
-4.018925	ikhono	-0.1003618
-4.064682	ikhophi	-0.1003618
-4.416865	ikhuluma	-0.1003618
-3.814805	ikomidi	-0.2028147
-4.319955	ikomiti	-0.1786954
-4.173827	ikuphi	-0.1003618
-3.788476	ikusasa	-0.1003618
-4.240774	ikwazi	-0.1003618
-4.416865	ilale	-0.1003618
-3.763653	ilanga	-0.1003618
-4.416865	ilapho	-0.1003618
-4.416865	ilindele	-0.1003618
-4.173827	iloba	-0.274337
-4.416865	ilokhu	-0.1003618
-4.319955	ilona	-0.1003618
-4.064682	ilunga	-0.2098442
-3.904982	ilungelo	-0.1003618
-4.416865	ilungiselela	-0.1003618
-4.173827	ilungu	-0.1618575
-4.416865	image	-0.2082958
-2.898351	imali	-0.193215
-4.416865	imanje	-0.1003618
-4.416865	imatasatasa	-0.1003618
-4.018925	imayelana	-0.1003618
-4.115835	imbala	-0.1786954
-4.115835	imbangela	-0.1786954
-4.064682	imbeleko	-0.1003618
-4.115835	imbewu	-0.1003618
-4.416865	imbhali	-0.1003618
-4.240774	imbuzi	-0.1003618
-4.416865	ime	-0.2082959
-4.115835	imele	-0.1003618
-4.416865	imfucumfucu	-0.1003618
-4.319955	imfucuza	-0.1003618
-4.240774	imfundiso	-0.2082959
-3.977532	imfundo	-0.1377649
-4.240774	imfuyo	-0.1003618
-4.416865	imi	-0.1003618
-4.018925	imibhalo	-0.1003618
-4.416865	imibhikisho	-0.1003618
-3.788476	imibiko	-0.1003618
-3.763653	imibono	-0.131208
-4.240774	imibuso	-0.1003618
-3.842834	imibuzo	-0.1516622
-4.240774	imicabango	-0.1003618
-4.240774	imicimbi	-0.1003618
-3.587561	imidlalo	-0.1199086
-4.416865	imifantu	-0.1003618
-4.173827	imifula	-0.1003618
-4.018925	imigomo	-0.1786954
-4.064682	imigwaqo	-0.1003618
-3.587561	imihlangano	-0.2203196
-4.416865	imiholo	-0.1003618
-4.416865	imikhankaso	-0.1003618
-4.319955	imikhiqizo	-0.1003618
-4.115835	imikhuba	-0.1003618
-4.319955	imilenze	-0.1786954
-4.240774	imilomo	-0.1003618
-3.977532	imimoya	-0.1433812
-3.814805	imindeni	-0.1003618
-4.416865	imingcele	-0.1003618
-3.842834	imininingwane	-0.1003618
-3.186416	iminyaka	-0.2066809
-4.416865	iminyango	-0.1003618
-3.904982	imiphakathi	-0.1003618
-4.240774	imiphefumulo	-0.1003618
-3.763653	imiphumela	-0.131208
-4.416865	imiqondo	-0.2082958
-3.696706	imisebenzi	-0.1249359
-4.319955	imishanguzo	-0.1003618
-4.173827	imishini	-0.1786954
-4.319955	imithandazo	-0.1003618
-3.571767	imithetho	-0.1709869
-3.904982	imithi	-0.2685955
-4.416865	imitholampilo	-0.1003618
-4.064682	imithombo	-0.1618575
-4.416865	imiyalelo
-4.115835	imiyalezo	-0.1786954
-3.763653	imizamo	-0.1003618
-3.740171	imizi	-0.1735803
-4.240774	imizimba	-0.1786954
-3.977532	imizuzu	-0.1334463
-3.696706	imoto	-0.1370596
-3.939744	impahla	-0.1003618
-3.872797	impela	-0.1003618
-3.717895	impendulo	-0.1334463
-4.173827	impepho	-0.1618575
-4.416865	imphela	-0.1003618
-3.311355	impi	-0.1749794
-4.416865	impikiswano	-0.1003618
-3.233595	impilo	-0.2313657
-4.416865	impumelelo	-0.274337
-4.173827	imvelo	-0.1003618
-3.842834	imvula	-0.155893
-4.240774	imvume	-0.1003618
-4.416865	imvunge	-0.1003618
-4.319955	imvuselelo	-0.1003618
-3.099847	in	-0.2596348
-4.240774	inamandla	-0.2082959
-3.842834	inani	-0.191411
-4.416865	inaphakade	-0.2082958
-3.696706	incazelo	-0.1468738
-4.319955	incindezi	-0.1003618
-4.416865	incithakalo	-0.2082958
-3.311355	incwadi	-0.1425811
-3.587561	indaba	-0.1370596
-4.319955	indalo	-0.1003618
-3.161592	indawo	-0.1629882
-4.319955	indebe	-0.1003618
-4.240774	indima	-0.1003618
-4.064682	indiva	-0.1509844
-4.115835	indiza	-0.1003618
-4.115835	indlala	-0.1003618
-4.319955	indlebe	-0.1003618
-3.055137	indlela	-0.1429606
-3.571767	indlu	-0.1446579
-3.740171	indoda	-0.1003618
-4.416865	indodakazi	-0.1003618
-4.018925	indodana	-0.1433812
-4.064682	induku	-0.4528823
-4.115835	ine	-0.1003618
-4.416865	infidels	-0.2082959
-4.173827	info	-0.1003618
-4.115835	ingaba	-0.1003618
-3.939744	ingabe	-0.1003618
-4.416865	ingamanga	-0.274337
-3.763653	ingane	-0.1300221
-4.416865	ingase	-0.1003618
-4.319955	ingathi	-0.1003618
-3.977532	ingcindezi	-0.1003618
-4.064682	ingelosi	-0.2335204
-4.416865	ingena	-0.1003618
-4.416865	ingenye	-0.1003618
-4.416865	ingenziwa	-0.1003618
-3.977532	ingoma	-0.1003618
-3.487446	ingozi	-0.1161282
-4.173827	ingqalasizinda	-0.1509844
-4.319955	ingqikithi	-0.1003618
-4.416865	ingqungquthela	-0.1003618
-4.240774	ingu	-0.1003618
-4.416865	inguquko	-0.1003618
-4.240774	ingxabano	-0.1003618
-3.513775	ingxenye	-0.1561117
-4.240774	ingxoxo	-0.1786954
-4.319955	inhlabamkhosi	-0.1003618
-4.416865	inhlalakahle	-0.1003618
-3.541804	inhlangano	-0.1433812
-4.416865	inhlanhla	-0.1003618
-3.571767	inhlekelele	-0.1654247
-3.620985	inhliziyo	-0.1377649
-4.240774	inhlobo	-0.1003618
-4.240774	inhlolovo	-0.1003618
-4.416865	inhlonipho	-0.1003618
-3.977532	inhloso	-0.1377649
-4.319955	inikeza	-0.1786954
-4.416865	inikezwe	-0.1003618
-3.763653	iningi	-0.1272404
-4.240774	iningizimu	-0.1786954
-4.064682	injabulo	-0.1377649
-3.939744	injongo	-0.1433812
-4.173827	inkambo	-0.1618575
-3.977532	inkampani	-0.1003618
-3.842834	inkantolo	-0.1939906
-4.173827	inkanuko	-0.1786954
-4.240774	inkathi	-0.1786954
-4.416865	inking	-0.1003618
-3.513775	inkinga	-0.1541066
-4.319955	inkohlakalo	-0.1003618
-4.240774	inkolelo	-0.1003618
-3.814805	inkolo	-0.1692606
-4.416865	inkondlo	-0.1003618
-4.115835	inkontileka	-0.1003618
-4.173827	inkonzo	-0.1786954
-4.416865	inkosazane	-0.1003618
-3.788476	inkosi	-0.1003618
-4.416865	inkululeko	-0.2082959
-3.603952	inkulumo	-0.1569359
-4.115835	inkundla	-0.1003618
-3.872797	inkunzi	-0.1370596
-4.319955	inombolo	-0.1003618
-4.240774	inqobe	-0.1003618
-4.416865	inqobo	-0.2534701
-4.240774	inqubo	-0.1003618
-3.872797	inqubomgomo	-0.1595117
-4.115835	inqwaba	-0.1003618
-4.173827	inselelo	-0.1003618
-4.416865	insimbi	-0.1003618
-4.416865	insimu	-0.1003618
-4.173827	insindiso	-0.1003618
-4.173827	insizwa	-0.1003618
-4.240774	intabamlilo	-0.1003618
-4.018925	intando	-0.2951421
-4.064682	intatheli	-0.1003618
-3.904982	intela	-0.2447962
-4.319955	intelligence	-0.1003618
-4.319955	intengo	-0.1003618
-4.416865	international	-0.1003618
-4.416865	internet	-0.1003618
-4.115835	interview	-0.1433812
-4.416865	intethelelo	-0.1003618
-2.997736	into	-0.1581296
-4.064682	intombazane	-0.1003618
-4.240774	intombi	-0.1003618
-3.603952	intsha	-0.1237505
-4.173827	intuthu	-0.1003618
-3.657197	intuthuko	-0.1285628
-4.416865	inxenye	-0.1003618
-4.416865	inxoxo	-0.1003618
-3.842834	inyama	-0.1433812
-3.977532	inyanga	-0.1003618
-3.872797	inyoka	-0.1433811
-4.018925	inyunyana	-0.1509844
-4.416865	inzalo	-0.1003618
-3.904982	inzuzo	-0.1003618
-4.319955	ipayipi	-0.1003618
-4.173827	iphakade	-0.1856283
-4.319955	iphalamende	-0.274337
-4.319955	iphepha	-0.1003618
-3.696706	iphephandaba	-0.1199086
-3.763653	iphinde	-0.1003618
-4.173827	iphini	-0.1003618
-4.416865	iphuma	-0.1003618
-4.416865	iphume
-4.416865	iphunga	-0.1003618
-3.740171	iphupho	-0.1403768
-4.240774	iphutha	-0.2082959
-4.115835	iphuzu	-0.1003618
-4.416865	iplanethi	-0.1003618
-4.115835	iqala	-0.1003618
-4.319955	iqale	-0.1003618
-3.074442	iqembu	-0.2898867
-3.676502	iqhaza	-0.1229954
-4.416865	iqhubekile	-0.1003618
-4.240774	iqhwa	-0.1003618
-3.527563	iqiniso	-0.22563
-4.416865	iqola	-0.1003618
-3.302922	is	-0.1354299
-4.173827	isabiwomali	-0.1618575
-4.319955	isakhiwo	-0.1003618
-4.416865	isalukazana	-0.1003618
-4.319955	isambulo	-0.1003618
-3.842834	isandla	-0.1003618
-4.416865	isango	-0.1003618
-4.319955	isayensi	-0.1003618
-4.319955	isazi	-0.1003618
-3.977532	isaziso	-0.1003618
-4.416865	isebenza	-0.1003618
-4.018925	isebenze	-0.1786954
-4.240774	isekela	-0.1003618
-4.064682	isenzo	-0.1003618
-3.939744	ishaya	-0.1003618
-4.018925	ishaye	-0.1003618
-4.319955	ishaywa	-0.1003618
-4.173827	isiSwidi	-0.2648095
-4.240774	isiZulu	-0.1856283
-4.115835	isibalo	-0.274337
-4.240774	isibe	-0.1003618
-4.416865	isibhakabhaka	-0.1003618
-4.018925	isibhaxu	-0.4528823
-4.319955	isibhedlela	-0.1003618
-4.416865	isibindi	-0.1003618
-4.115835	isibonakaliso	-0.1003618
-3.500411	isibonelo	-0.125255
-4.173827	isibongo	-0.1003618
-3.474857	isicelo	-0.2232847
-3.872797	isici	-0.2328037
-4.173827	isicoco	-0.274337
-3.977532	isidingo	-0.1003618
-4.115835	isifo	-0.1003618
-4.319955	isifundazwe	-0.1003618
-4.319955	isifundo	-0.1003618
-3.939744	isigaba	-0.20918
-4.319955	isigameko	-0.2082959
-4.319955	isigamu	-0.1003618
-3.763653	isigijimi	-0.1509844
-4.416865	isiginci	-0.1003618
-4.240774	isigungu	-0.1003618
-4.115835	isigwebo	-0.1786954
-4.240774	isihlalo	-0.1003618
-4.416865	isihlobo	-0.1003618
-3.406141	isihloko	-0.1541542
-4.319955	isihlokwana	-0.1003618
-4.240774	isikhala	-0.1003618
-4.416865	isikhali	-0.1003618
-4.416865	isikhashana	-0.2082959
-2.796209	isikhathi	-0.2211046
-4.018925	isikhulu	-0.1618575
-4.240774	isikhumba	-0.1003618
-3.904982	isikhundla	-0.1003618
-4.240774	isiko	-0.1003618
-3.904982	isikole	-0.1377649
-4.319955	isikweletu	-0.1003618
-4.240774	isilo	-0.1786954
-4.416865	isilonda	-0.1003618
-4.018925	isimemezelo	-0.1003618
-4.064682	isimiso	-0.2082959
-3.212745	isimo	-0.1536089
-3.450723	isinqumo	-0.1321223
-4.064682	isintu	-0.1003618
-3.571767	isinyathelo	-0.1882003
-4.173827	isiphakamiso	-0.1003618
-4.018925	isiphandla	-0.1003618
-4.319955	isiphepho	-0.1003618
-4.319955	isipho	-0.1003618
-4.416865	isiphuku	-0.274337
-4.064682	isipiliyoni	-0.1003618
-3.814805	isiprofetho	-0.4334449
-4.416865	isiqala	-0.1003618
-4.416865	isiqalile	-0.1003618
-4.319955	isiqiniselo	-0.1003618
-4.240774	isisekelo	-0.1003618
-4.240774	isishingishane	-0.1003618
-3.842834	isitatimende	-0.1003618
-4.416865	isiteshi	-0.1003618
-4.416865	isitha	-0.1003618
-4.173827	isithakazelo	-0.1003618
-3.416865	isithombe	-0.1144113
-3.977532	isithunzi	-0.1003618
-4.319955	isitifiketi	-0.2082959
-4.240774	isitimela	-0.1003618
-4.240774	isitolo	-0.1003618
-4.416865	isitsha	-0.1003618
-4.319955	isitshalo	-0.1003618
-4.319955	isivele	-0.1003618
-4.240774	isivumelwano	-0.1003618
-4.319955	isivunguvungu	-0.2098442
-3.904982	isixazululo	-0.1692606
-4.115835	isixhumanisi	-0.1003618
-4.173827	isixuku	-0.1509844
-3.763653	isixwayiso	-0.1272404
-4.416865	isiza	-0.1003618
-3.788476	isizathu	-0.1229954
-4.416865	isizinda	-0.1003618
-4.416865	isizini	-0.1003618
-3.977532	isizukulwane	-0.2371502
-3.904982	isizwe	-0.1003618
-4.115835	iskhathi	-0.1003618
-4.173827	isoka	-0.1003618
-4.173827	isomiso	-0.1003618
-3.814805	isono	-0.2356341
-3.872797	isonto	-0.1249359
-4.240774	isu	-0.1003618
-3.416865	it	-0.1647089
-4.173827	ithatha	-0.1003618
-4.240774	ithathe	-0.1003618
-3.977532	ithe	-0.1003618
-4.064682	ithelevishini	-0.1003618
-3.676502	ithemba	-0.1003618
-3.696706	ithi	-0.1003618
-4.064682	ithimba	-0.1003618
-4.416865	ithola	-0.1003618
-4.173827	ithole	-0.1003618
-4.173827	ithonya	-0.1003618
-3.541804	ithuba	-0.1403768
-4.064682	ithuluzi	-0.2648095
-3.904982	ivangeli	-0.1003618
-4.319955	ivela	-0.1003618
-4.416865	ivele	-0.1003618
-4.416865	iveza	-0.274337
-4.319955	ivideo	-0.1003618
-4.173827	iviki	-0.1618575
-4.064682	ivoti	-0.1003618
-4.416865	iwadi	-0.2082959
-4.240774	iwashi	-0.1003618
-4.416865	iwayini	-0.1003618
-4.416865	iwebhusayithi	-0.2082959
-4.240774	iwona	-0.1003618
-4.416865	iwukuba	-0.1003618
-4.416865	ixazululwe	-0.1003618
-4.240774	iya	-0.1003618
-4.416865	iyaye	-0.1003618
-3.904982	iye	-0.1509843
-4.173827	iyini	-0.1786954
-4.319955	iyoba	-0.1003618
-4.416865	iyokwenzeka	-0.1003618
-4.018925	iyona	-0.1003618
-3.977532	iza	-0.1003618
-4.319955	izaba	-0.1003618
-4.240774	izakhamizi	-0.1003618
-3.676502	izakhamuzi	-0.1338802
-4.018925	izakhiwo	-0.1618575
-3.977532	izandla	-0.1911351
-4.416865	izazi	-0.1003618
-4.319955	ize	-0.1003618
-4.416865	izehlakalo	-0.1003618
-4.173827	izembe	-0.1003618
-3.717895	izenzakalo	-0.131208
-4.064682	izenzo	-0.1003618
-4.115835	izethembiso	-0.1003618
-4.115835	izibalo	-0.1003618
-4.240774	izibani	-0.1003618
-4.416865	izibhamu	-0.1003618
-4.416865	izibhedlela	-0.1003618
-3.977532	izibikezelo	-0.1377649
-4.319955	izibonakaliso	-0.1003618
-3.842834	izibonelo	-0.1433812
-4.240774	izibongo	-0.1003618
-4.064682	izibopho	-0.1939906
-4.240774	iziboshwa	-0.274337
-4.416865	izibuko	-0.1003618
-4.064682	izicelo	-0.1003618
-4.018925	izidakamizwa	-0.1003618
-3.541804	izidingo	-0.139507
-4.173827	izidingongqangi	-0.1003618
-4.240774	izifiso	-0.1003618
-3.814805	izifo	-0.2356341
-4.416865	izifunda	-0.1003618
-4.416865	izifundazwe	-0.1003618
-4.416865	izifundo	-0.1003618
-4.319955	izigaba	-0.1003618
-4.416865	izigameko	-0.1003618
-4.416865	izigebengu	-0.1003618
-3.676502	izigidi	-0.3675023
-4.240774	izigilamkhuba	-0.1003618
-3.939744	iziguli	-0.1377649
-4.416865	izihlahla	-0.1003618
-3.842834	izihloko	-0.1249359
-4.416865	izikhalazo	-0.1003618
-3.842834	izikhali	-0.2371502
-4.064682	izikhalo	-0.2082959
-3.365713	izikhathi	-0.1774041
-4.416865	izikhotha	-0.1003618
-3.740171	izikhukhula	-0.1604876
-3.904982	izikhulu	-0.1509843
-4.319955	izikhundla	-0.1003618
-4.319955	izikhungo	-0.1003618
-4.115835	izikole	-0.1003618
-4.115835	izikweletu	-0.1003618
-4.064682	izilwane	-0.1003618
-3.740171	izimali	-0.1334463
-4.240774	izimanga	-0.1003618
-4.416865	izimbangi	-0.1003618
-4.240774	izimfundiso	-0.1003618
-4.173827	izimfuno	-0.1003618
-4.064682	izimo	-0.1003618
-3.977532	izimoto	-0.1003618
-3.872797	izimpahla	-0.1377649
-4.018925	izimpawu	-0.1334463
-4.064682	izimpendulo	-0.1856283
-3.939744	izimpi	-0.1377649
-3.842834	izimpilo	-0.2089145
-4.319955	izincazelo	-0.1003618
-4.173827	izincomo	-0.1786954
-3.487446	izincwadi	-0.1514772
-3.513775	izindaba	-0.1003618
-3.450723	izindawo	-0.1149388
-4.064682	izindiza	-0.1003618
-4.240774	izindleko	-0.1786954
-3.620985	izindlela	-0.1692606
-3.450723	izindlu	-0.15571
-4.416865	izindondo	-0.1003618
-3.842834	izinga	-0.1003618
-3.450723	izingane	-0.191411
-4.240774	izingelosi	-0.1786954
-4.240774	izingoma	-0.1003618
-4.240774	izingozi	-0.1003618
-4.319955	izingubo	-0.1003618
-3.872797	izinguquko	-0.1370596
-4.416865	izingxabano	-0.1003618
-3.842834	izingxenye	-0.227021
-4.173827	izingxoxo	-0.1003618
-4.173827	izinhlaka	-0.1003618
-4.416865	izinhlamvu	-0.1003618
-3.904982	izinhlangano	-0.1003618
-4.064682	izinhlekelele	-0.1003618
-3.487446	izinhlelo	-0.1272404
-3.814805	izinhliziyo	-0.1786954
-4.416865	izinhlobo	-0.1003618
-4.173827	izinkabi	-0.1618575
-3.571767	izinkampani	-0.1509843
-3.474857	izinkinga	-0.154068
-4.416865	izinkomba	-0.1003618
-4.173827	izinkomo	-0.1618575
-4.416865	izinkontileka	-0.1003618
-3.977532	izinkulumo	-0.1003618
-4.115835	izinkulungwane	-0.2534701
-4.416865	izinkumbi	-0.2743371
-4.416865	izinqolobane	-0.1003618
-4.173827	izinqubo	-0.1003618
-3.814805	izinqumo	-0.1468738
-3.814805	izinsiza	-0.1003618
-4.319955	izinsizwa	-0.1003618
-4.173827	izinsolo	-0.1786954
-4.173827	izinsongo	-0.1003618
-3.556527	izinsuku	-0.1165891
